<?xml version="1.0"?>
<opencv_storage>
<opencv_ml_svm>
  <format>3</format>
  <svmType>C_SVC</svmType>
  <kernel>
    <type>LINEAR</type></kernel>
  <C>1.</C>
  <term_criteria><iterations>1000</iterations></term_criteria>
  <var_count>448</var_count>
  <class_count>6</class_count>
  <class_labels type_id="opencv-matrix">
    <rows>6</rows>
    <cols>1</cols>
    <dt>i</dt>
    <data>
      1 2 3 4 5 6</data></class_labels>
  <sv_total>15</sv_total>
  <support_vectors>
    <_>
      -6.46193996e-02 -3.40400159e-01 2.68761784e-01 6.72850087e-02
      -1.29463030e-02 2.21065320e-02 -1.75577942e-02 3.81560735e-02
      -2.74398267e-01 -2.66658604e-01 -2.35376760e-01 6.21715076e-02
      5.47404177e-02 2.02973649e-01 1.79592341e-01 2.13125274e-01
      1.17852334e-02 -1.90087929e-01 -2.10779384e-01 -1.64835379e-01
      4.60601458e-03 7.05147982e-02 2.60118812e-01 1.84395909e-01
      1.48160547e-01 4.01229747e-02 -1.54555127e-01 -1.96107626e-01
      -6.99873269e-02 6.37205318e-02 5.39658628e-02 2.31206417e-01
      1.36319771e-01 5.91849461e-02 -4.93017733e-02 -1.79321378e-01
      -1.31257474e-01 8.74940231e-02 1.63715065e-01 8.16154294e-03
      9.59508587e-03 -4.38926443e-02 2.18682289e-02 -1.24594821e-02
      -5.41320592e-02 1.22137815e-01 1.16310893e-02 3.75888459e-02
      -2.92277914e-02 4.20157649e-02 -2.25473531e-02 -1.39069278e-02
      2.02327240e-02 5.17538609e-03 2.89859045e-02 -1.47997979e-02
      -2.03988850e-02 -6.81400672e-02 -3.61759309e-03 -1.97717026e-02
      -2.55626091e-03 8.38537961e-02 8.26674886e-03 2.50434559e-02
      -9.42582171e-03 -1.13945328e-01 -1.39015198e-01 9.64898989e-03
      7.10186595e-03 5.95227852e-02 2.02555031e-01 -2.55347908e-01
      -8.87979940e-02 -1.02871329e-01 -2.75542345e-02 3.69411334e-02
      4.12003621e-02 2.71123976e-01 2.86916941e-01 3.15275863e-02
      -7.95385167e-02 -8.32189843e-02 -1.68299094e-01 -1.22804716e-01
      9.83105078e-02 1.66232914e-01 1.04809374e-01 2.25932762e-01
      1.57340504e-02 -7.19522536e-02 -7.68757686e-02 -2.97800988e-01
      -4.26149974e-03 1.04340002e-01 2.37843111e-01 1.19727306e-01
      3.16629857e-02 4.09658154e-04 -3.30575034e-02 2.12100763e-02
      -8.53581131e-02 3.49445045e-02 2.95558143e-02 1.79893419e-01
      3.55894901e-02 4.09658154e-04 6.71214610e-03 -6.62014559e-02
      1.06503755e-01 -1.21476978e-01 -3.03442478e-02 -4.45476733e-03
      4.47273068e-02 -5.27630262e-02 8.20481870e-03 -3.17891873e-02
      -6.47564009e-02 -2.17413204e-03 -1.26536682e-01 -2.39248872e-02
      2.70934124e-02 3.82679366e-02 2.67220638e-03 9.13372147e-04
      5.20366011e-03 -1.69100948e-02 3.43593769e-02 -3.33020091e-02
      -2.60598343e-02 -3.34180426e-03 4.26931540e-03 -1.61842313e-02
      4.13479805e-02 -3.17359269e-01 -1.99992657e-01 -1.24269247e-01
      -3.35758775e-01 4.58520837e-02 6.60795420e-02 5.77333979e-02
      8.68132785e-02 -3.26865941e-01 -3.00040513e-01 -7.46758208e-02
      -1.09977782e-01 -1.53893515e-01 -8.30830112e-02 7.90466145e-02
      9.21275839e-02 7.44941365e-03 -2.70773560e-01 -1.68261528e-01
      -1.38120893e-02 1.20464312e-02 -1.72677398e-01 -1.07406199e-01
      2.59064827e-02 5.22460043e-02 -5.00156097e-02 -1.04115963e-01
      -3.46172787e-02 -5.93195185e-02 1.76775396e-01 -8.58715773e-02
      -1.37590691e-01 -3.93786691e-02 2.23380879e-01 8.37873071e-02
      -6.58621429e-04 2.51384508e-02 -3.02200355e-02 1.27597377e-01
      -1.27332300e-01 -8.40881616e-02 -1.45839145e-02 1.89447775e-01
      -9.09714121e-03 -3.55303027e-02 -4.66885008e-02 -5.62123433e-02
      6.77570254e-02 -1.43503144e-01 1.63364150e-02 2.53239498e-02
      1.96767412e-02 -1.30496351e-02 -5.91687346e-03 2.11268455e-01
      2.46303946e-01 9.18128043e-02 6.02979809e-02 -2.30858708e-03
      -2.04481944e-01 -3.86666030e-01 -2.80216942e-03 1.54112592e-01
      1.62842304e-01 9.28825140e-02 3.71045060e-02 -4.26943675e-02
      -7.75603428e-02 -7.13783652e-02 -3.27022485e-02 1.77138075e-02
      1.66987211e-01 2.35593673e-02 1.09933540e-01 1.63189217e-01
      1.57395247e-02 -1.80198863e-01 -8.96430984e-02 2.46483669e-01
      7.76234940e-02 1.33994311e-01 1.72820017e-02 4.07284386e-02
      1.23627171e-01 -4.04959351e-01 -1.06823899e-01 -1.73480153e-01
      4.01909351e-01 1.32189125e-01 1.43352434e-01 -3.28880847e-02
      3.83877382e-02 7.94251934e-02 -2.58415848e-01 -5.38463712e-01
      -2.03435615e-01 3.64196032e-01 1.81088954e-01 7.99311604e-03
      -1.49281219e-01 -1.65486991e-01 -2.74148315e-01 -3.37165982e-01
      -3.23797792e-01 -6.38578460e-02 4.22064155e-01 1.87699467e-01
      -1.30826697e-01 -1.58662081e-01 -9.68178585e-02 4.15815040e-02
      -2.46247351e-02 -4.15755585e-02 -6.01583794e-02 8.98441896e-02
      6.34510517e-02 -1.93485752e-01 4.90333028e-02 1.42330304e-01
      -1.14813395e-01 -4.42755334e-02 6.11126907e-02 -2.12449431e-01
      -3.01269591e-01 1.13983199e-01 -1.66862626e-02 5.89021444e-02
      1.14924416e-01 2.28063360e-01 5.57492413e-02 5.73396161e-02
      -2.84565002e-01 -1.54098481e-01 -8.83509740e-02 1.00953672e-02
      -3.10599878e-02 1.52369678e-01 1.66119635e-01 1.44995004e-01
      -6.16155006e-02 -7.47702792e-02 -4.68058772e-02 -5.42930886e-02
      -9.22119468e-02 -1.77669883e-01 -1.15123011e-01 1.04330547e-01
      2.08853949e-02 -8.55455697e-02 8.04386213e-02 1.30558118e-01
      6.43639192e-02 -4.49787825e-02 -1.05045103e-01 -2.57786185e-01
      1.16686687e-01 6.02328144e-02 5.67307621e-02 -2.34070510e-01
      1.86418965e-01 -5.07234782e-02 -5.12426719e-02 -1.98516890e-01
      4.23086584e-02 4.06175494e-01 1.79662213e-01 2.56105829e-02
      -9.84071046e-02 1.00529179e-01 1.54450342e-01 -9.58484486e-02
      3.36785018e-02 -1.18740693e-01 2.19530061e-01 3.12686563e-01
      1.44699827e-01 -9.77343917e-02 1.86666232e-02 -1.46845311e-01
      -2.02155989e-02 5.66923857e-01 -7.07378015e-02 -2.10464269e-01
      -1.24597527e-01 1.78429008e-01 -5.52530102e-02 -3.13825198e-02
      4.83977310e-02 5.24097443e-01 -5.16172573e-02 1.36420235e-01
      2.47690320e-01 -1.11911492e-02 2.60564834e-01 -2.01120228e-01
      -9.16704535e-02 -2.28179812e-01 -1.47943780e-01 7.83440936e-03
      1.56116277e-01 8.72828737e-02 8.24043676e-02 -1.56683046e-02
      -2.97975466e-02 -1.47779733e-02 -1.18297338e-01 -9.40165147e-02
      3.05282697e-02 -5.56267202e-02 1.04208924e-01 5.77516761e-03
      -4.20240611e-02 -9.31191668e-02 -1.30609807e-03 -3.35870013e-02
      -5.73476404e-02 -1.23455092e-01 -2.39731167e-02 3.54909748e-01
      1.22432441e-01 2.05285579e-01 -1.61141321e-01 9.99333113e-02
      8.54347274e-02 -1.18516408e-01 -2.43130907e-01 -9.47666094e-02
      1.23214580e-01 -3.11002415e-02 1.11695409e-01 -1.79175273e-01
      1.63819447e-01 -3.48680653e-02 -2.70198524e-01 -1.80860370e-01
      -1.46766588e-01 1.03248872e-01 2.82552373e-02 -7.90669322e-02
      -2.27814227e-01 1.84286550e-01 -1.98936194e-01 -2.84825861e-01
      1.93074062e-01 -2.89667428e-01 -2.45489359e-01 -2.68051445e-01
      -3.49165201e-01 7.72404969e-02 2.51140624e-01 6.09846748e-02
      1.37379542e-01 -1.21041931e-01 6.95023835e-02 -1.26202032e-01
      -3.38686071e-02 1.22773550e-01 7.31696934e-02 3.90681066e-02
      -1.06336959e-02 -1.18876502e-01 8.68343189e-02 2.79589146e-02
      -5.77161610e-02 4.41748053e-02 -8.64206254e-02 -1.29018247e-01
      2.13078130e-02 -1.17260054e-01 3.11450101e-02 8.37340131e-02
      -1.66275650e-01 -8.67111683e-02 -3.17806825e-02 -3.86621147e-01
      -1.19544216e-01 3.82729657e-02 -4.86195087e-03 2.28051748e-02
      -8.68658200e-02 2.41344664e-02 8.63802955e-02 -2.98619270e-02
      -1.67188346e-01 -2.85580099e-01 4.98384051e-02 2.72230268e-01
      -6.24010824e-02 -1.03184521e-01 -1.10067546e-01 1.11945495e-01
      -1.40515178e-01 -2.77180761e-01 -1.68483615e-01 5.13776168e-02
      -1.47249624e-01 -1.35426998e-01 -2.10137680e-01 -2.21780077e-01
      4.18446027e-02 5.63490391e-02 -2.87630800e-02 -1.40701413e-01
      2.61689901e-01 -1.60113394e-01 -2.84482330e-01 -2.11512610e-01
      -3.04393172e-01 -1.51129484e-01 -5.53802811e-02 1.83705747e-01
      3.00950836e-02 3.48942429e-01 -7.01139197e-02 -3.14348370e-01</_>
    <_>
      -9.47949197e-03 -8.98407772e-02 9.20334533e-02 -5.03310040e-02
      8.64444766e-03 -2.93068662e-02 -2.53591035e-02 -3.76917305e-03
      -3.58794890e-02 -1.72137767e-02 4.07439144e-03 1.31402537e-02
      -1.84871443e-03 3.18551213e-02 3.50326821e-02 -4.47390452e-02
      -2.38921009e-02 8.40514340e-03 3.62531058e-02 2.05154736e-02
      -5.06350510e-02 2.19611335e-03 4.81171906e-02 2.66951323e-02
      -2.77626272e-02 -4.98202443e-02 5.68414144e-02 7.44708404e-02
      2.53489986e-02 2.75124256e-02 4.58195526e-03 4.05410267e-02
      5.47574926e-03 -4.98438366e-02 -4.92011122e-02 5.73037528e-02
      4.45729606e-02 2.54303850e-02 4.34288420e-02 4.33905981e-03
      2.59164367e-02 3.15313265e-02 -4.02192250e-02 1.29256755e-01
      -4.23391722e-02 6.32069036e-02 8.05385262e-02 -7.56986439e-02
      -1.66047975e-01 3.22976895e-02 2.31310830e-01 1.26204327e-01
      6.33437857e-02 -2.33725943e-02 1.62695944e-02 4.95466664e-02
      -2.38392740e-01 -4.41727303e-02 5.04558301e-03 1.41301274e-01
      9.22583789e-02 -2.76631098e-02 9.15053766e-03 3.29412408e-02
      6.72848243e-03 -2.58460462e-01 7.85820128e-04 3.74765918e-02
      1.80652037e-01 9.50822830e-02 -2.83306073e-02 -1.42063247e-03
      -2.02321894e-02 2.42744926e-02 -5.86095452e-03 -4.63282270e-03
      2.28948202e-02 4.27461714e-02 -4.69162166e-02 -1.00741088e-02
      -1.56863052e-02 -4.55672573e-03 2.53130849e-02 -3.11255325e-02
      1.04145762e-02 3.71761099e-02 4.51496840e-02 -2.69249417e-02
      -4.54152152e-02 -1.34900007e-02 3.02651767e-02 2.48848759e-02
      3.69076282e-02 1.75144095e-02 4.13219929e-02 3.42166685e-02
      -4.54415940e-02 -4.87469882e-02 3.11882365e-02 4.36185673e-02
      3.26982290e-02 5.66158742e-02 6.40721247e-03 9.19024984e-04
      1.94009729e-02 -4.87469882e-02 1.62907958e-01 3.31177004e-02
      1.64805710e-01 1.11177988e-01 -2.27370765e-03 -1.59348741e-01
      -1.15561686e-01 3.79797705e-02 1.67891532e-01 5.24105318e-02
      1.54839288e-02 1.20117299e-01 4.23679687e-02 -1.29564717e-01
      7.24892365e-03 -7.12753534e-02 1.18988335e-01 1.08819030e-01
      -4.09995556e-01 -2.39545360e-01 -3.83634776e-01 -4.98782456e-01
      -4.97692935e-02 6.36331260e-01 5.97308397e-01 7.80269980e-01
      -9.69636440e-02 -2.50914902e-03 2.09686272e-02 5.22410730e-03
      3.33716697e-03 -5.54311424e-02 -1.86323619e-03 3.34009789e-02
      4.64784764e-02 1.13194203e-03 -3.35657671e-02 -2.12020315e-02
      -4.18332964e-03 -4.54982510e-03 1.63895672e-03 9.49726533e-03
      2.69191992e-02 4.53057662e-02 -3.16675454e-02 -1.80005990e-02
      -3.56558450e-02 -2.16683634e-02 7.10778218e-03 1.79308373e-02
      1.81381125e-02 2.54665352e-02 3.06082759e-02 -2.74620950e-02
      -2.28697397e-02 -2.87160687e-02 -2.27108300e-02 3.07962000e-02
      5.02498187e-02 1.47939725e-02 -9.16970801e-03 2.61713075e-03
      -1.61141921e-02 6.72034621e-02 -4.58390005e-02 7.31977969e-02
      1.27764314e-01 -5.14579974e-02 -1.18504703e-01 -4.49156053e-02
      7.04482496e-02 1.11660011e-01 8.65312351e-04 -2.79655550e-02
      2.40205601e-02 6.86244890e-02 -8.32660049e-02 5.11525311e-02
      -8.26034248e-02 1.29000828e-01 6.89076334e-02 -1.59391373e-01
      1.79484174e-01 -2.35479638e-01 -1.59850121e-02 4.55255173e-02
      3.01846582e-02 -1.11186774e-02 2.96447754e-01 -9.17160138e-02
      1.86427720e-02 8.95153452e-03 3.22448350e-02 -7.75694195e-03
      -6.95587769e-02 -3.69867915e-03 5.39692193e-02 4.17903326e-02
      2.01484822e-02 -4.71001603e-02 -4.23058979e-02 -6.93716295e-03
      -9.24834795e-03 1.42755629e-02 9.36022087e-04 1.63231567e-02
      2.49308683e-02 -2.79030763e-02 -5.66704161e-02 -5.90799637e-02
      -3.93411703e-02 -3.01885675e-03 3.09602115e-02 2.45651063e-02
      2.36289501e-02 6.07968168e-03 -4.12504338e-02 -8.21310580e-02
      -5.69522716e-02 -6.21762536e-02 3.17216739e-02 7.57119730e-02
      3.84168737e-02 3.66703644e-02 1.35333603e-02 -6.97529912e-02
      -1.59185529e-01 -9.87137482e-02 -1.18837031e-02 6.46476373e-02
      7.19572827e-02 -4.34622206e-02 4.34595160e-02 -6.16523512e-02
      -1.10052221e-01 -1.37176022e-01 -5.67524359e-02 -5.69700589e-03
      1.75014451e-01 -2.63261832e-02 1.28798792e-02 -3.64993960e-02
      -2.17015129e-02 -1.12919331e-01 -2.03900605e-01 2.29430810e-01
      -2.31486082e-01 1.47747755e-01 1.04927078e-01 -8.67950788e-04
      -8.45721662e-02 3.12535162e-03 -1.60584390e-01 1.36230737e-02
      4.40264493e-03 1.27235660e-02 -7.84918200e-03 -4.38298546e-02
      -3.24855484e-02 4.05349508e-02 5.28243557e-02 1.15281427e-02
      -4.79003042e-02 -7.04396330e-03 -4.59760567e-03 -2.31128000e-02
      1.11810761e-02 1.71667919e-03 1.04461014e-02 8.48267507e-03
      -1.89445000e-02 -4.15905491e-02 -8.56651738e-03 -1.76034356e-03
      6.09020377e-03 1.03985611e-02 2.79847551e-02 4.03504493e-03
      -5.06951939e-03 -2.17743181e-02 -1.69846162e-01 -3.78459517e-04
      1.32949263e-01 9.95341390e-02 1.22693338e-01 -2.17036214e-02
      6.44488186e-02 2.85261478e-02 -1.68400139e-01 -2.14122273e-02
      2.03919280e-02 3.02199107e-02 4.27172482e-02 1.58292018e-02
      -4.50780336e-03 4.85531203e-02 -2.89950147e-02 -2.95081567e-02
      -3.82312783e-03 -2.78315488e-02 4.83775362e-02 3.27818505e-02
      -2.39800793e-04 -3.08065489e-03 9.78703499e-02 -1.53492643e-02
      -4.16264609e-02 7.77679915e-03 2.55308509e-01 -1.86660156e-01
      -1.84535515e-02 1.63195446e-01 -8.26697648e-02 -4.79067825e-02
      1.39353238e-02 -2.34678853e-03 -3.20739672e-03 1.08926870e-01
      9.90485176e-02 7.98420515e-03 -1.37263136e-02 1.06808608e-02
      -6.37753010e-02 5.22700734e-02 -6.01632381e-03 -1.29242698e-02
      9.89667252e-02 8.73674154e-02 2.37783953e-03 -4.18456085e-02
      2.79790461e-02 -3.70171666e-02 1.33349691e-02 -5.55530097e-03
      -3.99268121e-02 9.07392129e-02 6.71490505e-02 2.32773647e-02
      -2.58802604e-02 3.59858908e-02 2.42871512e-02 2.12945044e-02
      -3.61033343e-02 -7.93459415e-02 7.58938268e-02 8.42009857e-02
      5.54429106e-02 1.14199184e-01 -7.99147133e-03 2.59362217e-02
      5.09679876e-02 -7.94456899e-02 -5.59915528e-02 4.81891632e-02
      6.04627617e-02 7.65349939e-02 1.47408266e-02 -1.22623043e-02
      3.25135794e-03 -2.23715641e-02 -6.02904372e-02 -2.05080286e-02
      2.20096409e-02 2.98678353e-02 3.24596651e-02 -1.37118567e-02
      -1.92639101e-02 7.51084536e-02 -1.10650845e-02 -8.06434229e-02
      -7.14907572e-02 3.36921006e-01 -7.87395760e-02 1.20866202e-01
      1.51076347e-01 -1.76598653e-01 -7.65461251e-02 -4.57187295e-02
      -1.15782812e-01 -2.71742642e-02 1.00540757e-01 8.70925188e-02
      2.72741318e-02 2.18151323e-02 7.82400742e-03 -9.74774547e-03
      1.21947601e-02 -4.35669087e-02 -4.97733876e-02 8.55643153e-02
      5.92893586e-02 1.11677516e-02 -3.22863534e-02 2.45594941e-02
      6.08181544e-02 4.93738689e-02 -4.63745371e-02 -5.99035397e-02
      5.27230501e-02 4.41229977e-02 2.33261362e-02 2.34644450e-02
      2.02241279e-02 9.54426751e-02 9.29618180e-02 -6.03819080e-02
      -6.81796223e-02 9.71651226e-02 7.68546760e-02 2.58967411e-02
      1.21786766e-01 -7.81406357e-04 3.93919460e-02 8.06702673e-02
      -6.88024908e-02 -6.78645745e-02 6.24891594e-02 6.16177619e-02
      6.40254319e-02 1.21009886e-01 -5.95693185e-04 1.26001555e-02
      -6.10391796e-03 -6.80640489e-02 -5.19863069e-02 -1.90513511e-03
      1.35737322e-02 1.30307108e-01 8.23896453e-02 1.03144348e-02
      6.53765649e-02 -1.08039044e-02 -1.30158380e-01 -1.40778664e-02
      -5.58234844e-03 -1.72704179e-02 2.31861770e-02 4.98608351e-02
      8.83554760e-03 9.12472755e-02 2.04075947e-02 -6.34923503e-02</_>
    <_>
      -2.52235774e-02 1.07359681e-02 4.15766947e-02 -4.91028838e-02
      -4.17501107e-03 5.51732909e-03 -3.12195858e-03 -2.68889163e-02
      -2.74058469e-02 -2.71858424e-02 2.28259303e-02 4.32962775e-02
      1.84793957e-02 5.27430885e-02 3.14796045e-02 -2.13994347e-02
      -2.12448444e-02 -2.07883772e-02 -2.08428372e-02 3.25517170e-02
      6.12091906e-02 1.22229978e-02 6.76585063e-02 4.11949567e-02
      -6.86604111e-03 9.87091288e-03 -1.27652297e-02 -1.87186953e-02
      -3.02038644e-03 9.25343763e-03 1.31899705e-02 4.22024690e-02
      2.17963066e-02 1.49125606e-02 -2.50685634e-03 -1.22583946e-02
      -2.95426361e-02 -1.17035070e-02 6.62648492e-03 1.84463225e-02
      4.46235575e-02 2.68054474e-02 4.99526644e-03 -1.61493430e-03
      -5.07481098e-02 -2.49329787e-02 4.61313967e-03 1.09502743e-03
      2.98836287e-02 7.30289519e-02 3.98639068e-02 -3.44861648e-04
      -7.15908920e-03 -7.35646710e-02 -2.16915719e-02 2.77000293e-02
      -2.01622378e-02 4.17201966e-02 7.08671659e-02 3.52233350e-02
      -3.26608084e-02 -3.62772495e-02 -8.73676017e-02 -7.19198659e-02
      -3.27668786e-02 -4.43662554e-02 1.89259425e-02 8.53719041e-02
      8.87911767e-02 1.65409390e-02 -2.41860021e-02 -2.01915354e-02
      -2.01915354e-02 5.81420809e-02 3.13615836e-02 2.82176211e-02
      5.88308163e-02 2.81243213e-02 -1.64739937e-02 -2.50313003e-02
      -2.50676870e-02 -2.46819854e-02 3.09041310e-02 3.01424377e-02
      1.59185920e-02 6.45167753e-02 5.88574521e-02 -1.57932155e-02
      -4.97048767e-03 -2.32710950e-02 -2.70829815e-02 -7.55075086e-03
      1.84193905e-02 1.51825631e-02 4.07087728e-02 4.49643098e-02
      -9.68352985e-03 -8.67094472e-03 -1.47826681e-02 -1.49619346e-02
      -4.37604915e-03 1.62794464e-03 1.89759359e-02 3.55585702e-02
      2.24769674e-02 -8.56822822e-03 2.81817466e-03 -4.02687453e-02
      3.58073739e-03 4.32765670e-03 -3.75946402e-03 2.31593698e-02
      3.20206545e-02 -1.03639830e-02 2.91503477e-03 -7.57852977e-04
      -7.42411539e-02 -9.43659991e-03 7.28590414e-03 -1.17481649e-02
      4.21113074e-02 3.30863744e-02 -3.53888632e-03 -1.62615180e-02
      -6.36399835e-02 -8.26879889e-02 -6.14300072e-02 -3.57372724e-02
      -7.23769097e-03 5.37569635e-02 6.28812462e-02 6.76700622e-02
      -1.23283137e-02 -2.39644777e-02 -1.16900690e-02 -1.31017165e-02
      4.01932970e-02 2.63506807e-02 3.37049291e-02 2.97812410e-02
      1.38034234e-02 -1.05247404e-02 -2.51789447e-02 -3.70104648e-02
      -1.54591370e-02 1.72411427e-02 3.06815468e-02 1.82812866e-02
      4.78770584e-02 3.32912989e-02 9.31034621e-04 -8.75091366e-03
      -5.45128956e-02 -2.60147098e-02 -1.13099189e-02 1.28363520e-02
      1.54257249e-02 2.21919306e-02 2.41544694e-02 1.50256772e-02
      -9.84227192e-03 -5.30221201e-02 -1.73431989e-02 -5.29458234e-03
      7.06018275e-03 1.95561219e-02 1.27975615e-02 2.17565671e-02
      8.57007783e-03 6.53188070e-03 -3.85065004e-02 2.21924093e-02
      -9.39413626e-03 1.11640282e-02 6.84773643e-03 1.62384808e-02
      -1.46488007e-03 3.53054865e-03 3.41425799e-02 -6.47549182e-02
      -2.44619232e-02 -1.22489303e-03 1.10405525e-02 3.96197066e-02
      1.75657552e-02 1.50537426e-02 5.23190834e-02 -4.87855114e-02
      -2.92745885e-02 -2.62800548e-02 -1.16995247e-02 2.71199155e-03
      4.92914021e-02 1.93608999e-02 1.58205200e-02 -4.08627465e-02
      1.31757464e-02 5.92170563e-03 -8.14032927e-03 2.06211563e-02
      1.47117469e-02 3.25038694e-02 5.65181603e-04 1.52044315e-02
      2.60494091e-02 2.72978749e-03 -4.23424989e-02 -1.12355635e-01
      2.47488264e-02 -3.28487977e-02 1.23114653e-01 5.97074255e-02
      3.19232941e-02 4.00837101e-02 -1.30812317e-01 -8.94889459e-02
      -8.58424604e-02 2.83021480e-02 7.66521692e-02 1.27486408e-01
      1.83103494e-02 -2.31983364e-02 -8.62051472e-02 -1.12726279e-01
      -7.47537389e-02 -8.43856931e-02 8.20314884e-02 9.01722014e-02
      3.92784588e-02 -5.20500913e-02 -6.60630316e-02 -8.66322666e-02
      -1.33437172e-01 -3.42102647e-02 -2.90068202e-02 1.06782675e-01
      8.65586773e-02 4.47882824e-02 -1.26805790e-02 -1.05586760e-01
      -1.13241017e-01 -1.50414512e-01 -8.61153565e-03 1.71517767e-03
      1.86703026e-01 2.51668952e-02 1.46638468e-01 -9.67347901e-03
      -8.48799571e-02 -1.27296299e-01 -3.49699557e-02 -1.00144921e-02
      2.79147793e-02 2.31980234e-02 -1.06339594e-02 2.56955884e-02
      2.65209912e-03 -1.49876280e-02 -3.86492275e-02 1.55218914e-02
      4.58521442e-03 3.80547009e-02 3.91358882e-02 2.57692859e-02
      1.03595583e-02 -1.14738829e-02 -3.24690826e-02 6.91740168e-03
      -4.12484258e-03 -3.17107677e-03 -1.08603589e-01 -1.00873299e-01
      3.26228887e-02 9.91219431e-02 -5.76783624e-03 -1.96348224e-02
      1.61301140e-02 -7.32132867e-02 -6.20211810e-02 -9.81105790e-02
      -9.04317573e-03 4.58655842e-02 1.30728677e-01 1.30752623e-02
      5.02990233e-03 -5.17916828e-02 -3.88773903e-02 -1.89347956e-02
      -6.19098879e-02 4.04874422e-02 3.12383939e-02 3.48208174e-02
      -5.72412647e-03 -1.31027140e-02 -4.00530361e-02 4.19155918e-02
      6.21167235e-02 2.89978515e-02 8.10379609e-02 5.54244258e-02
      3.44201829e-03 -5.99732772e-02 -9.19182152e-02 3.87561247e-02
      2.36882158e-02 1.26022846e-01 4.06852178e-02 1.85307294e-01
      4.99959430e-03 3.73992138e-02 -1.00991942e-01 -1.11755289e-01
      7.30192848e-03 1.12418436e-01 2.27163285e-02 5.49688488e-02
      1.18465610e-02 -1.27213607e-02 -1.33362534e-02 -2.07060277e-02
      -1.27456579e-02 1.08492620e-01 -2.45582908e-02 3.90419252e-02
      3.12606283e-02 2.67425235e-02 2.13203486e-02 2.89631132e-02
      -8.92813317e-03 -4.56002094e-02 -6.13784790e-02 1.19003216e-02
      3.88567261e-02 -1.34580448e-01 -1.30326405e-01 4.79468741e-02
      1.06775321e-01 -2.46957392e-02 -3.39159742e-02 2.26863846e-02
      -1.11703519e-02 9.77839623e-03 -1.10953227e-01 -2.04484183e-02
      3.32182497e-02 9.07823816e-02 -4.66346694e-03 -1.19232321e-02
      -2.36458257e-02 -5.78848738e-03 1.23236455e-01 -4.17739935e-02
      1.35125611e-02 1.25841931e-01 3.88357113e-03 -2.80759204e-02
      -7.62992259e-03 -6.79471996e-03 1.11747421e-02 1.18013687e-01
      4.45640869e-02 4.27306928e-02 -4.48335055e-03 -2.23209988e-02
      -7.57771134e-02 -9.59752649e-02 -4.28846292e-03 1.82416718e-02
      1.31846666e-01 6.39169216e-02 9.51795354e-02 -1.73632484e-02
      -2.35944018e-02 -1.06147937e-01 -1.14732116e-01 -3.68319117e-02
      4.09921259e-02 2.90245470e-03 4.01122384e-02 -7.17183799e-02
      -8.89933947e-03 -3.00255660e-02 2.87033934e-02 7.17877829e-03
      2.22203881e-02 -6.96609402e-03 4.89375927e-02 3.19969431e-02
      2.99324133e-02 1.42931333e-02 1.36902574e-02 2.80676875e-03
      -3.20751481e-02 -3.35824005e-02 4.52120677e-02 4.41485047e-02
      -1.92444727e-01 -7.85281137e-02 -1.19992897e-01 2.57961806e-02
      2.69686282e-02 -2.99022980e-02 6.66716024e-02 2.88092401e-02
      2.89488547e-02 -1.33289158e-01 -3.23348977e-02 -1.22023739e-01
      1.76172461e-02 2.52331756e-02 1.12512149e-02 2.04960108e-02
      4.73974384e-02 1.83668494e-01 -6.45791218e-02 -2.83880681e-02
      4.10613716e-02 -2.49929372e-02 -7.24196658e-02 -1.46618038e-02
      2.98068020e-02 4.19583507e-02 1.63144529e-01 8.51147845e-02
      9.37906560e-03 -1.08192042e-01 -2.07212102e-02 -1.03209592e-01
      -1.50452673e-01 1.30227823e-02 4.80217934e-02 1.64418116e-01
      9.87100527e-02 4.33351099e-02 -1.20686226e-01 -2.66826525e-02
      -1.19446993e-01 -1.38373703e-01 -1.62484702e-02 1.87503211e-02
      1.31123960e-02 5.68812937e-02 -3.93006913e-02 -3.69104237e-05
      -2.63222121e-02 1.95084177e-02 -2.33034790e-02 -1.03212893e-02</_>
    <_>
      -3.03162098e-01 -6.32846802e-02 3.39200348e-01 -1.49419054e-01
      3.79781402e-03 6.65106252e-02 1.76730044e-02 1.46505591e-02
      -9.73294228e-02 1.01971971e-02 -2.03146525e-02 2.10782334e-01
      -1.96380362e-01 -4.28832583e-02 -1.46539450e-01 -1.36859134e-01
      5.60480021e-02 -1.66203324e-02 -1.08176038e-01 5.07559963e-02
      -1.25732705e-01 -1.58912227e-01 9.06189010e-02 -4.22081016e-02
      9.76597667e-02 5.21174036e-02 -3.81644368e-02 -1.50924578e-01
      1.00114591e-01 -2.30956953e-02 1.51974978e-02 9.77848917e-02
      -3.55261564e-03 5.30031733e-02 1.28399264e-02 6.13822006e-02
      -8.02952722e-02 7.99214691e-02 5.47485426e-02 -1.47958040e-01
      -3.82810950e-01 -1.00248493e-01 1.24445714e-01 1.84739336e-01
      -1.59034789e-01 1.56533495e-01 9.56083611e-02 -1.36389986e-01
      -2.45654464e-01 7.69763365e-02 2.13364542e-01 3.28920275e-01
      -6.93645477e-02 -1.58672914e-01 1.01325020e-01 1.30708963e-01
      -7.13947192e-02 8.59619584e-03 1.30848348e-01 7.53845647e-02
      -1.33603439e-01 -1.15170546e-01 -1.60977796e-01 -1.61715090e-01
      -1.46732301e-01 -2.53490627e-01 -6.24425896e-02 1.80656418e-01
      3.11208993e-01 1.72228500e-01 2.10742891e-01 -3.60538483e-01
      8.38289559e-02 -1.19662747e-01 7.23826885e-02 6.19480992e-03
      -5.01692593e-01 6.71152100e-02 9.86822182e-04 1.18078321e-01
      -8.16832483e-02 -1.07643269e-02 3.88612673e-02 -7.31776282e-02
      6.85118884e-02 -2.81349450e-01 -1.40020043e-01 9.61946547e-02
      -6.56655477e-03 3.01438812e-02 -4.12290320e-02 6.73248321e-02
      1.78301185e-01 1.05477937e-01 -8.79727304e-02 -1.36067420e-01
      -7.68506061e-03 1.25436872e-01 -1.23175438e-02 -7.99476281e-02
      1.43196300e-01 3.87808681e-01 9.50055048e-02 -5.28431199e-02
      4.61426526e-02 8.09098631e-02 1.89494431e-01 -1.92136839e-01
      6.67767376e-02 1.22387439e-01 3.32231402e-01 -5.30520789e-02
      -1.43478706e-01 -8.51297155e-02 2.73425519e-01 4.54244800e-02
      -2.98005015e-01 2.04043016e-02 6.01383299e-02 8.60576704e-02
      1.20504610e-01 -3.47622379e-04 -1.37673527e-01 -9.91409197e-02
      -2.50668228e-01 -3.11286032e-01 -2.34343573e-01 -1.80688396e-01
      7.81408325e-02 1.07658848e-01 1.57812968e-01 1.36478260e-01
      2.65423860e-02 -4.90411520e-01 -5.24964221e-02 -5.60559407e-02
      -2.83014148e-01 1.65964007e-01 3.71212922e-02 -1.92563534e-01
      -2.72135139e-01 -5.25938630e-01 -1.37437463e-01 1.92675024e-01
      -2.80477405e-02 3.47458757e-02 -1.26547962e-01 9.73217413e-02
      -1.14952065e-01 -2.58963592e-02 -1.63783371e-01 3.03185880e-02
      -3.04604918e-02 -2.01093897e-01 1.70399338e-01 4.62280065e-02
      1.06338754e-01 -1.37621269e-01 1.70084983e-02 1.58343017e-01
      8.14063847e-02 -1.56834036e-01 -4.28527802e-01 2.18353700e-02
      2.27683797e-01 1.03847407e-01 -1.88899949e-01 -2.81741284e-02
      1.50687650e-01 1.48097575e-01 -2.78846383e-01 1.44386873e-01
      -2.23362055e-02 1.36503473e-01 -1.19917758e-01 -1.19934790e-01
      -2.73872316e-01 1.30425140e-01 7.98822045e-02 -2.31771082e-01
      -9.35696997e-03 -3.43505740e-02 1.31038383e-01 1.45000473e-01
      5.62213361e-02 -1.53591335e-02 1.72560185e-01 -2.35717848e-01
      3.00239455e-02 -1.88539818e-01 -6.82189241e-02 2.93868482e-01
      8.61736536e-02 -1.48017004e-01 6.98048621e-02 -1.96079388e-01
      1.14802048e-01 -8.58620033e-02 -1.11972675e-01 -4.53727394e-01
      4.40727845e-02 -1.35499001e-01 6.13803603e-02 1.82983235e-01
      1.60451591e-01 3.83380391e-02 -1.03429228e-01 -7.89347850e-03
      -1.17796831e-01 -1.68150604e-01 -4.78166156e-02 -3.67203727e-02
      1.66871712e-01 1.70611367e-01 -2.46634275e-01 -2.41806254e-01
      -1.64223954e-01 -2.53280520e-01 1.00196548e-01 3.15632731e-01
      8.64232145e-03 1.71550587e-01 -5.40720224e-02 8.77929181e-02
      -3.19561124e-01 -2.15558186e-01 -3.29945311e-02 2.29096994e-01
      1.40114591e-01 -1.56576782e-01 1.74644589e-01 2.15136454e-01
      -6.07312284e-02 -3.41059297e-01 -9.25736409e-03 -1.13062590e-01
      -1.73934828e-02 8.62651095e-02 3.09689462e-01 -1.80656135e-01
      3.92362885e-02 -3.60031694e-01 -1.58362016e-01 -2.97913812e-02
      1.46593451e-01 3.17594469e-01 -3.39652486e-02 -4.74353693e-02
      -2.33933091e-01 -3.83013248e-01 -2.17420310e-01 1.54452056e-01
      -2.05045745e-01 -1.69503298e-02 2.45687410e-01 -1.55104443e-01
      -3.19540709e-01 2.92131044e-02 -2.29120940e-01 4.41279441e-01
      -2.06483781e-01 4.75640185e-02 -2.18880713e-01 -2.05319896e-02
      -3.25246125e-01 6.68776557e-02 1.85197070e-01 3.83718967e-01
      8.09264332e-02 -1.46738989e-02 1.40500262e-01 9.61164534e-02
      -1.46213591e-01 -1.22857869e-01 -5.73054440e-02 -5.29427901e-02
      -4.08928841e-02 -1.79267734e-01 -1.66952848e-01 -1.34271709e-02
      1.25356913e-01 1.91084579e-01 1.87317759e-01 3.01721059e-02
      -5.84919453e-02 -2.46157810e-01 -1.17064469e-01 -2.58579195e-01
      3.55103128e-02 4.27827597e-01 2.09132493e-01 -2.45657880e-02
      -2.57320791e-01 1.87148958e-01 -1.46519125e-01 6.91033294e-03
      -1.59119412e-01 -5.78318313e-02 7.55709708e-02 -4.29597385e-02
      -1.05131283e-01 -2.00149685e-01 -8.97184014e-02 -3.01185489e-01
      -1.50070861e-01 -8.77409875e-02 8.18535239e-02 1.66869909e-01
      1.20334595e-01 -1.33154154e-01 1.57432370e-02 -1.13464728e-01
      -3.54194283e-01 -1.87029690e-01 -7.75298849e-02 -2.47816116e-01
      6.65093260e-03 1.49264097e-01 -7.85492808e-02 -1.32348277e-02
      1.74983934e-01 -3.35874707e-01 -4.44034748e-02 -1.10326439e-01
      5.04197590e-02 -2.39851400e-01 1.27923638e-01 2.93509662e-01
      1.24961860e-01 2.18743384e-01 -6.12321347e-02 9.36206132e-02
      1.85325503e-01 7.76633173e-02 1.12508349e-01 -1.10255800e-01
      2.82044888e-01 -1.49597824e-01 -1.11109912e-01 -9.39512476e-02
      -1.09825041e-02 1.19079858e-01 -1.27461487e-02 1.19567253e-01
      7.12931976e-02 3.44713151e-01 -1.03029288e-01 8.61835852e-03
      -1.77068621e-01 -1.93211213e-02 -1.18811160e-01 -1.85519323e-01
      2.80984133e-01 8.54705870e-01 2.72676200e-02 3.92910480e-01
      6.10220373e-01 1.27934113e-01 4.64824475e-02 -2.25141905e-02
      1.13775274e-02 5.94799258e-02 7.46481121e-02 -1.77700013e-01
      1.01088762e-01 2.35003024e-01 4.95203286e-02 1.35764673e-01
      -4.41982038e-02 5.57158440e-02 -1.96523350e-02 -1.32781759e-01
      -2.54527360e-01 4.67190370e-02 -3.16707827e-02 -1.01543516e-01
      7.75987580e-02 -1.56896666e-01 -2.15908960e-01 -4.60225679e-02
      2.27348864e-01 -2.14793518e-01 -2.35036463e-02 1.61098510e-01
      -1.13985837e-01 -2.05796495e-01 -1.66102514e-01 -4.43716049e-01
      -2.05939904e-01 -2.99912423e-01 3.19053233e-01 6.30465567e-01
      6.89494550e-01 -6.71684295e-02 1.49440676e-01 2.64084041e-01
      -1.15904838e-01 1.37795862e-02 -3.37000817e-01 5.56175299e-02
      -1.10524578e-03 1.75001770e-02 -4.93242331e-02 2.24450547e-02
      1.13240942e-01 -5.81237972e-02 1.01208441e-01 -1.44249067e-01
      1.10054009e-01 -9.41546820e-03 -1.48831168e-02 -5.61277829e-02
      3.13175380e-01 1.09970860e-01 -3.68512750e-01 -2.18793720e-01
      4.39445913e-01 -2.44642168e-01 8.43095556e-02 3.62086713e-01
      2.49526396e-01 1.37650058e-01 3.72784883e-02 6.68598413e-02
      -1.98819533e-01 -5.92445657e-02 -2.69471079e-01 -5.71189784e-02
      -1.71865057e-02 1.34579584e-01 -2.55310722e-02 -1.52311623e-01
      2.97067165e-02 -6.03445284e-02 -1.00303724e-01 -9.41590220e-02
      1.11312710e-01 -7.14362189e-02 -9.23120677e-02 1.70332283e-01
      -2.71427594e-02 1.53664380e-01 -1.75946414e-01 -2.06393003e-02
      -2.61153609e-01 -5.10999858e-02 -1.25699162e-01 -2.16012806e-01</_>
    <_>
      -6.80844784e-01 2.70461261e-01 5.27473055e-02 -7.58659393e-02
      -1.69404242e-02 8.20330251e-03 -2.23107520e-03 1.02578938e-01
      -4.78199869e-01 -4.49319988e-01 -3.73163879e-01 -1.55095950e-01
      -3.02045885e-02 3.04725152e-02 2.44665697e-01 -2.59161387e-02
      9.10432041e-02 -1.13922060e-01 -4.18621413e-02 -3.37247342e-01
      -5.21725833e-01 -2.46384777e-02 1.01533547e-01 2.04579815e-01
      3.35313529e-02 6.48007318e-02 -1.92201346e-01 -1.51994959e-01
      -1.05880007e-01 -4.48366225e-01 -2.16941372e-03 1.82820454e-01
      1.93828732e-01 7.25619942e-02 -7.39829540e-02 5.43229319e-02
      -1.14437550e-01 8.72365683e-02 -3.66340965e-01 -4.43153344e-02
      -9.98301730e-02 -2.22347066e-01 1.16632812e-01 1.05698884e-01
      -9.09325033e-02 1.78948864e-01 2.48714071e-02 -4.93562609e-01
      -9.61870104e-02 2.34549776e-01 1.77642062e-01 1.01441912e-01
      4.21516001e-02 -1.54881418e-01 9.32620913e-02 8.93254280e-02
      -2.10891992e-01 4.47748043e-02 1.06877714e-01 -8.87944847e-02
      -2.28059962e-02 1.90815385e-02 3.75016257e-02 7.07253143e-02
      5.05658910e-02 1.31560843e-02 2.40171980e-02 -2.02495828e-02
      -2.34522186e-02 4.18164628e-03 -1.12362437e-01 -1.49930790e-01
      -1.53420225e-01 -3.25964957e-01 -2.35660568e-01 6.47318959e-02
      -1.24003969e-01 2.28599519e-01 -1.51773527e-01 6.61713481e-02
      -2.88941953e-02 8.41238536e-03 -1.68783188e-01 -3.31447363e-01
      1.50044352e-01 -1.17491402e-01 1.36149883e-01 -8.92273635e-02
      -1.45482510e-01 -4.11194600e-02 8.81513506e-02 -9.49736908e-02
      -1.16905935e-01 3.98111232e-02 6.37176335e-02 6.59925938e-02
      -1.41700089e-01 -1.77674830e-01 2.37070680e-01 2.44664282e-01
      -4.83161351e-03 -1.49091408e-01 3.35574262e-02 1.33650303e-01
      -7.57228304e-03 -1.66824088e-01 3.26392390e-02 9.26728025e-02
      3.47198308e-01 1.58701390e-01 -4.38614190e-02 -1.27798766e-01
      3.28775384e-02 -1.62491292e-01 2.75030602e-02 8.03007483e-02
      -1.95274413e-01 -5.47245741e-02 4.10230532e-02 -9.30855200e-02
      2.26985887e-01 1.36394620e-01 -6.57830760e-02 -1.96342301e-02
      -2.74875343e-01 -1.39943853e-01 -1.85100675e-01 -6.84505180e-02
      4.99071181e-02 3.58073652e-01 1.23722680e-01 1.02205269e-01
      -3.47488485e-02 -1.18001230e-01 -1.51835352e-01 8.46622791e-03
      -3.41939986e-01 -1.92877039e-01 -1.10683396e-01 -8.14242810e-02
      1.74393684e-01 -1.03132322e-01 -2.21780777e-01 5.22184148e-02
      1.44353181e-01 -1.55069023e-01 -7.18051344e-02 2.82422528e-02
      -1.01473227e-01 1.33234009e-01 -3.14936101e-01 -2.08922476e-01
      -1.01871371e-01 3.97392325e-02 1.14693560e-01 3.52386832e-02
      6.12331852e-02 6.33036941e-02 5.52422516e-02 -2.99264461e-01
      -1.36889413e-01 1.09204754e-01 1.13768958e-01 1.11039430e-01
      -2.04637572e-01 4.51880991e-02 1.19351506e-01 5.25508262e-02
      -8.66775140e-02 5.69538362e-02 6.07612617e-02 3.71643096e-01
      2.38657564e-01 -2.11388171e-02 -2.26574421e-01 5.52968308e-02
      -1.18007988e-01 6.24077395e-03 1.16352424e-01 -3.05121571e-01
      9.63074863e-02 1.04296036e-01 -1.99002519e-01 3.09119761e-01
      2.43813932e-01 2.01580405e-01 2.45752722e-01 -2.90124774e-01
      1.69658184e-01 -9.40649509e-02 9.40042064e-02 2.05759048e-01
      2.61286587e-01 -2.57187605e-01 1.60292685e-01 -3.38585764e-01
      5.74687198e-02 5.99288195e-02 -4.33541574e-02 -2.68612981e-01
      -3.85623798e-02 5.18404655e-02 -1.67281598e-01 8.53271261e-02
      2.85149347e-02 -7.30877891e-02 -5.76157980e-02 -8.32138211e-02
      -2.87431419e-01 -5.45455664e-02 1.84705019e-01 -5.72493337e-02
      1.41103402e-01 -6.75086230e-02 -2.16477126e-01 -1.37484202e-03
      -6.42034858e-02 -2.95066953e-01 -8.46774429e-02 2.82734513e-01
      1.10041656e-01 1.94526151e-01 -9.92631689e-02 3.75920385e-02
      8.82818922e-02 1.00675575e-01 -5.82220294e-02 -2.90980101e-01
      -6.85993880e-02 2.39630967e-01 2.34340593e-01 9.56442133e-02
      5.64564951e-02 8.52589458e-02 -3.50130014e-02 -1.06686592e-01
      -3.62149812e-02 -1.92860380e-01 -6.54398836e-03 -2.86928639e-02
      4.53776307e-02 -2.54589260e-01 -1.04908802e-01 4.24459964e-01
      3.46978724e-01 2.09774598e-02 -1.81290116e-02 -1.39620110e-01
      -1.90056056e-01 -3.38958472e-01 -1.59678310e-01 2.14308888e-01
      5.07495692e-03 1.59656525e-01 2.10807621e-01 2.92468962e-04
      -4.18801874e-01 2.21743658e-02 -2.45050266e-01 1.23538464e-01
      9.39686298e-02 1.46060541e-01 -6.77808449e-02 1.08422913e-01
      -2.86812693e-01 -3.23822126e-02 -1.09255359e-01 -8.92423019e-02
      -5.06057180e-02 4.72444706e-02 8.56626108e-02 -1.62093952e-01
      1.20889291e-01 -3.79651487e-02 -9.29707736e-02 6.10337853e-02
      -1.80861846e-01 -4.45951633e-02 7.59201422e-02 -1.73798669e-02
      -1.38043627e-01 7.70488232e-02 3.69306087e-01 -9.71825123e-02
      2.83511654e-02 -8.73530209e-02 1.67491660e-01 3.40661630e-02
      2.74487317e-01 7.64970928e-02 -1.23717830e-01 -8.89203772e-02
      8.00567269e-02 1.01798683e-01 8.82088467e-02 1.46721080e-01
      1.67456269e-01 1.94141865e-01 -1.00247659e-01 -6.53976202e-02
      -2.54697531e-01 1.00889988e-01 4.90238294e-02 1.08517759e-01
      2.94834096e-02 2.18041033e-01 2.70019263e-01 1.92849740e-01
      -9.99661982e-02 -1.70603111e-01 -7.96184316e-02 5.99003360e-02
      -1.09040134e-01 1.16442502e-01 1.34546027e-01 -2.16811627e-01
      -3.27729471e-02 2.14644864e-01 -2.68944260e-03 -2.22206950e-01
      2.96808302e-01 5.18221073e-02 -7.86647201e-02 8.25152397e-02
      1.81035548e-01 7.50082433e-02 2.08445758e-01 -2.24084407e-02
      -9.55764875e-02 -4.70087305e-02 -2.88567394e-01 9.27759930e-02
      7.03427345e-02 1.64928302e-01 -6.86394870e-02 2.76951957e-03
      1.32638171e-01 -1.33210421e-01 -5.13531566e-02 -1.21989310e-01
      1.28868282e-01 1.21112496e-01 1.18364654e-01 -9.08517838e-02
      -1.03135929e-01 1.90560549e-01 -2.08965596e-02 -6.02058694e-02
      -1.31134987e-01 1.14695698e-01 1.43756568e-01 3.59737217e-01
      3.45254317e-02 8.68718624e-02 -1.35722965e-01 -3.70632745e-02
      6.05785511e-02 9.75255519e-02 2.14975569e-02 3.29433605e-02
      4.72743735e-02 -1.07765733e-03 -2.45074704e-02 -4.47669886e-02
      1.31560648e-02 -1.18561208e-01 3.35493428e-03 -1.22453213e-01
      1.09097371e-02 2.34650746e-01 1.04445212e-01 -1.90578178e-02
      -2.07319558e-01 1.27331153e-01 -4.24475921e-03 -2.02999458e-01
      8.68002251e-02 -2.11458370e-01 -2.97379732e-01 -1.94006324e-01
      1.34140491e-01 1.18606195e-01 2.13313803e-01 4.54113811e-01
      5.47453612e-02 6.73233196e-02 3.00988346e-01 2.64740437e-01
      2.21493497e-01 2.22566336e-01 3.00560575e-02 -1.06252886e-01
      -1.83146536e-01 -2.06797928e-01 1.95786476e-01 2.56230772e-01
      1.57122940e-01 1.36484588e-02 -1.06096774e-01 3.82414833e-02
      -6.90634847e-02 -1.34086624e-01 -1.15789361e-01 8.54714662e-02
      4.68223915e-02 9.98965651e-02 -6.13226816e-02 -2.67283857e-01
      4.33624722e-02 9.93109122e-03 -7.61005878e-02 -4.33137827e-02
      3.25792246e-02 1.00688934e-01 1.01704560e-01 -1.24389850e-01
      -1.05717629e-01 -1.86654180e-01 -1.71495169e-01 1.86257020e-01
      3.92842814e-02 1.65464450e-02 2.27958355e-02 5.53094856e-02
      -7.17281848e-02 -4.71168011e-02 6.69929432e-03 3.31981084e-03
      -1.73912853e-01 1.92854889e-02 -8.30947608e-02 -1.64334118e-01
      -1.36445919e-02 1.54373199e-01 2.57670641e-01 7.32330084e-02
      3.30588967e-01 -7.20805898e-02 -2.31841981e-01 8.33896622e-02
      -1.87117085e-01 -9.25270543e-02 -4.99147587e-02 1.75417185e-01
      6.53330982e-02 3.63194048e-01 5.50072268e-03 -9.10187140e-02</_>
    <_>
      2.63855252e-02 4.77460325e-02 -2.80496031e-02 -5.97822480e-02
      6.32434711e-03 -2.44611017e-02 -2.37941509e-03 -7.70318136e-03
      4.81410623e-02 7.85151795e-02 3.40228900e-02 -4.84564789e-02
      -7.42740883e-03 -1.12233423e-02 -1.07135149e-02 -9.25212130e-02
      -2.18710490e-03 2.22831331e-02 7.96800703e-02 3.86576988e-02
      -4.95231487e-02 -5.33722341e-03 -1.62514895e-02 -2.25522351e-02
      -3.97986323e-02 -3.57337967e-02 5.06518185e-02 8.92079696e-02
      2.76962128e-02 -2.07437246e-04 2.17193714e-03 -2.38199607e-02
      -1.01682888e-02 -3.55555415e-02 -3.35688442e-02 9.78054032e-02
      7.37430677e-02 1.18675949e-02 7.02486560e-03 2.46203854e-03
      -2.37785932e-03 -6.13635988e-04 -3.17557901e-02 9.41049010e-02
      2.99017988e-02 -6.09894469e-02 1.21015934e-02 -1.75319165e-01
      -1.00629143e-01 -1.24944597e-02 1.58437356e-01 9.34080333e-02
      6.79647699e-02 -1.75354071e-02 -3.87582220e-02 1.07666468e-02
      -1.97482571e-01 -8.14798102e-02 6.42882520e-03 1.37094229e-01
      8.09325650e-02 2.91618574e-02 -1.42066916e-02 -2.88296174e-02
      6.62069710e-04 -1.66568235e-01 -3.06176879e-02 1.29186502e-02
      1.29552156e-01 6.65590987e-02 -5.89778796e-02 4.27347086e-02
      4.57337946e-02 7.38898814e-02 -6.77794404e-03 -9.27290600e-03
      -8.54817685e-03 -1.25609711e-02 -9.52625498e-02 6.23357436e-03
      3.74725717e-03 3.48446891e-02 8.53537843e-02 7.62359705e-03
      -1.33566083e-02 -2.60220114e-02 -2.28915233e-02 -7.47601464e-02
      -2.04643384e-02 1.23470044e-02 5.54245375e-02 1.10574238e-01
      1.49869220e-02 -7.71147152e-03 -4.98213843e-02 -2.89568081e-02
      -2.08577551e-02 -2.72127725e-02 5.01332395e-02 2.95956954e-02
      5.35033494e-02 2.00425051e-02 -4.41537518e-03 -6.67774305e-02
      -3.29086594e-02 -2.72127725e-02 9.87257957e-02 6.58680499e-02
      1.60731450e-02 1.05646037e-01 -3.19398567e-02 -1.05481051e-01
      -1.03014454e-01 1.07737653e-01 1.00112937e-01 8.18392560e-02
      2.91610714e-02 3.11760027e-02 6.42023832e-02 -7.97216967e-02
      -6.18025512e-02 -5.84368743e-02 1.07884340e-01 9.91638526e-02
      -2.02039048e-01 -1.40733659e-01 -2.82116771e-01 -2.78292239e-01
      -1.06043192e-02 3.64283592e-01 3.20563376e-01 4.63112980e-01
      -4.53283638e-02 5.83420135e-02 3.93727757e-02 3.80145162e-02
      5.10468930e-02 -3.33793722e-02 -1.02810254e-02 -4.92010638e-03
      -1.02944775e-02 6.87367618e-02 6.04672916e-02 3.26025896e-02
      2.59076916e-02 4.36308980e-02 2.33850162e-02 -4.67324443e-03
      -3.45241614e-02 -2.02877019e-02 1.86810009e-02 6.40999600e-02
      -1.54644335e-02 2.82861269e-03 6.96551204e-02 3.43309864e-02
      1.30103517e-03 -5.57242706e-02 -3.58490646e-02 1.83916558e-02
      1.44930873e-02 1.00549832e-02 -3.24178822e-02 6.03116825e-02
      6.06254116e-02 5.66161098e-03 -9.40594301e-02 -4.98215444e-02
      5.34427911e-03 5.59506603e-02 -1.96674075e-02 -3.71472947e-02
      1.56343102e-01 -5.94436899e-02 -6.72677457e-02 -1.40832171e-01
      8.36771578e-02 6.50546625e-02 6.52724057e-02 -5.25624817e-03
      -3.56166251e-02 1.35608107e-01 -7.59560019e-02 -4.53193486e-03
      -7.72295743e-02 9.65870172e-02 5.38101681e-02 -2.09977806e-01
      -1.00496918e-01 -1.42066374e-01 -2.60928907e-02 -2.03598030e-02
      1.16949476e-01 2.08185837e-01 2.12286130e-01 -1.51356816e-01
      5.63138276e-02 2.60986313e-02 3.12246047e-02 -5.75133413e-02
      -2.65196152e-02 -4.58279178e-02 2.68938504e-02 4.44062166e-02
      5.63701391e-02 2.54839659e-03 -3.14191915e-02 -2.79276855e-02
      -1.13488622e-02 4.38610129e-02 3.16064432e-02 -4.50012013e-02
      -9.56298411e-03 -2.47025862e-03 -8.86651862e-04 -3.67788970e-02
      -4.08842973e-02 8.00730586e-02 5.70945330e-02 1.09394476e-01
      -6.82697073e-02 -1.40220216e-02 -1.77237578e-02 -1.70807801e-02
      -4.08440344e-02 -5.17460592e-02 1.43824592e-01 2.04635307e-01
      7.59107396e-02 -8.54304731e-02 -3.42103913e-02 -2.13829409e-02
      1.61993410e-02 1.82658844e-02 4.57245596e-02 1.78852111e-01
      1.21287428e-01 -6.41186116e-03 -1.49100080e-01 -7.04744160e-02
      3.45818214e-02 -2.26517823e-02 3.66568007e-02 -1.13446908e-02
      1.63267404e-01 -7.72725930e-03 6.87040063e-03 -1.17200680e-01
      -1.35158962e-02 -1.65520012e-02 -2.27068499e-01 5.40238768e-02
      3.26105095e-02 1.77675724e-01 -3.95218693e-02 9.09190550e-02
      1.15534782e-01 -1.31976500e-01 -2.21403599e-01 5.03232442e-02
      4.34360839e-02 2.31013764e-02 -2.63579134e-02 -4.44131568e-02
      -1.69495475e-02 2.36450788e-02 5.16534485e-02 5.57909086e-02
      -3.85345542e-03 5.72701544e-03 -1.30871106e-02 -7.41421198e-03
      2.16632802e-02 2.73508914e-02 1.04061300e-02 -1.65619086e-02
      2.50426345e-02 1.31157953e-02 -1.44191599e-02 -3.60001437e-02
      5.01253009e-02 5.07297069e-02 5.92793822e-02 -2.68508550e-02
      -4.21916433e-02 -1.85365677e-02 -5.41614778e-02 6.42495602e-02
      -1.78752299e-02 5.74764200e-02 7.52170235e-02 6.65530860e-02
      -4.00627777e-02 1.56353470e-02 -5.84107228e-02 8.37562024e-04
      1.24871498e-02 -3.12103610e-02 1.37021067e-02 -2.42821183e-02
      3.12274303e-02 -2.35896073e-02 -3.11656091e-02 -9.23057087e-03
      2.49276161e-02 2.64380071e-02 -4.94290423e-03 -3.80918309e-02
      -5.38180955e-03 4.13758913e-03 1.03774909e-02 3.88957513e-03
      2.96396650e-02 -6.38179407e-02 2.27311641e-01 7.56432563e-02
      4.23665009e-02 -3.69550753e-03 -1.10630088e-01 -1.23336008e-02
      -1.48454353e-01 -7.65430480e-02 -1.15557136e-02 4.41322699e-02
      4.60095294e-02 3.79973128e-02 -3.25478762e-02 -2.66671227e-03
      4.81281243e-03 2.83817109e-02 -1.09674195e-02 -3.48787978e-02
      2.87662204e-02 3.30692045e-02 1.80027504e-02 -2.41199397e-02
      1.51090492e-02 2.29434390e-02 1.77339502e-02 6.83506951e-03
      -3.11208982e-02 1.16326027e-02 -7.16360984e-04 1.86357852e-02
      2.66142599e-02 8.42320099e-02 5.90697080e-02 2.68789418e-02
      -3.22740041e-02 -2.14361232e-02 3.21465209e-02 -9.95563157e-03
      2.85552870e-02 6.49388731e-02 4.64109257e-02 4.40989714e-03
      4.32854891e-02 -2.23831385e-02 2.14006137e-02 5.27721643e-02
      5.98649606e-02 4.34180582e-03 -6.50303885e-02 2.92963609e-02
      -3.25564481e-02 -3.95465717e-02 1.41623821e-02 1.50460256e-02
      5.31278476e-02 3.37017179e-02 -5.20263650e-02 -4.49606031e-02
      3.14763971e-02 4.40193675e-02 1.84078030e-02 2.32326053e-02
      -7.82354027e-02 3.12767506e-01 1.57799825e-01 1.18780561e-01
      6.82185963e-02 -2.22155154e-01 -8.04524720e-02 -1.86943978e-01
      -1.03958800e-01 -1.76188387e-02 5.36033958e-02 7.11039007e-02
      5.68952002e-02 -4.06824611e-02 -3.27589773e-02 2.23537814e-02
      1.32817598e-02 -2.44490523e-02 -6.01485409e-02 5.47675416e-02
      5.32327108e-02 3.88173126e-02 4.30315360e-03 6.09552637e-02
      5.11083901e-02 4.56199832e-02 -5.52573465e-02 -5.33014685e-02
      4.25530337e-02 4.18370999e-02 3.41237672e-02 1.09976910e-01
      8.81159157e-02 7.37494752e-02 5.32789081e-02 -5.72458953e-02
      -1.11177750e-02 2.32439376e-02 4.51195836e-02 4.85181250e-02
      1.56301722e-01 4.66078632e-02 2.48488188e-02 7.55196298e-03
      -1.70316063e-02 -2.62687206e-02 3.84763703e-02 4.74003665e-02
      3.50049101e-02 1.18747257e-01 2.60506589e-02 9.43558197e-03
      1.49502316e-02 -2.75026690e-02 -5.30884089e-03 2.88191661e-02
      2.62273364e-02 9.19176324e-04 2.68964916e-02 2.51433104e-02
      3.24090905e-02 3.66361178e-02 -2.26759745e-04 3.90797779e-02
      3.46105434e-02 -1.56335591e-03 -5.74557483e-02 -3.19267400e-02
      2.25183144e-02 6.00085370e-02 6.75487742e-02 9.92728174e-02</_>
    <_>
      3.22499387e-02 -2.74170027e-03 -5.69005590e-03 -4.55152243e-03
      -5.56563959e-03 -2.93096271e-03 1.54475085e-02 -1.83725953e-02
      4.04703151e-03 4.01285756e-03 5.19152032e-03 2.20303121e-03
      -7.81442737e-04 -7.54933397e-04 -1.70175757e-04 -2.61086244e-02
      7.27019913e-04 1.56878587e-03 1.59645290e-03 1.40075441e-02
      5.62044978e-03 -2.30794586e-03 -9.74048045e-04 -1.89480407e-03
      -1.53238857e-02 2.30090488e-02 -2.82660080e-03 -3.27172130e-03
      -9.46545415e-03 -3.91272828e-02 -5.14183426e-03 -1.56326890e-02
      -1.07864914e-02 2.51746196e-02 9.26073547e-03 3.19716800e-03
      -1.63643323e-02 -2.51779873e-02 -5.10730855e-02 -3.51716718e-03
      9.41233151e-03 2.79681850e-02 9.77468863e-03 1.38422605e-02
      -3.14877518e-02 -5.50343357e-02 -3.07598375e-02 -6.31571859e-02
      -1.73101434e-03 5.59369288e-02 5.18012010e-02 1.39615051e-02
      1.26794847e-02 -6.58689365e-02 -6.90095201e-02 -3.13986540e-02
      -5.31456061e-02 1.02074267e-02 6.76963627e-02 5.42938188e-02
      1.36028118e-02 -2.52287090e-02 -7.29441345e-02 -6.27857894e-02
      -3.56927551e-02 -4.06706631e-02 3.82314771e-02 6.42047897e-02
      6.37083352e-02 1.13206096e-02 -3.54592167e-02 3.40791070e-03
      3.62766301e-03 5.09524532e-02 3.33741754e-02 -3.53254308e-03
      -1.90486405e-02 -3.43094319e-02 -4.02630307e-02 -5.42512629e-03
      -3.97001160e-03 -3.98213835e-03 3.89816388e-02 3.66467088e-02
      -9.70893912e-03 -1.23948054e-02 -2.23066323e-02 -3.40196081e-02
      1.46659594e-02 -3.93675268e-03 -3.94654414e-03 1.13041820e-02
      9.37096309e-03 -1.54715776e-02 -3.35825160e-02 -2.94668097e-02
      2.21141265e-03 2.93915719e-03 1.54706952e-03 7.75082954e-05
      3.43728927e-04 -1.26742609e-02 -7.73730781e-03 -8.05271883e-03
      6.65882276e-03 2.93915719e-03 5.16319973e-03 -1.55788613e-02
      -3.76272090e-02 -1.22774858e-02 -7.05948286e-03 2.38911272e-03
      2.29341146e-02 2.31469050e-02 5.25546912e-03 -1.66734599e-03
      -5.23619801e-02 -5.28663509e-02 -1.80743877e-02 2.31826678e-03
      3.42017189e-02 3.08627486e-02 2.86367573e-02 5.84729388e-03
      -3.65694687e-02 -5.62872924e-02 -5.05199544e-02 -3.13476101e-02
      -5.60382986e-03 5.65139093e-02 4.28335145e-02 4.66867015e-02
      -2.95385136e-03 1.89831816e-02 -3.36478068e-03 1.38905551e-02
      5.42918555e-02 3.22713852e-02 5.58911869e-03 -2.99840868e-02
      -4.58118953e-02 2.11949646e-02 1.84921790e-02 5.19355480e-03
      7.45449727e-03 4.76618856e-02 3.60577554e-02 -5.16777067e-03
      -2.47646216e-02 -4.64576297e-02 1.54723404e-02 4.82448228e-02
      2.72623682e-03 2.44257576e-03 3.13281119e-02 1.71155799e-02
      -2.13675350e-02 -5.30738942e-02 -5.11066653e-02 2.13832948e-02
      6.63514715e-03 -2.47063232e-03 7.79706344e-04 2.89933048e-02
      1.14738727e-02 -1.73948333e-02 -4.21317145e-02 -2.51750387e-02
      7.17669772e-03 2.35638092e-03 -1.88618675e-02 -2.50496641e-02
      2.40342580e-02 7.93089531e-03 -6.38255011e-03 -1.50983641e-02
      4.71264124e-03 6.46593049e-03 -9.79749579e-03 -3.68536524e-02
      -1.96659472e-02 1.02390843e-02 2.63450597e-03 3.02271135e-02
      4.10065241e-03 7.81070534e-03 5.39138913e-04 -3.12147047e-02
      -2.51050498e-02 -1.85525939e-02 -2.28959392e-03 -1.23265963e-02
      5.29631265e-02 1.63076185e-02 1.82751119e-02 -2.46226620e-02
      -1.13343457e-02 -1.64729171e-02 -2.56949966e-03 -2.31461204e-03
      2.13733260e-02 3.55683379e-02 1.18863583e-03 -1.08221807e-02
      -1.08341100e-02 -9.73828603e-03 -2.78833192e-02 -1.15418166e-01
      3.06524076e-02 -2.95425560e-02 1.42877474e-01 4.33010198e-02
      -1.37528563e-02 -6.20658509e-03 -1.40747651e-01 -6.59101084e-02
      -8.81344602e-02 7.30803013e-02 8.58555958e-02 1.33009210e-01
      -1.71874948e-02 -7.22913146e-02 -1.37138724e-01 -1.23542272e-01
      -4.96523865e-02 -9.85232890e-02 1.14505067e-01 1.67672127e-01
      3.36211510e-02 -9.61639285e-02 -1.32058352e-01 -1.24724485e-01
      -1.15372553e-01 5.05744712e-04 -3.35063785e-02 1.37056381e-01
      1.11876100e-01 3.86832580e-02 -9.94507149e-02 -1.26614705e-01
      -1.06271178e-01 -1.25934795e-01 3.32740098e-02 1.51082529e-02
      1.95055723e-01 3.20735797e-02 1.22031525e-01 -3.68208960e-02
      -9.95376408e-02 -1.17209338e-01 -4.46255691e-03 1.37031879e-02
      4.43962440e-02 3.01760295e-03 -2.34052856e-02 6.03236351e-03
      -3.72848939e-03 -1.33342249e-02 -1.53216599e-02 -1.22300023e-02
      -9.40572470e-03 1.84556399e-03 8.53717513e-03 2.22183503e-02
      4.33772467e-02 -5.39840432e-03 -9.84148122e-03 -1.61663201e-02
      -5.30982204e-03 -1.03487931e-02 -1.70044348e-01 -1.35567471e-01
      1.67120788e-02 1.25005141e-01 -7.30940234e-03 -1.17971720e-02
      4.44205925e-02 -5.61155519e-03 4.99911606e-02 -1.44928709e-01
      -1.54016735e-02 2.83956137e-02 5.35389110e-02 1.64173427e-03
      -1.77594870e-02 -1.28663960e-03 -9.67677915e-04 8.22826847e-02
      -1.15347542e-01 1.88300703e-02 2.64623063e-03 1.33074699e-02
      -1.98034756e-03 -2.84801098e-03 -7.39972224e-04 -3.04549956e-03
      1.34492233e-01 -3.66972722e-02 5.61057366e-02 -3.70614491e-02
      1.89599283e-02 -7.29383677e-02 -5.63143417e-02 -8.24432762e-04
      -7.94968195e-03 1.53586283e-01 -3.30950730e-02 1.00383870e-01
      -1.86376460e-02 4.64856662e-02 -6.27402440e-02 -4.02647369e-02
      -2.03751903e-02 1.04571823e-02 4.41059507e-02 4.96529080e-02
      -1.51640447e-02 -1.97889172e-02 -2.57420968e-02 -1.60931852e-02
      -1.10752257e-02 -1.41061575e-03 9.99890361e-03 2.26711594e-02
      3.24630961e-02 2.74286903e-02 5.56387182e-04 2.23020837e-03
      -8.88225064e-03 -3.11320461e-02 -2.35279799e-02 5.01468852e-02
      1.80624202e-02 -1.61342666e-01 -1.60534218e-01 1.58943962e-02
      8.26611966e-02 -2.64280681e-02 -2.41920687e-02 5.78715391e-02
      8.41168780e-03 8.85498226e-02 -1.21391751e-01 8.49893596e-03
      1.84267052e-02 2.99303904e-02 -3.00362264e-03 -2.76078191e-02
      -4.40025749e-03 1.01767015e-02 1.26471698e-01 -8.63380432e-02
      4.13479991e-02 -1.21099874e-02 1.22066727e-03 -1.45579530e-02
      -1.74659882e-02 6.52775355e-03 6.79876888e-03 1.48977250e-01
      -1.97785813e-02 8.34316760e-02 -4.58088703e-02 2.80842744e-02
      -6.18716516e-02 -5.90231493e-02 -2.02691020e-03 7.46338302e-03
      1.50135145e-01 -2.12462456e-03 1.11529477e-01 -3.00451647e-02
      5.68008348e-02 -8.24180990e-02 -5.58790453e-02 -1.13303596e-02
      1.86488125e-02 4.24482822e-02 4.72213738e-02 -1.90425068e-02
      6.25273492e-03 -2.51837168e-02 -1.78188756e-02 -2.00527012e-02
      -5.55473787e-04 1.80831235e-02 2.34332643e-02 3.53443213e-02
      2.66650636e-02 8.14197864e-03 -4.36524954e-03 -1.36443395e-02
      -2.91555692e-02 -1.12520307e-02 7.94782937e-02 2.36993060e-02
      -2.19906658e-01 -1.02758728e-01 -1.48742333e-01 8.16477370e-03
      2.13538148e-02 -1.27858035e-02 9.56106558e-02 9.26380511e-03
      1.15180284e-01 -1.15138046e-01 3.03647425e-02 -3.76884714e-02
      1.73460171e-02 1.28515474e-02 -3.34841236e-02 8.35411437e-03
      2.00185534e-02 1.55644193e-01 -6.85616955e-02 6.67115897e-02
      -3.85476910e-02 2.22289134e-02 -3.14755440e-02 -5.52247688e-02
      8.22959468e-03 1.02586634e-02 1.65332034e-01 -9.02826214e-05
      1.07669443e-01 -5.87201454e-02 4.55955714e-02 -6.17726743e-02
      -8.60720277e-02 -1.26248561e-02 8.93052667e-03 1.58417940e-01
      1.82138402e-02 1.19009890e-01 -6.66391179e-02 6.19322732e-02
      -8.57143477e-02 -7.54434839e-02 -1.23740174e-02 3.48735340e-02
      5.27829006e-02 4.92229573e-02 -3.24221998e-02 -3.05996910e-02
      -2.18039453e-02 -3.68398465e-02 -3.52206826e-02 1.26840975e-02</_>
    <_>
      1.36552393e-01 3.07420820e-01 -1.81041315e-01 -1.23492815e-01
      9.35459789e-03 -2.67147943e-02 2.11318396e-02 -3.33730243e-02
      1.21712826e-01 1.44027025e-01 1.19145744e-01 -1.22374808e-02
      -8.13933462e-02 -1.37216985e-01 -1.31326675e-01 -1.71908557e-01
      2.53490508e-02 7.34463334e-02 7.42478445e-02 8.62106234e-02
      -9.23405364e-02 -4.32912558e-02 -1.31021574e-01 -1.07227638e-01
      -5.15676253e-02 1.85091086e-02 6.46715090e-02 5.43937124e-02
      5.24999015e-02 -1.46246240e-01 -8.78778810e-04 -8.81878361e-02
      -6.30296767e-02 1.17894504e-02 2.48347577e-02 1.22409262e-01
      3.96888740e-02 -5.32287136e-02 -1.26090214e-01 -6.95432276e-02
      -1.49990678e-01 5.11856228e-02 2.62088664e-02 9.67071578e-02
      -1.20355785e-02 -7.45345354e-02 -6.15116321e-02 -2.64324337e-01
      -1.45762011e-01 -8.46881233e-03 1.23838909e-01 1.75283149e-01
      -6.58216001e-03 -6.48622811e-02 -4.53264713e-02 -7.66853020e-02
      -1.13355786e-01 -5.90327568e-02 5.14066741e-02 1.08522654e-01
      5.15797511e-02 -1.04244888e-01 -8.26713741e-02 -1.01237759e-01
      -9.69637483e-02 -4.77781817e-02 6.97714761e-02 4.47581485e-02
      8.79326165e-02 1.93983894e-02 -2.03145310e-01 1.45120800e-01
      1.47579268e-01 1.36524752e-01 5.39357513e-02 -1.08854145e-01
      -1.97153389e-01 -1.92925543e-01 -3.82357657e-01 5.41757382e-02
      9.41099077e-02 5.68578579e-02 1.18108429e-01 8.13122094e-02
      -8.54683295e-02 -2.27950215e-01 -1.78513333e-01 -1.45531923e-01
      5.73090725e-02 7.59855956e-02 2.51105800e-02 1.72279671e-01
      5.48257604e-02 -3.49981673e-02 -1.98301762e-01 -1.54401809e-01
      5.38706779e-02 4.66034412e-02 4.03320976e-02 -2.88243461e-02
      5.95076233e-02 1.29702866e-01 1.54035566e-02 -1.40728593e-01
      8.41956958e-03 3.97438928e-02 3.64497714e-02 2.98873964e-03
      -1.06442899e-01 5.16300648e-02 1.57796457e-01 -6.26829565e-02
      -6.88670352e-02 1.08850941e-01 1.05041824e-01 -2.53997371e-03
      -7.39283338e-02 -7.60704055e-02 3.58576253e-02 7.19036981e-02
      -5.14676049e-03 -1.71491783e-02 7.00941831e-02 2.98923682e-02
      -1.43050611e-01 -1.58358648e-01 -1.87089503e-01 -6.56727254e-02
      9.09266248e-02 5.33181168e-02 8.08247924e-02 1.20894477e-01
      -5.02093844e-02 -3.75594310e-02 1.95866168e-01 1.89911306e-01
      2.94019938e-01 8.34802836e-02 -1.35190159e-01 -1.78948283e-01
      -2.83791214e-01 -6.97082803e-02 1.82458386e-01 2.38400698e-01
      1.53363481e-01 2.53077358e-01 -7.17019066e-02 -9.81884748e-02
      -1.68484479e-01 -1.55349806e-01 6.78397268e-02 2.51048982e-01
      6.32893890e-02 -6.81320950e-02 1.89249545e-01 5.59054874e-02
      -6.11553947e-03 -1.06969953e-01 -7.77051970e-03 1.55098215e-01
      6.77920133e-02 5.25794663e-02 -2.35241726e-01 8.35177451e-02
      1.56954721e-01 3.82554308e-02 -2.96334445e-01 -1.31423771e-01
      4.83673625e-02 -1.73470713e-02 -5.87793067e-02 -1.01166867e-01
      1.09849788e-01 8.02195892e-02 -2.94567049e-02 -2.39352360e-01
      -4.60294671e-02 7.33691677e-02 -6.87057227e-02 -2.90553644e-02
      -2.19324362e-02 1.13260180e-01 3.93094942e-02 3.78251495e-03
      1.89349568e-03 5.33914305e-02 -5.30720688e-02 -2.21842840e-01
      -1.19903848e-01 -1.32648051e-01 4.41495441e-02 1.24181323e-01
      1.48054048e-01 1.29837304e-01 2.54661907e-02 -2.18597457e-01
      -1.09369636e-01 -8.88457298e-02 -2.81059258e-02 -1.23064421e-01
      2.33215578e-02 5.48824593e-02 3.61913629e-02 2.21418478e-02
      -9.95653942e-02 -3.17693427e-02 -7.96621665e-02 -1.37036249e-01
      -6.91225901e-02 -2.27897931e-02 1.02499366e-01 -1.44007310e-01
      8.33704509e-03 -4.98257317e-02 -8.60460252e-02 -1.18426897e-01
      -1.83061033e-01 -3.89948189e-02 6.83341026e-02 3.81264508e-01
      -1.87748283e-01 2.82990132e-02 -1.70162812e-01 1.79724414e-02
      -1.37161091e-01 -1.27556622e-01 1.34003714e-01 5.78318834e-01
      2.11285219e-01 -3.75782430e-01 -1.36556908e-01 -1.74530409e-02
      5.69279753e-02 2.34013936e-03 1.77831084e-01 2.13970169e-01
      1.86504439e-01 1.29033253e-01 -3.10775071e-01 -2.01367617e-01
      7.94082806e-02 -3.04957796e-02 1.51341390e-02 3.20098992e-03
      1.62600458e-01 2.08276302e-01 -6.61757886e-02 -1.55915454e-01
      -1.59374446e-01 -5.29764667e-02 -5.81356362e-02 6.07167631e-02
      -6.25004107e-03 5.04058897e-02 6.93017319e-02 -3.17001492e-02
      -4.18354347e-02 -8.09503198e-02 -6.92124665e-02 7.79353455e-02
      -6.38990104e-02 -8.86828378e-02 -8.74973759e-02 -9.14554521e-02
      1.46939427e-01 1.02465108e-01 1.04426391e-01 8.22891667e-02
      -1.30166188e-01 -2.59898938e-02 -6.76228479e-02 -4.62880135e-02
      -1.01297736e-01 7.17761293e-02 1.65672302e-02 1.13104479e-02
      -7.45900348e-02 -8.33764300e-02 8.02896991e-02 -9.25076976e-02
      -3.66923143e-03 1.03249468e-01 2.52769962e-02 -4.99275476e-02
      -1.01747043e-01 -1.73527315e-01 -2.35776138e-02 1.30541161e-01
      -1.88323647e-01 4.90223095e-02 -1.55173233e-02 1.14107370e-01
      -2.25373238e-01 1.36235356e-01 -8.41990784e-02 -2.59920359e-02
      9.50332358e-03 -2.55668938e-01 -2.05633029e-01 -3.22817743e-01
      5.55614009e-02 -2.28327855e-01 -1.22809105e-01 -3.24879080e-01
      -1.74507827e-01 7.69023597e-02 -1.13116093e-01 -2.59662807e-01
      -1.22518189e-01 -5.70881329e-02 2.91520562e-02 8.88550952e-02
      -2.19093144e-01 -4.92914736e-01 8.01772177e-02 1.61972772e-02
      -1.75779592e-02 -8.34233388e-02 -1.24606773e-01 -2.79486608e-02
      6.85477853e-02 -5.77157795e-01 -2.59193163e-02 -3.25229988e-02
      -2.05790028e-01 -9.63284001e-02 -2.72750944e-01 3.21459860e-01
      2.13408351e-01 3.33525002e-01 1.36313394e-01 -2.83016693e-02
      2.95000244e-02 -5.64408936e-02 -4.49231220e-03 -1.40440673e-01
      2.04823300e-01 -9.51567292e-03 7.66627714e-02 -3.81460264e-02
      -3.35440226e-03 1.78156823e-01 -3.48674282e-02 6.77406564e-02
      7.83062726e-02 2.21962914e-01 -3.78297940e-02 -9.00860876e-03
      -8.13614503e-02 8.82466733e-02 6.15907041e-03 -3.15944463e-01
      5.86120412e-02 1.95969686e-01 1.20938517e-01 2.15212941e-01
      3.29422414e-01 1.61048770e-01 1.80475950e-01 1.70844421e-01
      2.41186633e-03 4.56368737e-03 -1.72416925e-01 4.45819758e-02
      -1.46238059e-02 1.85925409e-01 1.33385852e-01 1.03062913e-01
      9.74028781e-02 -2.74629015e-02 -6.70414269e-02 -2.31330052e-01
      6.83043227e-02 4.09668982e-02 1.58873975e-01 1.41308233e-01
      -7.70101771e-02 1.14984266e-01 8.23008716e-02 1.23114869e-01
      3.47246855e-01 -1.96413770e-01 -1.64321706e-01 1.25899892e-02
      -1.01054348e-01 4.96164076e-02 -4.62247590e-05 -8.72382373e-02
      -1.50280222e-02 -3.68099868e-01 1.23206355e-01 2.66270220e-01
      2.86606014e-01 1.46494016e-01 -8.13597906e-03 1.71154231e-01
      4.76099625e-02 4.42513935e-02 -8.51591229e-02 1.50495812e-01
      -1.87552553e-02 6.75533190e-02 -9.45058838e-02 -5.61353490e-02
      3.03549916e-01 1.13971762e-01 1.48221970e-01 2.43670642e-01
      1.88517839e-01 -8.96386430e-02 -8.84528235e-02 -8.02836195e-02
      2.35081807e-01 1.12228870e-01 -2.50976473e-01 -4.18090150e-02
      2.65548676e-01 -1.23355608e-03 -1.48497894e-02 5.01265004e-02
      1.72649473e-01 1.29332229e-01 1.78669319e-01 6.90686936e-03
      -4.97767748e-03 1.21705808e-01 -6.05956838e-02 -6.63220435e-02
      1.06337763e-01 1.32945836e-01 8.54175314e-02 6.38555288e-02
      -9.91577096e-03 -4.10938039e-02 -1.72053188e-01 1.00066543e-01
      -3.54475304e-02 9.92408171e-02 9.98383909e-02 1.79303437e-01
      2.06366435e-01 1.91434294e-01 -9.38336253e-02 -1.29516721e-01
      -1.51522726e-01 -2.30368048e-01 -2.36015841e-02 1.92850590e-01</_>
    <_>
      -2.47584432e-01 1.93420857e-01 -1.64104775e-01 2.68123001e-02
      -8.93626362e-03 5.14551764e-03 -2.38969992e-03 5.35159223e-02
      7.70647600e-02 7.14346096e-02 1.29183028e-02 -4.37316261e-02
      -1.60335202e-03 -2.07407087e-01 -1.47821695e-01 -1.99242130e-01
      8.63072649e-03 1.90144256e-01 1.92627281e-01 -8.90044793e-02
      -4.69236672e-01 -2.17646845e-02 -1.62835792e-01 -1.04297124e-01
      -9.43969097e-03 4.21400461e-03 9.15987715e-02 9.91046578e-02
      1.13854654e-01 -5.20511568e-01 -2.90419683e-02 2.85739787e-02
      -1.53838508e-02 -2.18930505e-02 5.95916286e-02 2.79125810e-01
      1.21408291e-01 -5.49833896e-03 -7.19242036e-01 -7.87592307e-02
      7.01926872e-02 -5.78690991e-02 6.11103438e-02 1.20094009e-01
      4.47151624e-03 -3.36118112e-03 2.68908367e-02 -4.49329019e-01
      -1.33874342e-01 5.23890816e-02 1.66777417e-01 9.00682062e-02
      3.91880870e-02 -2.95366608e-02 -1.75953470e-02 5.75257316e-02
      -1.39820248e-01 -1.32019641e-02 3.96673344e-02 6.71582446e-02
      4.27354947e-02 -4.08703238e-02 -3.34220156e-02 -3.25284675e-02
      4.03148793e-02 1.81277990e-01 9.39724296e-02 -3.38432826e-02
      -1.82312615e-02 2.19919998e-02 -8.40869695e-02 1.86905712e-01
      7.41376802e-02 -3.02049834e-02 -6.77553937e-02 -4.92312089e-02
      -1.10060565e-01 -5.61267063e-02 -3.04937631e-01 -5.62183261e-02
      1.47474870e-01 3.57377827e-02 1.36448115e-01 -1.35721624e-01
      -7.18412548e-02 -1.36352941e-01 -4.31144610e-02 -1.19809218e-01
      -1.05106190e-01 8.19729734e-03 2.79814359e-02 3.70743781e-01
      -9.68472883e-02 -1.37881353e-01 -1.77755486e-02 5.45151299e-03
      -1.23051010e-01 -1.30993247e-01 1.73867464e-01 2.23206535e-01
      2.08318815e-01 -2.11102307e-01 -9.06201527e-02 -3.69625668e-05
      -2.93979719e-02 -1.30993247e-01 8.81444197e-03 1.48633853e-01
      1.77209109e-01 3.36183935e-01 -1.86905041e-02 -1.46036610e-01
      -1.03060089e-01 3.55105847e-02 -2.00483333e-02 1.83923870e-01
      9.93450433e-02 -9.34428200e-02 1.56283736e-01 -8.98160934e-02
      8.83955136e-02 8.85238722e-02 5.93267940e-02 2.14553368e-03
      -1.21751577e-01 -4.17160168e-02 -1.81237355e-01 -5.89994118e-02
      1.68436840e-02 1.70695305e-01 1.79716349e-01 1.00609422e-01
      4.38574404e-02 1.28010944e-01 5.96605577e-02 2.48745620e-01
      1.88204937e-03 -4.60667834e-02 -1.13542974e-01 -1.24998637e-01
      -7.83121306e-03 4.93680947e-02 2.56569237e-01 4.83962111e-02
      2.22520977e-01 2.52887066e-02 -3.52473557e-02 -1.01578593e-01
      -2.46752396e-01 -6.41180575e-02 -4.00878256e-03 1.40334398e-01
      -1.68442190e-01 -1.00500286e-01 2.77852207e-01 3.52955125e-02
      -3.02382559e-02 -8.58903527e-02 -4.36421074e-02 -2.40768231e-02
      5.03171533e-02 1.77093163e-01 2.75808945e-02 3.11757624e-01
      -2.63241470e-01 -5.40471748e-02 -9.75411534e-02 2.04075016e-02
      -3.73306647e-02 3.87493595e-02 5.78441024e-02 8.04897323e-02
      4.19621736e-01 3.84855606e-02 -1.13088757e-01 -2.98029095e-01
      -1.97402909e-01 6.24011196e-02 3.47615853e-02 -1.17745884e-01
      9.30289552e-02 2.65030414e-01 -1.41228423e-01 9.65284854e-02
      4.27815840e-02 9.65801775e-02 1.02061890e-01 -3.71877939e-01
      -2.33254835e-01 6.31394386e-02 3.93785238e-02 1.22205250e-01
      2.82884955e-01 2.72864074e-01 3.21275629e-02 -3.22981954e-01
      -3.81663814e-02 4.92269732e-02 6.65555447e-02 -8.49981159e-02
      -4.91795205e-02 5.93195520e-02 -5.74032776e-02 8.13300833e-02
      -8.42101797e-02 -8.37698877e-02 -1.29112333e-01 -2.49765709e-01
      8.90175179e-02 1.28595516e-01 2.42909282e-01 -3.10818225e-01
      -7.51809701e-02 -1.41971543e-01 -3.64834182e-02 -6.25693724e-02
      -9.46731046e-02 2.67667055e-01 -2.97855195e-02 3.80581528e-01
      -2.84477472e-01 -5.02846166e-02 -5.92893288e-02 8.62495154e-02
      5.30984020e-03 1.69671103e-02 3.66880327e-01 2.46685311e-01
      -4.96085780e-03 -1.87528327e-01 1.63499953e-03 5.84061481e-02
      1.81264490e-01 1.13568202e-01 4.72319163e-02 2.84161627e-01
      2.64447421e-01 -1.03736468e-01 -4.48549211e-01 -1.50375918e-01
      1.86997026e-01 -3.11578605e-02 -6.91539571e-02 3.46800722e-02
      2.55314052e-01 1.72528476e-01 -2.22429410e-02 -3.00593495e-01
      -3.39475237e-02 -2.62397286e-02 -1.97961330e-01 -4.96394485e-02
      1.89484894e-01 4.58561331e-02 8.48654434e-02 3.00841313e-02
      6.69031888e-02 -1.37875639e-02 -2.12894142e-01 -8.54119137e-02
      6.40808567e-02 1.03819415e-01 2.44323500e-02 -5.78770824e-02
      6.96629956e-02 1.02626249e-01 -1.36020361e-02 -1.03905976e-01
      -8.43139961e-02 -6.53104931e-02 -4.93157841e-02 -9.59504619e-02
      1.86417308e-02 1.13364652e-01 4.06738929e-02 1.39115099e-02
      1.11278474e-01 1.81739166e-01 2.63218675e-02 -1.26479566e-01
      -4.24611121e-02 1.00006476e-01 2.47968838e-01 -1.15477912e-01
      -1.84044987e-01 7.23908714e-04 2.01471969e-01 1.89953580e-01
      2.65769362e-02 1.82046706e-03 -2.34670803e-01 3.58752370e-01
      -9.14321765e-02 8.26398432e-02 1.07286550e-01 2.48912632e-01
      8.72853957e-03 -2.02414781e-01 -1.89727128e-01 -1.41613573e-01
      -7.46894032e-02 -5.79244904e-02 2.52784863e-02 2.40464658e-01
      2.32432261e-01 7.80893266e-02 -4.66531292e-02 -1.76033735e-01
      -1.54586732e-01 -3.33453454e-02 -3.30608152e-02 2.34049425e-01
      2.47247398e-01 -1.16304718e-01 6.73529133e-02 8.47734958e-02
      7.57839382e-02 -2.94033345e-02 3.59447747e-02 2.98749562e-02
      1.03362352e-01 -1.19738460e-01 -9.71724391e-02 -4.40452620e-02
      4.80746701e-02 5.09702712e-02 -4.50610667e-02 6.94636703e-02
      2.67497916e-02 8.47707987e-02 -1.06921524e-03 -5.31666912e-02
      -6.22484460e-02 2.56900229e-02 -9.92841348e-02 3.54253463e-02
      1.19693339e-01 -1.15559436e-02 1.06818631e-01 -5.69700636e-02
      -6.64172345e-04 1.11475952e-01 3.55683453e-02 -2.55738758e-02
      -2.60189418e-02 3.08974296e-01 -2.15524365e-03 -1.31212231e-02
      -1.23332217e-01 2.63338536e-02 2.08027232e-02 -7.93794990e-02
      -4.64789830e-02 3.74388248e-02 1.57278866e-01 5.37731014e-02
      1.49993360e-01 -1.94719844e-02 1.70706168e-01 8.10849071e-02
      -5.95639758e-02 -5.84082678e-02 -1.25703916e-01 9.07119289e-02
      -1.96086932e-02 -1.89982913e-02 1.65468842e-01 -7.66175091e-02
      1.63902771e-02 7.82450065e-02 -6.65485859e-02 4.12507448e-03
      1.60235479e-01 -3.40974145e-02 1.41313851e-01 6.51612207e-02
      -2.78942306e-02 2.63801720e-02 8.96617845e-02 -6.07784800e-02
      2.48152331e-01 -5.66434860e-03 -8.90165046e-02 5.56499697e-02
      -1.12044014e-01 2.12780267e-01 1.34193346e-01 1.95889875e-01
      1.37613177e-01 -2.67532710e-02 2.19931584e-02 -1.45399183e-01
      -2.30942741e-01 2.20581934e-01 1.52952848e-02 1.29963815e-01
      1.59474805e-01 3.00008226e-02 1.58143621e-02 2.84205079e-01
      -6.71547204e-02 -6.90490827e-02 -2.21597537e-01 -1.94179937e-02
      6.25838414e-02 1.07473172e-01 3.47704999e-02 1.00484796e-01
      2.09470570e-01 6.69500045e-03 -6.79242536e-02 -1.27744317e-01
      1.17675349e-01 5.06157950e-02 -6.40611425e-02 -7.71957589e-03
      2.50035822e-01 1.49653032e-01 -1.34483352e-01 -5.65667860e-02
      6.91190958e-02 7.72825852e-02 5.13166711e-02 -4.95746173e-02
      4.61593978e-02 2.99532652e-01 7.97306821e-02 -7.75022209e-02
      -3.95207889e-02 6.92249015e-02 2.33797869e-03 -4.75655682e-02
      -7.68155977e-02 1.29398495e-01 3.81506175e-01 1.32527009e-01
      4.82586324e-02 6.56354725e-02 5.69381285e-03 2.04795942e-01
      -2.13350356e-02 -2.13350356e-02 -1.23340510e-01 4.27861847e-02
      2.69376468e-02 2.24109124e-02 4.24096435e-02 3.23488504e-01</_>
    <_>
      -3.72077478e-03 5.81208384e-03 -6.92272633e-02 -6.40356019e-02
      -2.56808195e-03 -3.26226745e-03 -6.48743613e-03 -1.36402464e-02
      -2.65233312e-02 -1.88290868e-02 -1.62083581e-02 3.52755785e-02
      6.80832006e-03 6.18229760e-03 7.00714416e-04 7.83319585e-04
      1.06873587e-02 -3.13120261e-02 -3.79647836e-02 1.81883539e-03
      4.05292585e-02 2.61487579e-03 4.55141114e-03 2.47416482e-03
      1.77391078e-02 6.38997406e-02 -4.61792238e-02 -6.02722578e-02
      -7.18089426e-03 -4.86258455e-02 3.03183170e-03 -1.87392496e-02
      -9.84429754e-03 6.24440312e-02 2.83024181e-02 -4.16611545e-02
      -6.65882975e-02 -8.51256866e-03 -4.67939638e-02 4.07621497e-03
      9.81656462e-03 3.29752527e-02 3.55273485e-02 -1.28745558e-02
      -5.60068078e-02 -4.96858843e-02 -1.48404548e-02 2.39849533e-03
      4.36084718e-02 5.81461601e-02 1.71893872e-02 -1.10040409e-02
      -1.46407420e-02 -5.89871220e-02 -5.58949523e-02 -1.40212476e-02
      2.64785867e-02 2.74932887e-02 5.23773618e-02 2.57880557e-02
      -1.40408846e-02 -1.02008451e-02 -7.15189502e-02 -6.44717366e-02
      -1.20606041e-02 5.11648916e-02 1.86849907e-02 3.79251018e-02
      2.42271703e-02 -1.26174092e-02 -2.58044183e-05 -2.71463580e-02
      -1.34821972e-02 2.11950522e-02 4.33745831e-02 1.22761354e-02
      5.73430024e-03 -5.26501890e-03 9.95833054e-03 -1.29393337e-03
      -1.22460704e-02 -1.53854871e-02 9.49867908e-03 3.67658325e-02
      2.10557180e-03 1.34154258e-03 -4.55516763e-03 1.76283356e-03
      4.41149101e-02 -1.83771271e-02 -4.11631130e-02 -8.01905338e-03
      -2.30768695e-02 -4.02737455e-03 -3.27447280e-02 -1.99578945e-02
      3.49998660e-02 1.63378306e-02 -2.81778704e-02 -4.20919694e-02
      6.58501964e-03 -2.56872401e-02 6.99848495e-03 6.89131254e-03
      3.05768531e-02 1.63378306e-02 -3.18733603e-02 -6.19476214e-02
      -6.21161051e-02 -2.62119193e-02 -4.41155862e-03 5.94493411e-02
      6.07273243e-02 8.17713607e-03 -3.33055221e-02 -3.29989679e-02
      -6.54053614e-02 -6.64396435e-02 -2.52210777e-02 3.40434387e-02
      3.71622331e-02 5.25157526e-02 1.79695291e-03 -3.31044719e-02
      2.86025461e-02 -2.18300745e-02 9.67492256e-03 6.15652949e-02
      3.27946842e-02 -7.47378096e-02 -6.00174591e-02 -1.00731000e-01
      4.47639683e-03 -1.75932348e-02 -2.56496556e-02 2.07814225e-03
      2.99415141e-02 5.87136671e-02 2.00063679e-02 -1.28131555e-02
      -4.35410626e-02 -2.16421690e-02 -3.13917291e-03 -5.53599047e-03
      -5.89082809e-03 3.17777917e-02 2.14084759e-02 1.18703246e-02
      -4.81845159e-03 -2.53032763e-02 -1.28464145e-03 3.03262416e-02
      3.81259434e-03 -3.29474034e-03 2.73510162e-03 -1.95090417e-02
      -5.71933389e-03 -4.59517762e-02 -3.50634344e-02 1.22069996e-02
      1.38232717e-02 -9.44226142e-03 -8.18904676e-03 2.09429003e-02
      -2.27172635e-02 1.55230158e-03 -2.40917727e-02 -5.02374209e-03
      1.44110648e-02 -2.24532690e-02 -3.35008800e-02 -1.64251626e-02
      -3.23250256e-02 9.70578473e-03 4.99903299e-02 2.90330369e-02
      -3.09128705e-02 -3.04234680e-02 -3.18523124e-02 -3.95497754e-02
      -1.26974126e-02 -3.04079447e-02 3.04854102e-02 3.10293678e-02
      3.45930941e-02 -2.91811153e-02 -3.39390822e-02 2.08602659e-02
      4.75237751e-03 9.89096239e-03 9.00683831e-03 3.57675776e-02
      2.39146152e-03 -4.78991941e-02 -7.08358809e-02 8.98394175e-03
      -4.12665643e-02 -3.26786116e-02 -3.20802676e-03 3.08982190e-02
      6.25668168e-02 3.35781761e-02 -1.62488949e-02 -3.85354236e-02
      -4.06343043e-02 8.30861216e-04 -3.64222191e-03 -6.52196184e-02
      5.03134169e-02 -2.25363318e-02 8.92187953e-02 2.23201495e-02
      -2.03183033e-02 -3.79522634e-03 -8.53587091e-02 -3.34570222e-02
      -5.60997725e-02 7.37508386e-02 3.66375446e-02 7.90024698e-02
      -1.63810682e-02 -4.25417386e-02 -7.85525143e-02 -5.14117554e-02
      -2.85030045e-02 -5.89145683e-02 6.19090758e-02 4.31241356e-02
      6.92530675e-03 -7.98348933e-02 -8.44478235e-02 -4.76573668e-02
      -4.85779010e-02 -8.28379393e-03 -4.28413451e-02 3.02508529e-02
      3.99488546e-02 5.32599241e-02 -2.70914137e-02 -7.19807446e-02
      -5.69454990e-02 -5.58797941e-02 1.49960490e-02 5.02437446e-03
      6.30406514e-02 2.64961068e-02 1.00824989e-01 -4.65096766e-03
      -6.46661445e-02 -6.51838705e-02 6.09675236e-02 3.46147129e-03
      2.19494640e-03 -5.95399179e-02 2.29659472e-02 8.03674862e-04
      -5.12632951e-02 1.38257686e-02 4.40305844e-02 -3.32184397e-02
      -4.01817113e-02 -1.63326785e-02 2.38590036e-02 5.98223880e-02
      4.50274572e-02 -8.00734572e-03 -2.84440331e-02 -2.76821218e-02
      -2.04456504e-03 -2.30452027e-02 -1.05845168e-01 -5.18074334e-02
      1.40848169e-02 8.41337070e-02 -7.91042298e-03 -6.86290069e-03
      3.10865697e-02 -3.69544774e-02 -5.60145900e-02 -1.14669874e-01
      5.43101784e-03 -1.51580118e-03 9.57632661e-02 1.15504861e-03
      2.13625468e-02 4.02089115e-03 2.97759827e-02 -1.06473146e-02
      -8.58196765e-02 1.79831125e-02 -1.76448487e-02 1.10858036e-02
      -4.54939753e-02 -3.70704047e-02 2.98584625e-02 2.03155316e-02
      6.76397830e-02 -3.79989226e-03 5.47365025e-02 9.34113050e-04
      -7.09729642e-03 -1.07354917e-01 -9.05483738e-02 9.61195026e-03
      -7.46995257e-03 9.10402983e-02 1.36736017e-02 1.05837539e-01
      1.02203861e-02 2.07242928e-02 -1.03676535e-01 -9.55100507e-02
      -3.30931358e-02 4.71925661e-02 -3.33692990e-02 5.17998636e-03
      -2.78240293e-02 -5.28919045e-03 2.46229675e-02 -2.62717269e-02
      1.79443937e-02 3.69668603e-02 1.10855168e-02 -8.86799116e-03
      -1.51704089e-03 1.76347140e-02 3.85558270e-02 1.25463707e-02
      -2.72826217e-02 -3.86719368e-02 4.38437797e-04 2.58626416e-02
      1.97262689e-03 -1.02243170e-01 -8.97462070e-02 3.39976326e-02
      4.55540605e-02 -2.63994094e-02 -1.29906805e-02 4.05475907e-02
      2.85970513e-02 -1.80584043e-02 -1.08837076e-01 -2.79713850e-02
      -8.98689404e-03 2.96010002e-02 -2.56809629e-02 -4.21660533e-03
      2.67403927e-02 3.81077044e-02 5.77963255e-02 -6.23652637e-02
      -5.43697830e-03 -4.22988124e-02 -1.59571134e-02 -5.67620806e-02
      -3.64270248e-02 3.80113944e-02 4.00199257e-02 8.51595402e-02
      -8.89260601e-03 2.30207369e-02 -2.88477484e-02 -2.74112523e-02
      -1.03455476e-01 -8.77499580e-02 3.53224315e-02 2.38926765e-02
      1.12009555e-01 3.18386853e-02 8.25673044e-02 4.08242643e-03
      -2.44839434e-02 -1.37098178e-01 -1.19799733e-01 -1.16561446e-02
      6.50588572e-02 -3.50220837e-02 -4.85712336e-03 -5.73719703e-02
      -1.38268806e-02 4.40509319e-02 -2.00169198e-02 1.51650347e-02
      5.12867905e-02 1.14873759e-02 5.57443965e-03 8.48493166e-03
      1.05657307e-02 2.15516053e-02 -1.63310654e-02 -4.85507958e-03
      -3.09551805e-02 -4.46118880e-03 6.91224262e-02 1.03328684e-02
      -1.30330309e-01 -6.33450449e-02 -6.02081902e-02 -7.85544887e-03
      -2.26179902e-02 -4.13416140e-02 8.12317878e-02 5.90164401e-02
      -6.32222509e-04 -1.12656094e-01 -3.74364965e-02 -1.17840201e-01
      -2.85938457e-02 -3.64974067e-02 -2.47529205e-02 5.85744232e-02
      6.26971498e-02 9.13783088e-02 -7.01077059e-02 -2.26321593e-02
      -1.25504911e-01 -3.66876088e-02 -9.44062024e-02 -5.67194894e-02
      5.67858405e-02 6.14661165e-02 1.18566409e-01 2.83593703e-02
      -7.17064785e-03 -1.42388150e-01 -3.52976471e-02 -1.44231543e-01
      -1.39387995e-01 5.39707616e-02 5.04040495e-02 1.48655221e-01
      6.10449798e-02 2.45724544e-02 -9.41502228e-02 -3.65767851e-02
      -1.61430866e-01 -1.44687071e-01 1.79111622e-02 1.53023666e-02
      7.18563199e-02 5.54113835e-02 9.74758621e-03 -1.21367900e-02
      -3.43061313e-02 -8.09011683e-02 -6.88449219e-02 -1.37404567e-02</_>
    <_>
      -4.88403365e-02 2.50771075e-01 -1.06134482e-01 -4.59189992e-03
      -2.55675167e-02 2.95019299e-02 2.65907813e-02 2.30362732e-02
      9.04978346e-03 3.54045480e-02 -2.33530011e-02 -6.99180691e-03
      -3.27874571e-02 -5.39961010e-02 -5.68008050e-02 1.57158673e-02
      4.58504781e-02 1.62959110e-03 -5.27064539e-02 -3.27617340e-02
      -2.97616515e-02 -3.17118764e-02 -5.99929094e-02 -4.43486534e-02
      6.64900020e-02 6.63357601e-02 -6.18075654e-02 -7.86324516e-02
      -2.55714525e-02 -8.19688588e-02 -1.52447792e-02 -3.28083858e-02
      -1.15088001e-02 6.62851408e-02 9.70994085e-02 -3.89786698e-02
      -7.38695785e-02 -9.15857628e-02 -1.08162768e-01 -9.94346663e-02
      -1.27954051e-01 5.14569208e-02 1.00654848e-01 -2.27462780e-02
      -8.28179419e-02 7.45605454e-02 -9.32226926e-02 -1.66269436e-01
      -1.01054579e-01 2.98945121e-02 -1.82668656e-01 1.73723936e-01
      -6.56553134e-02 -8.16692859e-02 2.40917373e-02 -1.72497645e-01
      1.33418292e-01 -7.68416449e-02 6.63848296e-02 -6.36048391e-02
      -7.03567490e-02 -8.17419142e-02 -1.07192993e-01 -1.44974649e-01
      -1.75488219e-01 2.07721338e-01 -1.88606009e-02 1.47645362e-02
      -7.97298625e-02 -1.86226573e-02 -3.69594991e-03 -4.74797264e-02
      3.93879004e-02 1.28342360e-02 5.77566698e-02 -2.63356753e-02
      -6.91594630e-02 -7.02446327e-02 -2.23035309e-02 6.82241842e-03
      -3.34283616e-03 1.36399386e-03 3.44669372e-02 3.78144719e-02
      -2.55708881e-02 -5.53247891e-02 -5.54303303e-02 1.36457346e-02
      3.22571844e-02 -3.25321630e-02 -5.46159148e-02 3.91030088e-02
      3.54372635e-02 -2.24486715e-03 -5.97491814e-03 -1.98107511e-02
      3.74992937e-02 4.95097181e-03 4.05019522e-02 -6.15270548e-02
      2.55339835e-02 1.26549825e-01 -5.30816130e-02 -5.65690063e-02
      3.85585353e-02 1.15629053e-02 -1.26347288e-01 -1.34695813e-01
      -1.09965816e-01 -1.71846703e-01 1.20980635e-01 -2.28567515e-03
      6.46187291e-02 -1.48679197e-01 2.76498776e-02 -1.34905130e-01
      -1.72282830e-01 -1.27021343e-01 -2.22141534e-01 2.27541357e-01
      2.44461391e-02 1.29570261e-01 -9.01636481e-02 -1.77982673e-01
      1.39704049e-01 4.19865623e-02 1.84197769e-01 2.53690720e-01
      1.96737155e-01 -4.99209613e-01 -4.79753196e-01 -6.80855036e-01
      1.24629177e-02 -5.38001023e-02 -2.75507607e-02 3.16710845e-02
      3.16325761e-02 9.31133032e-02 -3.05308085e-02 -4.25396487e-02
      -8.16249028e-02 -8.01707655e-02 2.06400547e-03 2.55025178e-02
      4.01280783e-02 7.51501918e-02 7.26978236e-04 -1.02711981e-02
      -3.35422717e-02 -8.03887174e-02 -1.36608286e-02 2.69252323e-02
      -1.23992749e-02 -3.06662787e-02 3.07025611e-02 3.37061323e-02
      1.47040859e-02 -1.62265059e-02 -2.14357395e-02 7.40938187e-02
      7.63964877e-02 8.28870852e-03 -1.01969674e-01 7.50498381e-03
      4.43081446e-02 -4.87550050e-02 -1.00573614e-01 -7.86709115e-02
      8.09378251e-02 3.26637328e-02 -7.41890371e-02 -4.72193547e-02
      -2.04331547e-01 1.83707532e-02 3.47898975e-02 -2.42950022e-02
      -2.62804985e-01 8.71769339e-02 -9.64039639e-02 -9.47107226e-02
      5.15075226e-04 -2.38382593e-01 1.60833687e-01 3.61882560e-02
      1.47856697e-01 -1.05040796e-01 -1.13876067e-01 7.71958902e-02
      2.28715055e-02 4.48793992e-02 -6.67923912e-02 2.02101782e-01
      -6.50469214e-03 -2.18336299e-01 -2.85446316e-01 -1.42545793e-02
      -1.18417636e-01 -1.08572217e-02 2.10103905e-03 5.61590455e-02
      6.38402551e-02 -3.05508263e-02 -6.60863891e-02 -4.79394197e-02
      -1.18741885e-01 -9.60217640e-02 -3.19514647e-02 2.60394383e-02
      8.38798806e-02 8.79881438e-03 3.05203162e-02 1.89569015e-02
      -3.25031839e-02 -5.65359816e-02 -5.33955693e-02 -1.95809621e-02
      -1.41796619e-02 4.04228978e-02 5.94275352e-03 2.76268702e-02
      -6.60128072e-02 1.20156733e-02 -4.98315431e-02 4.76339608e-02
      -5.12090437e-02 -7.62854563e-03 3.90118663e-03 4.23820764e-02
      -6.36676475e-02 -8.38010013e-02 -5.09406924e-02 3.47803868e-02
      1.34561151e-01 -2.98305806e-02 -6.20165952e-02 -1.60337254e-01
      -2.05677852e-01 1.44806087e-01 4.48409952e-02 -2.10791398e-02
      1.33803874e-01 -6.68130517e-02 -5.55964299e-02 4.18542996e-02
      -1.62279382e-01 1.97293133e-01 3.30227464e-02 4.20197509e-02
      -4.88209166e-02 -1.21197589e-01 1.51636571e-01 -4.96413559e-02
      -3.72136757e-02 -2.74524838e-01 1.62621170e-01 -6.13633804e-02
      -1.85475603e-01 1.30490020e-01 7.26227313e-02 -1.03237303e-02
      -3.98647189e-02 -7.15958327e-02 3.02118305e-02 4.03771810e-02
      3.89448404e-02 -1.14017515e-03 -1.18678799e-02 -3.83410347e-03
      1.49154719e-02 -5.89277931e-02 -3.03628910e-02 3.84158380e-02
      -1.58874784e-02 4.45000567e-02 2.18424406e-02 2.59419531e-02
      1.45771122e-02 8.52425583e-03 -6.40528351e-02 -4.27803509e-02
      3.27274688e-02 -5.06952638e-04 1.02436431e-02 1.11577231e-02
      3.46342437e-02 2.16780938e-02 1.53226823e-01 -1.10744365e-01
      -1.36148512e-01 -3.21638435e-02 -4.94537652e-02 -4.11345623e-02
      -1.31890506e-01 6.10735677e-02 1.23730302e-01 4.21179794e-02
      -6.54024258e-02 -6.78851902e-02 -1.34789031e-02 -3.51560146e-01
      -3.71941812e-02 -1.20287009e-01 -4.64102477e-02 3.81297595e-03
      -5.76729327e-02 3.81004773e-02 2.54962780e-02 6.00178428e-02
      6.77249730e-02 -1.41053259e-01 -1.26562357e-01 -4.04212177e-02
      -1.03521958e-01 -6.61792457e-02 -2.82918155e-01 -8.86654407e-02
      1.27277812e-02 5.30234873e-02 4.33867052e-02 -2.30973326e-02
      1.73636436e-01 -1.05270207e-01 3.26001346e-02 -3.33512723e-02
      -9.56079066e-02 -3.12174931e-02 -5.92608657e-03 5.77796958e-02
      -3.85049395e-02 5.60670905e-02 3.08819488e-02 2.69379746e-02
      -5.81267774e-02 -6.71108291e-02 -1.91210844e-02 2.69146319e-02
      6.28455952e-02 -2.49119028e-02 2.61103790e-02 1.37594100e-02
      6.49933815e-02 -6.22094385e-02 -5.25278449e-02 -9.46726743e-03
      1.06615881e-02 9.88736749e-03 -8.32481384e-02 -1.01683801e-02
      6.06141053e-02 1.22475468e-01 -6.49696961e-02 -1.71060070e-01
      -1.19788479e-02 -2.46735616e-03 -4.47088405e-02 -6.29197340e-03
      2.81360857e-02 1.01271749e-01 4.30968292e-02 -1.96010768e-02
      -7.20824823e-02 -2.75227856e-02 -3.07549745e-01 -6.28886893e-02
      -1.05085513e-02 3.56567875e-02 4.07431386e-02 8.86863321e-02
      9.57616866e-02 2.57197339e-02 -3.12131550e-02 3.17517705e-02
      -2.80674189e-01 -1.52113780e-01 -7.98849016e-02 1.94662772e-02
      8.89952928e-02 -3.61925066e-01 -2.03013271e-01 -1.85306728e-01
      6.37790039e-02 1.40574932e-01 4.35672291e-02 2.11794510e-01
      7.86195174e-02 4.22520787e-02 -2.72264183e-02 -7.66143650e-02
      -3.97296436e-02 -4.09026109e-02 -1.60154849e-02 -4.24572639e-02
      7.16259778e-02 3.33871841e-02 8.44974965e-02 -2.60302089e-02
      -6.83382303e-02 -2.98649408e-02 -4.24147211e-02 -3.75256985e-02
      -9.38012227e-02 -4.09252942e-02 6.44940883e-02 8.04211497e-02
      -4.70648929e-02 -5.35829514e-02 -1.57013107e-02 -1.03340700e-01
      -5.21583669e-02 -1.37426555e-01 -9.11469683e-02 8.16003904e-02
      1.49506912e-01 -1.10832341e-01 -1.56747505e-01 -5.41276857e-02
      -1.53686598e-01 -1.07264757e-01 -7.68390074e-02 -3.53399180e-02
      1.07165195e-01 9.23522636e-02 1.15054091e-02 -3.49790491e-02
      -6.02884442e-02 -1.30233973e-01 -1.05894685e-01 -7.52316713e-02
      -2.73703169e-02 8.82043839e-02 6.25758991e-02 2.68633440e-02
      2.15281826e-02 -7.46450871e-02 -7.78866634e-02 -1.04115762e-01
      -1.20523825e-01 -6.44283816e-02 7.51370713e-02 5.38657866e-02
      3.13843191e-02 5.52811734e-02 -1.86546743e-02 -5.39674275e-02
      -1.19984932e-01 -1.36085927e-01 -9.83530432e-02 -1.72974151e-02</_>
    <_>
      -2.08580613e-01 2.22490579e-01 -1.35908842e-01 5.71861379e-02
      -3.06834113e-02 5.74124418e-02 7.33206468e-03 1.38673382e-02
      8.29966180e-03 -1.28552960e-02 -4.40709852e-02 -1.75852645e-02
      -2.54896190e-02 -4.75739986e-02 -1.79322343e-02 1.94832422e-02
      4.18960266e-02 3.12953861e-03 -4.04199027e-02 -4.61305417e-02
      -3.38714980e-02 -2.46543940e-02 -4.99117970e-02 3.66914342e-03
      3.51317786e-02 5.52314147e-02 -4.35298942e-02 -5.82929701e-02
      -5.12837134e-02 -1.06258214e-01 -1.34256519e-02 -3.00502777e-02
      9.96145885e-03 5.51814400e-02 9.38488394e-02 1.10743577e-02
      -3.17903906e-02 -7.78721869e-02 -2.10015714e-01 -1.08935125e-01
      -5.11538759e-02 -5.62071474e-03 9.28285271e-02 -6.29724376e-03
      -7.98738673e-02 -4.35950756e-02 -3.75393704e-02 -2.82070730e-02
      2.93362178e-02 -1.12054786e-02 -8.59821495e-03 -1.99701209e-02
      5.65257668e-03 -1.98916458e-02 2.21047625e-02 1.34342397e-02
      1.91902518e-01 -8.15133378e-02 1.27793159e-02 -3.31814229e-01
      -8.35213289e-02 8.43124930e-03 -3.25043313e-02 -2.43953094e-02
      1.80552397e-02 2.64057159e-01 -1.00481585e-01 -3.19718793e-02
      -3.06050122e-01 -5.52264638e-02 1.83462389e-02 -1.27567742e-02
      4.75474820e-03 -2.73098871e-02 8.97084828e-03 -3.84447724e-02
      -4.93663587e-02 -2.97329985e-02 -1.83289323e-03 1.83139052e-02
      1.47332018e-02 5.21793310e-03 -1.63125452e-02 5.68740442e-03
      -3.49757709e-02 -5.09259365e-02 -2.02312302e-02 1.80181745e-03
      2.41983328e-02 1.05654364e-02 -1.71324722e-02 -3.12888026e-02
      -2.53263619e-02 -1.49493646e-02 -3.45927104e-02 -1.35281868e-02
      2.41606515e-02 5.86948171e-02 3.61358486e-02 2.60546487e-02
      -1.40420785e-02 -8.21725205e-02 -9.29701030e-02 -1.18826684e-02
      -7.57634640e-04 5.63078113e-02 -9.89718437e-02 -1.38613403e-01
      -1.85909793e-01 -1.04914799e-01 6.36109784e-02 8.92795548e-02
      8.70093405e-02 -2.73226723e-02 -1.32336393e-01 -2.39031874e-02
      -1.31216541e-01 -4.64827776e-01 -1.75114781e-01 1.01820983e-01
      1.72798216e-01 3.45498443e-01 -1.69734240e-01 -7.25414902e-02
      1.75626293e-01 9.87416655e-02 1.15896165e-01 3.65406662e-01
      1.43860430e-01 -4.07016933e-01 -4.19221133e-01 -9.17082369e-01
      5.20358793e-02 -3.77823077e-02 -1.68186575e-02 1.18171489e-02
      -1.80859976e-02 4.39232402e-02 -2.30702497e-02 -5.24691455e-02
      -3.60396020e-02 -4.03909795e-02 -9.19980649e-03 3.60579416e-02
      3.00227571e-03 1.52479317e-02 -5.54423174e-03 -1.18159344e-02
      -4.94157486e-02 -3.54671255e-02 -2.04332005e-02 6.40587136e-03
      4.44028787e-02 5.09880446e-02 1.42589957e-02 -3.43281627e-02
      -2.07726890e-03 -2.43783109e-02 -3.16494703e-02 -4.23542317e-03
      6.38340265e-02 4.78549451e-02 8.36396590e-02 3.39007229e-02
      -9.48478207e-02 -5.73402941e-02 -2.06494257e-02 -3.30778328e-03
      3.41341496e-02 7.04173967e-02 -1.42211476e-02 -1.73844770e-02
      -2.13704214e-01 6.47074431e-02 1.08772330e-01 6.68093853e-04
      -6.18606582e-02 3.77117819e-03 -2.17065752e-01 -1.06311239e-01
      -5.26621826e-02 -1.16285287e-01 1.09036125e-01 2.10502937e-01
      3.48657101e-01 -1.62264302e-01 -1.38742357e-01 -5.88226989e-02
      4.83572576e-03 1.34541273e-01 6.65444359e-02 1.85898930e-01
      1.28237888e-01 -1.20900564e-01 -4.20669377e-01 -9.28249434e-02
      -3.74381840e-02 -1.77232251e-02 -3.20558436e-02 -7.84798758e-04
      6.92638680e-02 3.47054331e-03 -4.88502532e-02 -3.83856483e-02
      -3.72456759e-02 -4.59121395e-04 1.26300538e-02 -1.75920594e-02
      6.42488990e-03 -1.58472511e-03 2.01635603e-02 -1.69222951e-02
      -1.57323256e-02 4.48479410e-03 1.70595814e-02 2.69464180e-02
      1.32457456e-02 6.33459212e-03 -5.07800132e-02 1.02281030e-02
      1.67034864e-02 6.89444365e-03 1.43424226e-02 5.15508465e-02
      4.04765084e-02 3.80530134e-02 -1.49382576e-02 -7.93460980e-02
      -5.43588735e-02 -2.89414953e-02 1.82635970e-02 4.51039597e-02
      1.05994940e-01 2.37594135e-02 -2.25807838e-02 -2.20913470e-01
      -5.64951375e-02 1.28548369e-01 -2.64877141e-01 7.87414610e-02
      1.90285575e-02 -1.99176595e-01 1.15796505e-02 3.21945190e-01
      -3.32176164e-02 1.14585303e-01 6.90992475e-02 2.01989517e-01
      -2.30376959e-01 -1.75587222e-01 5.80240935e-02 -2.55869050e-02
      2.78921276e-01 -1.46334186e-01 7.54151791e-02 2.31370647e-02
      -4.39695343e-02 -2.42750142e-02 8.27687904e-02 3.15081119e-03
      -1.13340197e-02 -2.82661896e-02 6.98954007e-03 5.17969504e-02
      -2.38462240e-02 -2.36226134e-02 -2.74593700e-02 -5.88232093e-03
      3.13030891e-02 -3.14301508e-03 -1.35943806e-02 -5.13513573e-03
      -1.02085266e-02 -9.07912385e-03 -8.26779753e-03 -2.04218645e-03
      1.76649541e-02 2.80129313e-02 -4.73268591e-02 -6.93295747e-02
      -2.25748364e-02 -6.69720257e-03 -1.03506567e-02 -2.22104471e-02
      3.27525139e-02 5.21962270e-02 1.05974697e-01 -5.75878425e-03
      -4.44437675e-02 -4.37034629e-02 -1.00343622e-01 -5.07383645e-02
      -2.27603540e-02 5.60683832e-02 1.01755030e-01 9.17063728e-02
      3.07474136e-02 -3.86176147e-02 -3.29835787e-02 -1.59706995e-02
      -6.44543320e-02 -7.16752931e-02 -4.72860876e-03 8.34390149e-02
      -6.70144781e-02 1.80799171e-01 5.10297529e-02 1.22747488e-01
      -3.30585837e-02 -7.55140930e-02 -1.39739692e-01 2.72751022e-02
      -1.56393990e-01 -2.33842116e-02 -2.69591838e-01 -3.57156098e-02
      1.79382283e-02 -4.29600701e-02 1.70910552e-01 -4.64243107e-02
      2.60134399e-01 -3.94734144e-02 6.96468130e-02 2.08923244e-03
      7.92953931e-03 3.83167528e-02 1.61159132e-03 -4.52562235e-02
      -2.18131524e-02 -4.83849421e-02 3.05905621e-02 6.53430447e-02
      2.13350123e-03 1.14674185e-04 3.71323386e-03 1.98598282e-04
      -3.23738642e-02 -2.28193793e-02 -2.18983740e-02 1.23928646e-02
      8.02522972e-02 -2.85862889e-02 -4.07279171e-02 -3.92911285e-02
      -5.90919517e-02 -3.44676189e-02 -2.98669301e-02 -7.61778094e-03
      3.92185785e-02 7.09410980e-02 9.12088249e-03 -2.10509822e-02
      -4.20233868e-02 -9.12140682e-02 -5.73362410e-02 -2.46475041e-02
      -2.13882630e-03 6.44328371e-02 4.73794267e-02 -1.58588886e-02
      -5.27058057e-02 -2.35376842e-02 -2.15730611e-02 -2.82305405e-02
      -2.37197522e-02 -6.81943400e-03 5.24228737e-02 -1.40754730e-01
      -1.17535731e-02 2.60273777e-02 2.94045247e-02 -2.45680171e-03
      -5.63005544e-02 -1.05249926e-01 -1.50529370e-02 -1.83792114e-01
      -2.90156044e-02 -5.83499312e-01 -3.13695043e-01 -3.27622503e-01
      -5.28838411e-02 4.40507799e-01 1.74813703e-01 4.58226502e-01
      2.88036838e-02 7.23153055e-02 8.44267756e-03 1.61566455e-02
      3.40600722e-02 8.50803684e-04 -4.76589538e-02 -2.33116429e-02
      -3.36155258e-02 1.71091259e-02 9.21417549e-02 3.76797398e-03
      2.96097179e-03 2.17226543e-03 -2.24422067e-02 -5.26154377e-02
      -6.00641295e-02 -5.38905002e-02 3.47156562e-02 8.45007449e-02
      -3.42746526e-02 -3.46609615e-02 -2.30112094e-02 -1.33870795e-01
      -6.10430799e-02 -5.69836758e-02 -4.43032086e-02 6.37579858e-02
      5.52201495e-02 -1.39695406e-02 -3.65412645e-02 -2.27932278e-02
      -1.32866517e-01 -5.28217964e-02 -5.70951030e-02 -1.96803436e-02
      5.67339547e-02 4.71815541e-02 -6.93522207e-03 -4.25417498e-02
      -1.59388743e-02 -8.59486684e-02 -1.59676373e-02 -3.42519358e-02
      -5.41518778e-02 5.00454940e-02 2.38055550e-02 -2.34056190e-02
      -3.45942192e-02 -1.96058024e-02 -5.38405962e-03 -6.26497855e-03
      -1.71599127e-02 -3.26967612e-02 3.45647521e-02 2.70412602e-02
      -2.13934015e-02 -3.22257401e-03 -2.12110747e-02 1.98152363e-02
      -9.77923628e-03 -2.32981518e-02 -3.46504077e-02 1.07449852e-02</_>
    <_>
      -5.16844951e-02 -2.54714042e-02 6.62612393e-02 -3.96356266e-03
      2.43164672e-04 1.07950401e-02 4.12229681e-03 3.34015712e-02
      1.58131197e-02 9.23410617e-03 -1.67331025e-02 -1.96571425e-02
      -1.11707570e-02 -2.42954660e-02 -1.26400739e-02 5.88510595e-02
      2.09801756e-02 2.11305041e-02 2.10588519e-02 -3.75267528e-02
      -7.00042546e-02 -3.90139669e-02 -7.37189278e-02 -3.71380523e-02
      4.16561030e-02 -4.81546000e-02 3.60759385e-02 3.82524319e-02
      1.44790486e-03 4.69521061e-02 -2.61629205e-02 -1.82616096e-02
      -2.31245439e-02 -7.39829913e-02 9.98953544e-03 2.40975972e-02
      4.61691990e-02 2.48203170e-03 6.10160530e-02 -4.14739512e-02
      -9.53724384e-02 -1.22643709e-01 4.13321331e-03 1.26400786e-02
      7.62264505e-02 9.90092233e-02 1.67642776e-02 7.02574253e-02
      -5.31715453e-02 -1.67693928e-01 -1.26490831e-01 9.18743573e-03
      9.53643024e-03 8.55943412e-02 9.88409892e-02 1.37937702e-02
      9.33082849e-02 -6.73199743e-02 -1.48837671e-01 -1.27499759e-01
      1.05545064e-02 5.71069531e-02 8.84109363e-02 8.90386328e-02
      1.89154707e-02 6.29399270e-02 -8.37060660e-02 -1.28502384e-01
      -1.36839464e-01 1.01497127e-02 7.31545314e-02 1.66601520e-02
      1.10628707e-02 -1.46283194e-01 -1.20918058e-01 -1.87368561e-02
      -1.02622826e-02 2.58019548e-02 1.00901112e-01 4.54327874e-02
      3.04506607e-02 2.40774378e-02 -6.44826069e-02 -8.41910914e-02
      -5.41479327e-02 -6.93220124e-02 -3.24508250e-02 8.40333477e-02
      2.73309136e-03 1.39128994e-02 1.35913743e-02 1.00561380e-02
      -1.94449686e-02 -2.25329604e-02 2.53908057e-02 7.36081460e-03
      3.35472263e-02 1.39320325e-02 3.81445512e-02 -5.46591505e-02
      9.24286142e-04 1.16164654e-01 -2.88702808e-02 -2.69955397e-02
      -1.92194097e-02 5.09797893e-02 2.02924069e-02 7.92143308e-03
      -4.90621245e-03 -3.64895314e-02 6.50397092e-02 -7.04790130e-02
      -2.65983250e-02 1.69462878e-02 3.25248502e-02 3.23377997e-02
      8.77651293e-03 6.08720863e-03 -2.56646685e-02 4.80903946e-02
      -9.46554914e-02 -5.48340157e-02 7.84471922e-04 2.94710230e-02
      3.36932316e-02 -2.81532528e-03 -1.52926128e-02 3.49592254e-03
      4.98943627e-02 -7.33569264e-02 -7.61274397e-02 -4.08005863e-02
      1.26276864e-02 7.41682351e-02 1.38119403e-02 -3.27594355e-02
      -9.85710472e-02 -8.47064927e-02 -4.74675037e-02 2.01078281e-02
      8.91442150e-02 8.35387781e-02 2.38777846e-02 3.48325744e-02
      1.71943158e-02 -2.19308380e-02 -3.45327966e-02 -5.39525785e-02
      -7.17525110e-02 1.15863532e-02 2.19459701e-02 -3.64370011e-02
      1.16790775e-02 6.94494881e-03 7.05619603e-02 2.12233271e-02
      -1.81633420e-02 -5.31046912e-02 2.23028678e-02 -7.44807627e-03
      5.49353252e-04 -3.79422531e-02 -7.76479915e-02 -1.39293363e-02
      9.60799679e-02 -8.95896461e-03 -1.98457632e-02 2.57990249e-02
      4.65431437e-02 -3.13801020e-02 -4.06245366e-02 -6.62646443e-02
      8.27417057e-03 7.26771727e-02 -2.88134217e-02 1.22496430e-02
      5.25128990e-02 -1.06969923e-02 -3.86749730e-02 -1.84011813e-02
      -2.45566033e-02 1.06954994e-02 3.83767560e-02 -4.02618200e-02
      -2.05785111e-02 4.56092209e-02 -2.05514636e-02 -8.41320842e-04
      -5.34900390e-02 -5.83477244e-02 -4.10244614e-03 4.40667644e-02
      -4.87569831e-02 -1.85201410e-02 4.71048057e-02 1.29291108e-02
      5.16111888e-02 2.44626626e-02 -5.33563830e-02 -3.80360186e-02
      -5.25398329e-02 -1.02397308e-01 6.46486087e-03 7.97576383e-02
      5.94476908e-02 -8.03134814e-02 -6.21538311e-02 1.28305227e-01
      -1.32276984e-02 1.21786334e-01 -1.27601430e-01 9.23623331e-03
      2.32614595e-02 -2.80246399e-02 1.30096525e-01 -7.49786198e-03
      8.44842196e-02 -3.43691967e-02 1.98267233e-02 -1.28697246e-01
      -2.99270172e-03 7.33100623e-02 1.21962368e-01 1.31619483e-01
      -1.03078455e-01 2.52988692e-02 -6.57479092e-02 7.69898817e-02
      -4.69133928e-02 3.72278839e-02 7.65326768e-02 1.22099310e-01
      1.20985888e-01 -7.66672641e-02 4.67496701e-02 -8.65788311e-02
      9.56059322e-02 -8.01443383e-02 1.31827183e-02 4.34000306e-02
      1.22415230e-01 1.45685315e-01 -5.80658950e-02 6.20367937e-02
      -1.27557978e-01 1.04294635e-01 -1.64712399e-01 -1.58014431e-04
      1.24335093e-02 1.35091245e-01 -5.15322387e-02 -5.35620898e-02
      -1.01228386e-01 3.09200883e-02 9.32837874e-02 -2.31045354e-02
      -6.19789623e-02 -6.99756145e-02 -3.59454416e-02 9.74635556e-02
      6.06990838e-03 -6.49305657e-02 -5.18424436e-02 -1.33874923e-01
      -4.45774533e-02 3.08967344e-02 6.37189075e-02 8.29101279e-02
      -3.06062996e-02 -8.77480656e-02 1.66315779e-01 1.30666390e-01
      -2.78956648e-02 -1.00997597e-01 2.04694346e-02 9.72183272e-02
      -7.81430304e-02 5.18735833e-02 -2.68598404e-02 1.08539730e-01
      -1.49257695e-02 -7.41776172e-03 -1.30829051e-01 2.19271462e-02
      1.34116868e-02 2.27757785e-02 7.78277218e-02 -8.22904930e-02
      1.93555336e-02 -5.09216152e-02 8.67763683e-02 -6.61753640e-02
      -9.12830047e-03 8.82235542e-03 4.10062857e-02 4.61401567e-02
      -1.50193006e-01 -1.51856728e-02 -9.56722423e-02 8.61341804e-02
      -6.26398399e-02 4.08915691e-02 4.74649332e-02 5.65165095e-02
      6.76713511e-02 -1.72850892e-01 -1.51504725e-02 -1.20330244e-01
      4.51334901e-02 -1.01756148e-01 8.05461705e-02 5.38552068e-02
      1.08282678e-01 -5.89326397e-02 -1.35533903e-02 -8.92459601e-02
      1.57260418e-01 7.94246495e-02 -4.95374836e-02 -7.57592842e-02
      -7.44881332e-02 -5.61294369e-02 4.04631533e-02 -7.63761476e-02
      -1.64479434e-01 -7.92141482e-02 -1.20863371e-01 4.10605595e-02
      5.50750978e-02 1.26043826e-01 1.13755725e-01 -7.17986673e-02
      -1.57913581e-01 1.03147738e-01 1.65384352e-01 -5.45440167e-02
      -5.26034348e-02 7.77366608e-02 9.84218046e-02 -5.77379055e-02
      1.70408245e-02 -7.65878707e-02 7.99265504e-02 5.89460414e-03
      -2.92404536e-02 -8.19321051e-02 1.37750879e-02 4.82008643e-02
      6.90552220e-02 1.06308766e-01 -1.21417440e-01 4.50477786e-02
      -2.72262022e-02 6.55085519e-02 -9.66032594e-02 -1.66594926e-02
      6.60446333e-03 6.31876513e-02 2.90986802e-02 -1.42617553e-01
      -9.10385977e-03 -7.15801418e-02 7.17883408e-02 -9.88542140e-02
      6.09499291e-02 7.10908547e-02 4.56849225e-02 2.05019601e-02
      -2.17510507e-01 -7.83556476e-02 -1.54912636e-01 -5.26151340e-03
      -8.71264040e-02 1.27369493e-01 1.06348380e-01 1.08169511e-01
      -5.61664775e-02 -3.86117585e-02 -7.71633759e-02 1.01167619e-01
