<?xml version="1.0"?>
<opencv_storage>
<opencv_ml_rtrees>
  <format>3</format>
  <is_classifier>1</is_classifier>
  <var_all>449</var_all>
  <var_count>448</var_count>
  <ord_var_count>448</ord_var_count>
  <cat_var_count>1</cat_var_count>
  <training_params>
    <use_surrogates>0</use_surrogates>
    <max_categories>15</max_categories>
    <regression_accuracy>0.</regression_accuracy>
    <max_depth>10</max_depth>
    <min_sample_count>2</min_sample_count>
    <cross_validation_folds>0</cross_validation_folds>
    <nactive_vars>0</nactive_vars></training_params>
  <global_var_idx>1</global_var_idx>
  <var_idx>
    0 1 2 3 4 5 6 7 8 9 10 11 12 13 14 15 16 17 18 19 20 21 22 23 24 25
    26 27 28 29 30 31 32 33 34 35 36 37 38 39 40 41 42 43 44 45 46 47 48
    49 50 51 52 53 54 55 56 57 58 59 60 61 62 63 64 65 66 67 68 69 70 71
    72 73 74 75 76 77 78 79 80 81 82 83 84 85 86 87 88 89 90 91 92 93 94
    95 96 97 98 99 100 101 102 103 104 105 106 107 108 109 110 111 112
    113 114 115 116 117 118 119 120 121 122 123 124 125 126 127 128 129
    130 131 132 133 134 135 136 137 138 139 140 141 142 143 144 145 146
    147 148 149 150 151 152 153 154 155 156 157 158 159 160 161 162 163
    164 165 166 167 168 169 170 171 172 173 174 175 176 177 178 179 180
    181 182 183 184 185 186 187 188 189 190 191 192 193 194 195 196 197
    198 199 200 201 202 203 204 205 206 207 208 209 210 211 212 213 214
    215 216 217 218 219 220 221 222 223 224 225 226 227 228 229 230 231
    232 233 234 235 236 237 238 239 240 241 242 243 244 245 246 247 248
    249 250 251 252 253 254 255 256 257 258 259 260 261 262 263 264 265
    266 267 268 269 270 271 272 273 274 275 276 277 278 279 280 281 282
    283 284 285 286 287 288 289 290 291 292 293 294 295 296 297 298 299
    300 301 302 303 304 305 306 307 308 309 310 311 312 313 314 315 316
    317 318 319 320 321 322 323 324 325 326 327 328 329 330 331 332 333
    334 335 336 337 338 339 340 341 342 343 344 345 346 347 348 349 350
    351 352 353 354 355 356 357 358 359 360 361 362 363 364 365 366 367
    368 369 370 371 372 373 374 375 376 377 378 379 380 381 382 383 384
    385 386 387 388 389 390 391 392 393 394 395 396 397 398 399 400 401
    402 403 404 405 406 407 408 409 410 411 412 413 414 415 416 417 418
    419 420 421 422 423 424 425 426 427 428 429 430 431 432 433 434 435
    436 437 438 439 440 441 442 443 444 445 446 447</var_idx>
  <var_type>
    0 0 0 0 0 0 0 0 0 0 0 0 0 0 0 0 0 0 0 0 0 0 0 0 0 0 0 0 0 0 0 0 0 0
    0 0 0 0 0 0 0 0 0 0 0 0 0 0 0 0 0 0 0 0 0 0 0 0 0 0 0 0 0 0 0 0 0 0
    0 0 0 0 0 0 0 0 0 0 0 0 0 0 0 0 0 0 0 0 0 0 0 0 0 0 0 0 0 0 0 0 0 0
    0 0 0 0 0 0 0 0 0 0 0 0 0 0 0 0 0 0 0 0 0 0 0 0 0 0 0 0 0 0 0 0 0 0
    0 0 0 0 0 0 0 0 0 0 0 0 0 0 0 0 0 0 0 0 0 0 0 0 0 0 0 0 0 0 0 0 0 0
    0 0 0 0 0 0 0 0 0 0 0 0 0 0 0 0 0 0 0 0 0 0 0 0 0 0 0 0 0 0 0 0 0 0
    0 0 0 0 0 0 0 0 0 0 0 0 0 0 0 0 0 0 0 0 0 0 0 0 0 0 0 0 0 0 0 0 0 0
    0 0 0 0 0 0 0 0 0 0 0 0 0 0 0 0 0 0 0 0 0 0 0 0 0 0 0 0 0 0 0 0 0 0
    0 0 0 0 0 0 0 0 0 0 0 0 0 0 0 0 0 0 0 0 0 0 0 0 0 0 0 0 0 0 0 0 0 0
    0 0 0 0 0 0 0 0 0 0 0 0 0 0 0 0 0 0 0 0 0 0 0 0 0 0 0 0 0 0 0 0 0 0
    0 0 0 0 0 0 0 0 0 0 0 0 0 0 0 0 0 0 0 0 0 0 0 0 0 0 0 0 0 0 0 0 0 0
    0 0 0 0 0 0 0 0 0 0 0 0 0 0 0 0 0 0 0 0 0 0 0 0 0 0 0 0 0 0 0 0 0 0
    0 0 0 0 0 0 0 0 0 0 0 0 0 0 0 0 0 0 0 0 0 0 0 0 0 0 0 0 0 0 0 0 0 0
    0 0 0 0 0 0 1</var_type>
  <cat_ofs>
    0 0 0 0 0 0 0 0 0 0 0 0 0 0 0 0 0 0 0 0 0 0 0 0 0 0 0 0 0 0 0 0 0 0
    0 0 0 0 0 0 0 0 0 0 0 0 0 0 0 0 0 0 0 0 0 0 0 0 0 0 0 0 0 0 0 0 0 0
    0 0 0 0 0 0 0 0 0 0 0 0 0 0 0 0 0 0 0 0 0 0 0 0 0 0 0 0 0 0 0 0 0 0
    0 0 0 0 0 0 0 0 0 0 0 0 0 0 0 0 0 0 0 0 0 0 0 0 0 0 0 0 0 0 0 0 0 0
    0 0 0 0 0 0 0 0 0 0 0 0 0 0 0 0 0 0 0 0 0 0 0 0 0 0 0 0 0 0 0 0 0 0
    0 0 0 0 0 0 0 0 0 0 0 0 0 0 0 0 0 0 0 0 0 0 0 0 0 0 0 0 0 0 0 0 0 0
    0 0 0 0 0 0 0 0 0 0 0 0 0 0 0 0 0 0 0 0 0 0 0 0 0 0 0 0 0 0 0 0 0 0
    0 0 0 0 0 0 0 0 0 0 0 0 0 0 0 0 0 0 0 0 0 0 0 0 0 0 0 0 0 0 0 0 0 0
    0 0 0 0 0 0 0 0 0 0 0 0 0 0 0 0 0 0 0 0 0 0 0 0 0 0 0 0 0 0 0 0 0 0
    0 0 0 0 0 0 0 0 0 0 0 0 0 0 0 0 0 0 0 0 0 0 0 0 0 0 0 0 0 0 0 0 0 0
    0 0 0 0 0 0 0 0 0 0 0 0 0 0 0 0 0 0 0 0 0 0 0 0 0 0 0 0 0 0 0 0 0 0
    0 0 0 0 0 0 0 0 0 0 0 0 0 0 0 0 0 0 0 0 0 0 0 0 0 0 0 0 0 0 0 0 0 0
    0 0 0 0 0 0 0 0 0 0 0 0 0 0 0 0 0 0 0 0 0 0 0 0 0 0 0 0 0 0 0 0 0 0
    0 0 0 0 0 0 0 0 0 0 0 0 0 0 0 0 0 0 0 0 0 0 0 0 0 0 0 0 0 0 0 0 0 0
    0 0 0 0 0 0 0 0 0 0 0 0 0 0 0 0 0 0 0 0 0 0 0 0 0 0 0 0 0 0 0 0 0 0
    0 0 0 0 0 0 0 0 0 0 0 0 0 0 0 0 0 0 0 0 0 0 0 0 0 0 0 0 0 0 0 0 0 0
    0 0 0 0 0 0 0 0 0 0 0 0 0 0 0 0 0 0 0 0 0 0 0 0 0 0 0 0 0 0 0 0 0 0
    0 0 0 0 0 0 0 0 0 0 0 0 0 0 0 0 0 0 0 0 0 0 0 0 0 0 0 0 0 0 0 0 0 0
    0 0 0 0 0 0 0 0 0 0 0 0 0 0 0 0 0 0 0 0 0 0 0 0 0 0 0 0 0 0 0 0 0 0
    0 0 0 0 0 0 0 0 0 0 0 0 0 0 0 0 0 0 0 0 0 0 0 0 0 0 0 0 0 0 0 0 0 0
    0 0 0 0 0 0 0 0 0 0 0 0 0 0 0 0 0 0 0 0 0 0 0 0 0 0 0 0 0 0 0 0 0 0
    0 0 0 0 0 0 0 0 0 0 0 0 0 0 0 0 0 0 0 0 0 0 0 0 0 0 0 0 0 0 0 0 0 0
    0 0 0 0 0 0 0 0 0 0 0 0 0 0 0 0 0 0 0 0 0 0 0 0 0 0 0 0 0 0 0 0 0 0
    0 0 0 0 0 0 0 0 0 0 0 0 0 0 0 0 0 0 0 0 0 0 0 0 0 0 0 0 0 0 0 0 0 0
    0 0 0 0 0 0 0 0 0 0 0 0 0 0 0 0 0 0 0 0 0 0 0 0 0 0 0 0 0 0 0 0 0 0
    0 0 0 0 0 0 0 0 0 0 0 0 0 0 0 0 0 0 0 0 0 0 0 0 0 0 0 0 0 0 0 0 0 0
    0 0 0 0 0 0 0 0 0 0 0 0</cat_ofs>
  <class_labels>
    1 2 3 4 5 6</class_labels>
  <missing_subst>
    0. 0. 0. 0. 0. 0. 0. 0. 0. 0. 0. 0. 0. 0. 0. 0. 0. 0. 0. 0. 0. 0. 0.
    0. 0. 0. 0. 0. 0. 0. 0. 0. 0. 0. 0. 0. 0. 0. 0. 0. 0. 0. 0. 0. 0. 0.
    0. 0. 0. 0. 0. 0. 0. 0. 0. 0. 0. 0. 0. 0. 0. 0. 0. 0. 0. 0. 0. 0. 0.
    0. 0. 0. 0. 0. 0. 0. 0. 0. 0. 0. 0. 0. 0. 0. 0. 0. 0. 0. 0. 0. 0. 0.
    0. 0. 0. 0. 0. 0. 0. 0. 0. 0. 0. 0. 0. 0. 0. 0. 0. 0. 0. 0. 0. 0. 0.
    0. 0. 0. 0. 0. 0. 0. 0. 0. 0. 0. 0. 0. 0. 0. 0. 0. 0. 0. 0. 0. 0. 0.
    0. 0. 0. 0. 0. 0. 0. 0. 0. 0. 0. 0. 0. 0. 0. 0. 0. 0. 0. 0. 0. 0. 0.
    0. 0. 0. 0. 0. 0. 0. 0. 0. 0. 0. 0. 0. 0. 0. 0. 0. 0. 0. 0. 0. 0. 0.
    0. 0. 0. 0. 0. 0. 0. 0. 0. 0. 0. 0. 0. 0. 0. 0. 0. 0. 0. 0. 0. 0. 0.
    0. 0. 0. 0. 0. 0. 0. 0. 0. 0. 0. 0. 0. 0. 0. 0. 0. 0. 0. 0. 0. 0. 0.
    0. 0. 0. 0. 0. 0. 0. 0. 0. 0. 0. 0. 0. 0. 0. 0. 0. 0. 0. 0. 0. 0. 0.
    0. 0. 0. 0. 0. 0. 0. 0. 0. 0. 0. 0. 0. 0. 0. 0. 0. 0. 0. 0. 0. 0. 0.
    0. 0. 0. 0. 0. 0. 0. 0. 0. 0. 0. 0. 0. 0. 0. 0. 0. 0. 0. 0. 0. 0. 0.
    0. 0. 0. 0. 0. 0. 0. 0. 0. 0. 0. 0. 0. 0. 0. 0. 0. 0. 0. 0. 0. 0. 0.
    0. 0. 0. 0. 0. 0. 0. 0. 0. 0. 0. 0. 0. 0. 0. 0. 0. 0. 0. 0. 0. 0. 0.
    0. 0. 0. 0. 0. 0. 0. 0. 0. 0. 0. 0. 0. 0. 0. 0. 0. 0. 0. 0. 0. 0. 0.
    0. 0. 0. 0. 0. 0. 0. 0. 0. 0. 0. 0. 0. 0. 0. 0. 0. 0. 0. 0. 0. 0. 0.
    0. 0. 0. 0. 0. 0. 0. 0. 0. 0. 0. 0. 0. 0. 0. 0. 0. 0. 0. 0. 0. 0. 0.
    0. 0. 0. 0. 0. 0. 0. 0. 0. 0. 0. 0. 0. 0. 0. 0. 0. 0. 0. 0. 0. 0. 0.
    0. 0. 0. 0. 0. 0. 0. 0. 0. 0. 0. 0.</missing_subst>
  <oob_error>2.2727272727272728e-02</oob_error>
  <var_importance>
    2.18107551e-03 2.33830907e-03 2.43351469e-03 2.15078262e-03
    2.14789761e-03 2.13924260e-03 2.14068522e-03 2.16665026e-03
    2.16088025e-03 2.14645523e-03 2.14068522e-03 2.13635759e-03
    2.43928470e-03 2.44793994e-03 2.54891557e-03 2.20271316e-03
    2.30945880e-03 2.25752848e-03 2.35706172e-03 2.13924260e-03
    2.29791878e-03 2.18973053e-03 2.66720145e-03 2.25175847e-03
    2.16665026e-03 2.23156321e-03 2.47967499e-03 2.68595410e-03
    2.13780021e-03 2.30801641e-03 2.16232287e-03 2.22290820e-03
    2.14068522e-03 2.37725675e-03 2.17097788e-03 2.17674789e-03
    2.14934023e-03 2.16232287e-03 2.52872030e-03 2.17097788e-03
    2.15799524e-03 2.16232287e-03 2.20415555e-03 2.38014176e-03
    2.18107551e-03 2.17530550e-03 2.16520787e-03 2.54603056e-03
    2.18828791e-03 2.15655286e-03 2.33542407e-03 2.29647616e-03
    2.14357022e-03 2.16088025e-03 2.14934023e-03 2.14357022e-03
    2.32388405e-03 2.13924260e-03 2.19405792e-03 2.29791878e-03
    2.14645523e-03 2.16520787e-03 2.15511024e-03 2.15366785e-03
    2.14068522e-03 2.22867820e-03 2.14212760e-03 2.18828791e-03
    2.14645523e-03 2.13924260e-03 2.14934023e-03 2.16953526e-03
    2.14934023e-03 2.14645523e-03 2.17242027e-03 2.18684552e-03
    2.64123618e-03 2.44505471e-03 2.19117291e-03 2.14357022e-03
    2.17819051e-03 2.19117291e-03 2.34840671e-03 2.24021845e-03
    2.34840671e-03 2.46236497e-03 2.29936116e-03 2.14212760e-03
    2.16088025e-03 2.16088025e-03 2.18251790e-03 2.15799524e-03
    2.17674789e-03 2.19405792e-03 2.18828791e-03 2.24310346e-03
    2.19550054e-03 2.21136818e-03 2.48544500e-03 2.19405792e-03
    2.14212760e-03 2.24166084e-03 2.14934023e-03 2.13780021e-03
    2.16088025e-03 2.16953526e-03 2.16809288e-03 2.31522880e-03
    2.22579320e-03 2.15222524e-03 2.23589083e-03 2.13780021e-03
    2.20271316e-03 2.15366785e-03 2.16809288e-03 2.19405792e-03
    2.16809288e-03 2.26906850e-03 2.24310346e-03 2.32532644e-03
    2.18251790e-03 2.30945880e-03 2.21136818e-03 2.15655286e-03
    2.14934023e-03 2.17242027e-03 2.16520787e-03 2.15511024e-03
    2.16665026e-03 2.15366785e-03 2.21569557e-03 2.26185611e-03
    2.16088025e-03 2.15366785e-03 2.16665026e-03 2.15366785e-03
    2.35994672e-03 2.18540290e-03 2.17097788e-03 2.37437175e-03
    2.52583530e-03 2.14645523e-03 2.14357022e-03 2.21569557e-03
    2.27628113e-03 2.24598846e-03 2.35994672e-03 2.15655286e-03
    2.62248353e-03 2.88934796e-03 2.24166084e-03 2.15655286e-03
    2.20848317e-03 2.14212760e-03 3.45913949e-03 2.21425318e-03
    2.24021845e-03 2.75663706e-03 2.28637876e-03 2.14501261e-03
    2.14789761e-03 2.43207230e-03 2.49987026e-03 2.20559817e-03
    2.40754965e-03 2.21136818e-03 3.13024712e-03 2.24021845e-03
    2.17386289e-03 2.14357022e-03 2.43351469e-03 2.24310346e-03
    2.19261553e-03 2.21425318e-03 2.14789761e-03 2.17242027e-03
    2.15366785e-03 2.16665026e-03 2.18107551e-03 2.21713819e-03
    2.25031585e-03 2.18540290e-03 2.26762611e-03 2.30368879e-03
    2.24021845e-03 2.29647616e-03 2.16520787e-03 2.20559817e-03
    2.14357022e-03 2.22867820e-03 2.14501261e-03 2.17963289e-03
    2.16809288e-03 2.17386289e-03 2.14212760e-03 2.16376525e-03
    2.18540290e-03 2.16088025e-03 2.13924260e-03 2.14645523e-03
    2.18107551e-03 2.17963289e-03 2.14645523e-03 2.18251790e-03
    2.13924260e-03 2.29070615e-03 2.25175847e-03 2.17819051e-03
    2.30368879e-03 2.18973053e-03 2.16088025e-03 2.15799524e-03
    2.17242027e-03 2.13924260e-03 2.19117291e-03 2.65854620e-03
    2.37148674e-03 2.55324296e-03 2.33542407e-03 2.23589083e-03
    2.35273410e-03 2.32244143e-03 2.14645523e-03 2.15799524e-03
    2.72201677e-03 2.17963289e-03 2.52872030e-03 3.30190593e-03
    2.20992556e-03 2.82010739e-03 2.40754965e-03 2.16665026e-03
    2.21281056e-03 2.32388405e-03 2.28205114e-03 2.14357022e-03
    2.68451148e-03 2.21713819e-03 3.03792651e-03 2.26041349e-03
    2.14789761e-03 2.24598846e-03 2.16232287e-03 2.18107551e-03
    2.19694315e-03 2.19694315e-03 2.17530550e-03 2.17674789e-03
    2.15799524e-03 2.15078262e-03 2.14357022e-03 2.13491521e-03
    2.14501261e-03 2.17386289e-03 2.18107551e-03 2.14934023e-03
    2.14645523e-03 2.16376525e-03 2.14212760e-03 2.14212760e-03
    2.18396052e-03 2.17386289e-03 2.13924260e-03 2.14501261e-03
    2.17097788e-03 2.14357022e-03 2.15366785e-03 2.17963289e-03
    2.23300583e-03 2.41187704e-03 2.51573790e-03 2.17674789e-03
    2.14789761e-03 2.20127054e-03 2.14789761e-03 2.14501261e-03
    2.14357022e-03 2.14934023e-03 2.34263670e-03 2.41043465e-03
    2.16809288e-03 2.21713819e-03 2.54603056e-03 2.15222524e-03
    2.14501261e-03 2.13924260e-03 2.20992556e-03 2.21425318e-03
    2.59074825e-03 2.17242027e-03 2.34984909e-03 2.20415555e-03
    2.22579320e-03 2.17819051e-03 2.21136818e-03 2.21858080e-03
    2.23444821e-03 2.20848317e-03 2.13924260e-03 2.22290820e-03
    2.15511024e-03 2.28637876e-03 2.29503377e-03 2.17674789e-03
    2.19838554e-03 2.13924260e-03 2.15222524e-03 2.14789761e-03
    2.14789761e-03 2.15943786e-03 2.14645523e-03 2.19117291e-03
    2.26329849e-03 2.18684552e-03 2.16520787e-03 2.15222524e-03
    2.16809288e-03 2.16088025e-03 2.14501261e-03 2.15799524e-03
    2.15366785e-03 2.14068522e-03 2.20992556e-03 2.17819051e-03
    2.41908967e-03 2.15511024e-03 2.14645523e-03 2.21425318e-03
    2.17386289e-03 2.19405792e-03 2.21425318e-03 2.26329849e-03
    2.41043465e-03 2.39889440e-03 2.15366785e-03 2.15799524e-03
    2.18251790e-03 2.28349376e-03 2.32388405e-03 2.22290820e-03
    2.15655286e-03 2.24887347e-03 2.30080378e-03 2.14501261e-03
    2.14645523e-03 2.24166084e-03 2.14934023e-03 2.13924260e-03
    2.13924260e-03 2.24310346e-03 2.16376525e-03 2.30080378e-03
    2.14068522e-03 2.39745202e-03 2.16809288e-03 2.16809288e-03
    2.16088025e-03 2.21569557e-03 2.26618350e-03 2.16953526e-03
    2.15943786e-03 2.14501261e-03 2.16953526e-03 2.16520787e-03
    2.16088025e-03 2.16953526e-03 2.27195350e-03 2.26041349e-03
    2.23156321e-03 2.18973053e-03 2.15222524e-03 2.17242027e-03
    2.18540290e-03 2.23444821e-03 2.15511024e-03 2.31378642e-03
    2.15511024e-03 2.17242027e-03 2.22579320e-03 2.15222524e-03
    2.15799524e-03 2.14501261e-03 2.16953526e-03 2.21569557e-03
    2.20127054e-03 2.16953526e-03 2.21136818e-03 2.26762611e-03
    2.16376525e-03 2.14934023e-03 2.14068522e-03 2.17963289e-03
    2.20271316e-03 2.13924260e-03 2.15222524e-03 2.25752848e-03
    2.23444821e-03 2.19117291e-03 2.18396052e-03 2.16665026e-03
    2.34696409e-03 2.18251790e-03 2.15222524e-03 2.19838554e-03
    2.22290820e-03 2.19261553e-03 2.15078262e-03 2.16232287e-03
    2.16520787e-03 2.15799524e-03 2.16232287e-03 2.20704055e-03
    2.24743085e-03 2.14934023e-03 2.15366785e-03 2.13780021e-03
    2.21858080e-03 2.16232287e-03 2.14212760e-03 2.19694315e-03
    2.26618350e-03 2.26185611e-03 2.20559817e-03 2.22579320e-03
    2.15222524e-03 2.22002319e-03 2.15655286e-03 2.15655286e-03
    2.15366785e-03 2.26762611e-03 2.20415555e-03 2.22579320e-03
    2.19550054e-03 2.14501261e-03 2.29359115e-03 2.14357022e-03
    2.21281056e-03 2.17097788e-03 2.27916613e-03 2.26329849e-03
    2.18828791e-03 2.16665026e-03 2.13491521e-03 2.18540290e-03
    2.13780021e-03 2.16953526e-03 2.16232287e-03 2.32388405e-03</var_importance>
  <ntrees>100</ntrees>
  <trees>
    <_>
      <nodes>
        <_>
          <depth>0</depth>
          <value>2.</value>
          <norm_class_idx>1</norm_class_idx>
          <splits>
            <_><var>139</var>
              <quality>3.5510052490234375e+02</quality>
              <le>9.4697803258895874e-02</le></_></splits></_>
        <_>
          <depth>1</depth>
          <value>2.</value>
          <norm_class_idx>1</norm_class_idx>
          <splits>
            <_><var>27</var>
              <quality>2.7816690063476563e+02</quality>
              <le>4.5719349384307861e-01</le></_></splits></_>
        <_>
          <depth>2</depth>
          <value>3.</value>
          <norm_class_idx>2</norm_class_idx>
          <splits>
            <_><var>185</var>
              <quality>4.0347827911376953e+01</quality>
              <le>3.8794851303100586e-01</le></_></splits></_>
        <_>
          <depth>3</depth>
          <value>3.</value>
          <norm_class_idx>2</norm_class_idx></_>
        <_>
          <depth>3</depth>
          <value>6.</value>
          <norm_class_idx>5</norm_class_idx>
          <splits>
            <_><var>377</var>
              <quality>23.</quality>
              <le>3.8737648725509644e-01</le></_></splits></_>
        <_>
          <depth>4</depth>
          <value>1.</value>
          <norm_class_idx>0</norm_class_idx></_>
        <_>
          <depth>4</depth>
          <value>6.</value>
          <norm_class_idx>5</norm_class_idx></_>
        <_>
          <depth>2</depth>
          <value>2.</value>
          <norm_class_idx>1</norm_class_idx>
          <splits>
            <_><var>398</var>
              <quality>262.</quality>
              <le>6.4852648973464966e-01</le></_></splits></_>
        <_>
          <depth>3</depth>
          <value>2.</value>
          <norm_class_idx>1</norm_class_idx></_>
        <_>
          <depth>3</depth>
          <value>5.</value>
          <norm_class_idx>4</norm_class_idx></_>
        <_>
          <depth>1</depth>
          <value>5.</value>
          <norm_class_idx>4</norm_class_idx>
          <splits>
            <_><var>227</var>
              <quality>2.0034355163574219e+02</quality>
              <le>3.3766999840736389e-01</le></_></splits></_>
        <_>
          <depth>2</depth>
          <value>5.</value>
          <norm_class_idx>4</norm_class_idx>
          <splits>
            <_><var>339</var>
              <quality>151.</quality>
              <le>4.3590250611305237e-01</le></_></splits></_>
        <_>
          <depth>3</depth>
          <value>5.</value>
          <norm_class_idx>4</norm_class_idx></_>
        <_>
          <depth>3</depth>
          <value>3.</value>
          <norm_class_idx>2</norm_class_idx></_>
        <_>
          <depth>2</depth>
          <value>1.</value>
          <norm_class_idx>0</norm_class_idx>
          <splits>
            <_><var>238</var>
              <quality>8.8614898681640625e+01</quality>
              <le>3.8147398829460144e-01</le></_></splits></_>
        <_>
          <depth>3</depth>
          <value>5.</value>
          <norm_class_idx>4</norm_class_idx>
          <splits>
            <_><var>425</var>
              <quality>6.2730983734130859e+01</quality>
              <le>6.6774450242519379e-02</le></_></splits></_>
        <_>
          <depth>4</depth>
          <value>2.</value>
          <norm_class_idx>1</norm_class_idx>
          <splits>
            <_><var>441</var>
              <quality>3.5500000000000000e+01</quality>
              <le>4.3943250179290771e-01</le></_></splits></_>
        <_>
          <depth>5</depth>
          <value>5.</value>
          <norm_class_idx>4</norm_class_idx></_>
        <_>
          <depth>5</depth>
          <value>2.</value>
          <norm_class_idx>1</norm_class_idx>
          <splits>
            <_><var>72</var>
              <quality>36.</quality>
              <le>4.9971199035644531e-01</le></_></splits></_>
        <_>
          <depth>6</depth>
          <value>2.</value>
          <norm_class_idx>1</norm_class_idx></_>
        <_>
          <depth>6</depth>
          <value>1.</value>
          <norm_class_idx>0</norm_class_idx></_>
        <_>
          <depth>4</depth>
          <value>5.</value>
          <norm_class_idx>4</norm_class_idx>
          <splits>
            <_><var>437</var>
              <quality>5.1809917449951172e+01</quality>
              <le>3.9823251962661743e-01</le></_></splits></_>
        <_>
          <depth>5</depth>
          <value>5.</value>
          <norm_class_idx>4</norm_class_idx>
          <splits>
            <_><var>133</var>
              <quality>5.2562637329101563e+01</quality>
              <le>3.8861048221588135e-01</le></_></splits></_>
        <_>
          <depth>6</depth>
          <value>6.</value>
          <norm_class_idx>5</norm_class_idx>
          <splits>
            <_><var>439</var>
              <quality>3.6170730590820313e+01</quality>
              <le>5.4295349121093750e-01</le></_></splits></_>
        <_>
          <depth>7</depth>
          <value>6.</value>
          <norm_class_idx>5</norm_class_idx>
          <splits>
            <_><var>102</var>
              <quality>3.5330875396728516e+01</quality>
              <le>1.6584250330924988e-01</le></_></splits></_>
        <_>
          <depth>8</depth>
          <value>5.</value>
          <norm_class_idx>4</norm_class_idx>
          <splits>
            <_><var>170</var>
              <quality>2.4916666030883789e+01</quality>
              <le>1.3893799483776093e-01</le></_></splits></_>
        <_>
          <depth>9</depth>
          <value>6.</value>
          <norm_class_idx>5</norm_class_idx></_>
        <_>
          <depth>9</depth>
          <value>5.</value>
          <norm_class_idx>4</norm_class_idx>
          <splits>
            <_><var>349</var>
              <quality>2.0555555343627930e+01</quality>
              <le>4.1502800583839417e-01</le></_></splits></_>
        <_>
          <depth>10</depth>
          <value>1.</value>
          <norm_class_idx>0</norm_class_idx></_>
        <_>
          <depth>10</depth>
          <value>5.</value>
          <norm_class_idx>4</norm_class_idx></_>
        <_>
          <depth>8</depth>
          <value>6.</value>
          <norm_class_idx>5</norm_class_idx>
          <splits>
            <_><var>292</var>
              <quality>23.</quality>
              <le>4.1087198257446289e-01</le></_></splits></_>
        <_>
          <depth>9</depth>
          <value>6.</value>
          <norm_class_idx>5</norm_class_idx></_>
        <_>
          <depth>9</depth>
          <value>5.</value>
          <norm_class_idx>4</norm_class_idx></_>
        <_>
          <depth>7</depth>
          <value>2.</value>
          <norm_class_idx>1</norm_class_idx></_>
        <_>
          <depth>6</depth>
          <value>5.</value>
          <norm_class_idx>4</norm_class_idx>
          <splits>
            <_><var>140</var>
              <quality>2.8068965911865234e+01</quality>
              <le>1.7235399782657623e-01</le></_></splits></_>
        <_>
          <depth>7</depth>
          <value>5.</value>
          <norm_class_idx>4</norm_class_idx>
          <splits>
            <_><var>11</var>
              <quality>29.</quality>
              <le>4.2723500728607178e-01</le></_></splits></_>
        <_>
          <depth>8</depth>
          <value>5.</value>
          <norm_class_idx>4</norm_class_idx></_>
        <_>
          <depth>8</depth>
          <value>6.</value>
          <norm_class_idx>5</norm_class_idx></_>
        <_>
          <depth>7</depth>
          <value>1.</value>
          <norm_class_idx>0</norm_class_idx></_>
        <_>
          <depth>5</depth>
          <value>4.</value>
          <norm_class_idx>3</norm_class_idx></_>
        <_>
          <depth>3</depth>
          <value>1.</value>
          <norm_class_idx>0</norm_class_idx>
          <splits>
            <_><var>328</var>
              <quality>8.0954544067382813e+01</quality>
              <le>4.8243951797485352e-01</le></_></splits></_>
        <_>
          <depth>4</depth>
          <value>6.</value>
          <norm_class_idx>5</norm_class_idx>
          <splits>
            <_><var>234</var>
              <quality>3.5333332061767578e+01</quality>
              <le>2.7406948804855347e-01</le></_></splits></_>
        <_>
          <depth>5</depth>
          <value>6.</value>
          <norm_class_idx>5</norm_class_idx>
          <splits>
            <_><var>413</var>
              <quality>33.</quality>
              <le>4.0610301494598389e-01</le></_></splits></_>
        <_>
          <depth>6</depth>
          <value>1.</value>
          <norm_class_idx>0</norm_class_idx></_>
        <_>
          <depth>6</depth>
          <value>6.</value>
          <norm_class_idx>5</norm_class_idx></_>
        <_>
          <depth>5</depth>
          <value>5.</value>
          <norm_class_idx>4</norm_class_idx>
          <splits>
            <_><var>157</var>
              <quality>8.1999998092651367e+00</quality>
              <le>3.8977098464965820e-01</le></_></splits></_>
        <_>
          <depth>6</depth>
          <value>1.</value>
          <norm_class_idx>0</norm_class_idx>
          <splits>
            <_><var>328</var>
              <quality>4.</quality>
              <le>4.4785052537918091e-01</le></_></splits></_>
        <_>
          <depth>7</depth>
          <value>1.</value>
          <norm_class_idx>0</norm_class_idx></_>
        <_>
          <depth>7</depth>
          <value>4.</value>
          <norm_class_idx>3</norm_class_idx></_>
        <_>
          <depth>6</depth>
          <value>5.</value>
          <norm_class_idx>4</norm_class_idx></_>
        <_>
          <depth>4</depth>
          <value>1.</value>
          <norm_class_idx>0</norm_class_idx></_></nodes></_>
    <_>
      <nodes>
        <_>
          <depth>0</depth>
          <value>2.</value>
          <norm_class_idx>1</norm_class_idx>
          <splits>
            <_><var>154</var>
              <quality>3.7735830688476563e+02</quality>
              <le>3.9057099819183350e-01</le></_></splits></_>
        <_>
          <depth>1</depth>
          <value>5.</value>
          <norm_class_idx>4</norm_class_idx>
          <splits>
            <_><var>278</var>
              <quality>2.1209722900390625e+02</quality>
              <le>3.2255399227142334e-01</le></_></splits></_>
        <_>
          <depth>2</depth>
          <value>6.</value>
          <norm_class_idx>5</norm_class_idx>
          <splits>
            <_><var>38</var>
              <quality>9.5615196228027344e+01</quality>
              <le>2.1468698978424072e-01</le></_></splits></_>
        <_>
          <depth>3</depth>
          <value>1.</value>
          <norm_class_idx>0</norm_class_idx>
          <splits>
            <_><var>122</var>
              <quality>6.4995544433593750e+01</quality>
              <le>4.3025949597358704e-01</le></_></splits></_>
        <_>
          <depth>4</depth>
          <value>5.</value>
          <norm_class_idx>4</norm_class_idx>
          <splits>
            <_><var>42</var>
              <quality>4.6018180847167969e+01</quality>
              <le>5.3373199701309204e-01</le></_></splits></_>
        <_>
          <depth>5</depth>
          <value>5.</value>
          <norm_class_idx>4</norm_class_idx>
          <splits>
            <_><var>215</var>
              <quality>4.1042552947998047e+01</quality>
              <le>3.5146701335906982e-01</le></_></splits></_>
        <_>
          <depth>6</depth>
          <value>5.</value>
          <norm_class_idx>4</norm_class_idx>
          <splits>
            <_><var>438</var>
              <quality>4.7501281738281250e+01</quality>
              <le>4.3671250343322754e-01</le></_></splits></_>
        <_>
          <depth>7</depth>
          <value>5.</value>
          <norm_class_idx>4</norm_class_idx>
          <splits>
            <_><var>384</var>
              <quality>2.7862068176269531e+01</quality>
              <le>4.6052151918411255e-01</le></_></splits></_>
        <_>
          <depth>8</depth>
          <value>5.</value>
          <norm_class_idx>4</norm_class_idx>
          <splits>
            <_><var>391</var>
              <quality>2.9500000000000000e+01</quality>
              <le>2.8725799918174744e-01</le></_></splits></_>
        <_>
          <depth>9</depth>
          <value>5.</value>
          <norm_class_idx>4</norm_class_idx></_>
        <_>
          <depth>9</depth>
          <value>1.</value>
          <norm_class_idx>0</norm_class_idx>
          <splits>
            <_><var>428</var>
              <quality>2.1023529052734375e+01</quality>
              <le>1.0585849732160568e-01</le></_></splits></_>
        <_>
          <depth>10</depth>
          <value>5.</value>
          <norm_class_idx>4</norm_class_idx></_>
        <_>
          <depth>10</depth>
          <value>1.</value>
          <norm_class_idx>0</norm_class_idx></_>
        <_>
          <depth>8</depth>
          <value>6.</value>
          <norm_class_idx>5</norm_class_idx></_>
        <_>
          <depth>7</depth>
          <value>2.</value>
          <norm_class_idx>1</norm_class_idx>
          <splits>
            <_><var>272</var>
              <quality>2.9068965911865234e+01</quality>
              <le>4.6519950032234192e-01</le></_></splits></_>
        <_>
          <depth>8</depth>
          <value>2.</value>
          <norm_class_idx>1</norm_class_idx>
          <splits>
            <_><var>282</var>
              <quality>29.</quality>
              <le>2.8326299786567688e-01</le></_></splits></_>
        <_>
          <depth>9</depth>
          <value>5.</value>
          <norm_class_idx>4</norm_class_idx></_>
        <_>
          <depth>9</depth>
          <value>2.</value>
          <norm_class_idx>1</norm_class_idx></_>
        <_>
          <depth>8</depth>
          <value>5.</value>
          <norm_class_idx>4</norm_class_idx></_>
        <_>
          <depth>6</depth>
          <value>4.</value>
          <norm_class_idx>3</norm_class_idx></_>
        <_>
          <depth>5</depth>
          <value>3.</value>
          <norm_class_idx>2</norm_class_idx></_>
        <_>
          <depth>4</depth>
          <value>1.</value>
          <norm_class_idx>0</norm_class_idx>
          <splits>
            <_><var>175</var>
              <quality>4.7333332061767578e+01</quality>
              <le>4.4710898399353027e-01</le></_></splits></_>
        <_>
          <depth>5</depth>
          <value>1.</value>
          <norm_class_idx>0</norm_class_idx></_>
        <_>
          <depth>5</depth>
          <value>6.</value>
          <norm_class_idx>5</norm_class_idx>
          <splits>
            <_><var>47</var>
              <quality>4.6666665077209473e+00</quality>
              <le>3.8864549994468689e-01</le></_></splits></_>
        <_>
          <depth>6</depth>
          <value>5.</value>
          <norm_class_idx>4</norm_class_idx>
          <splits>
            <_><var>404</var>
              <quality>3.</quality>
              <le>9.3649946153163910e-02</le></_></splits></_>
        <_>
          <depth>7</depth>
          <value>3.</value>
          <norm_class_idx>2</norm_class_idx></_>
        <_>
          <depth>7</depth>
          <value>5.</value>
          <norm_class_idx>4</norm_class_idx></_>
        <_>
          <depth>6</depth>
          <value>6.</value>
          <norm_class_idx>5</norm_class_idx></_>
        <_>
          <depth>3</depth>
          <value>6.</value>
          <norm_class_idx>5</norm_class_idx>
          <splits>
            <_><var>117</var>
              <quality>6.0555374145507813e+01</quality>
              <le>1.0505199432373047e-01</le></_></splits></_>
        <_>
          <depth>4</depth>
          <value>6.</value>
          <norm_class_idx>5</norm_class_idx>
          <splits>
            <_><var>416</var>
              <quality>47.</quality>
              <le>8.2074247300624847e-02</le></_></splits></_>
        <_>
          <depth>5</depth>
          <value>1.</value>
          <norm_class_idx>0</norm_class_idx></_>
        <_>
          <depth>5</depth>
          <value>6.</value>
          <norm_class_idx>5</norm_class_idx></_>
        <_>
          <depth>4</depth>
          <value>6.</value>
          <norm_class_idx>5</norm_class_idx>
          <splits>
            <_><var>104</var>
              <quality>2.3636363983154297e+01</quality>
              <le>2.8795748949050903e-01</le></_></splits></_>
        <_>
          <depth>5</depth>
          <value>6.</value>
          <norm_class_idx>5</norm_class_idx></_>
        <_>
          <depth>5</depth>
          <value>5.</value>
          <norm_class_idx>4</norm_class_idx>
          <splits>
            <_><var>94</var>
              <quality>1.0766666412353516e+01</quality>
              <le>2.8122049570083618e-01</le></_></splits></_>
        <_>
          <depth>6</depth>
          <value>1.</value>
          <norm_class_idx>0</norm_class_idx>
          <splits>
            <_><var>31</var>
              <quality>7.3333334922790527e+00</quality>
              <le>2.2572100162506104e-01</le></_></splits></_>
        <_>
          <depth>7</depth>
          <value>6.</value>
          <norm_class_idx>5</norm_class_idx>
          <splits>
            <_><var>359</var>
              <quality>6.</quality>
              <le>2.8401249647140503e-01</le></_></splits></_>
        <_>
          <depth>8</depth>
          <value>4.</value>
          <norm_class_idx>3</norm_class_idx></_>
        <_>
          <depth>8</depth>
          <value>6.</value>
          <norm_class_idx>5</norm_class_idx></_>
        <_>
          <depth>7</depth>
          <value>1.</value>
          <norm_class_idx>0</norm_class_idx></_>
        <_>
          <depth>6</depth>
          <value>5.</value>
          <norm_class_idx>4</norm_class_idx>
          <splits>
            <_><var>36</var>
              <quality>1.0199999809265137e+01</quality>
              <le>3.9656600356101990e-01</le></_></splits></_>
        <_>
          <depth>7</depth>
          <value>5.</value>
          <norm_class_idx>4</norm_class_idx>
          <splits>
            <_><var>232</var>
              <quality>10.</quality>
              <le>5.4948553442955017e-02</le></_></splits></_>
        <_>
          <depth>8</depth>
          <value>6.</value>
          <norm_class_idx>5</norm_class_idx></_>
        <_>
          <depth>8</depth>
          <value>5.</value>
          <norm_class_idx>4</norm_class_idx></_>
        <_>
          <depth>7</depth>
          <value>1.</value>
          <norm_class_idx>0</norm_class_idx></_>
        <_>
          <depth>2</depth>
          <value>5.</value>
          <norm_class_idx>4</norm_class_idx>
          <splits>
            <_><var>113</var>
              <quality>1.6219224548339844e+02</quality>
              <le>2.1603500843048096e-01</le></_></splits></_>
        <_>
          <depth>3</depth>
          <value>4.</value>
          <norm_class_idx>3</norm_class_idx>
          <splits>
            <_><var>291</var>
              <quality>7.</quality>
              <le>3.3952599763870239e-01</le></_></splits></_>
        <_>
          <depth>4</depth>
          <value>4.</value>
          <norm_class_idx>3</norm_class_idx></_>
        <_>
          <depth>4</depth>
          <value>5.</value>
          <norm_class_idx>4</norm_class_idx></_>
        <_>
          <depth>3</depth>
          <value>5.</value>
          <norm_class_idx>4</norm_class_idx>
          <splits>
            <_><var>396</var>
              <quality>1.5872727966308594e+02</quality>
              <le>4.8701249063014984e-02</le></_></splits></_>
        <_>
          <depth>4</depth>
          <value>5.</value>
          <norm_class_idx>4</norm_class_idx>
          <splits>
            <_><var>425</var>
              <quality>11.</quality>
              <le>2.3918899893760681e-01</le></_></splits></_>
        <_>
          <depth>5</depth>
          <value>5.</value>
          <norm_class_idx>4</norm_class_idx></_>
        <_>
          <depth>5</depth>
          <value>2.</value>
          <norm_class_idx>1</norm_class_idx></_>
        <_>
          <depth>4</depth>
          <value>5.</value>
          <norm_class_idx>4</norm_class_idx></_>
        <_>
          <depth>1</depth>
          <value>2.</value>
          <norm_class_idx>1</norm_class_idx>
          <splits>
            <_><var>43</var>
              <quality>2.7641577148437500e+02</quality>
              <le>4.5420551300048828e-01</le></_></splits></_>
        <_>
          <depth>2</depth>
          <value>6.</value>
          <norm_class_idx>5</norm_class_idx></_>
        <_>
          <depth>2</depth>
          <value>2.</value>
          <norm_class_idx>1</norm_class_idx>
          <splits>
            <_><var>25</var>
              <quality>2.7325738525390625e+02</quality>
              <le>4.5546749234199524e-01</le></_></splits></_>
        <_>
          <depth>3</depth>
          <value>6.</value>
          <norm_class_idx>5</norm_class_idx>
          <splits>
            <_><var>290</var>
              <quality>8.</quality>
              <le>5.1820850372314453e-01</le></_></splits></_>
        <_>
          <depth>4</depth>
          <value>1.</value>
          <norm_class_idx>0</norm_class_idx></_>
        <_>
          <depth>4</depth>
          <value>6.</value>
          <norm_class_idx>5</norm_class_idx></_>
        <_>
          <depth>3</depth>
          <value>2.</value>
          <norm_class_idx>1</norm_class_idx>
          <splits>
            <_><var>327</var>
              <quality>271.</quality>
              <le>2.5727051496505737e-01</le></_></splits></_>
        <_>
          <depth>4</depth>
          <value>3.</value>
          <norm_class_idx>2</norm_class_idx></_>
        <_>
          <depth>4</depth>
          <value>2.</value>
          <norm_class_idx>1</norm_class_idx></_></nodes></_>
    <_>
      <nodes>
        <_>
          <depth>0</depth>
          <value>2.</value>
          <norm_class_idx>1</norm_class_idx>
          <splits>
            <_><var>140</var>
              <quality>3.3085385131835938e+02</quality>
              <le>2.8206549584865570e-02</le></_></splits></_>
        <_>
          <depth>1</depth>
          <value>2.</value>
          <norm_class_idx>1</norm_class_idx>
          <splits>
            <_><var>223</var>
              <quality>2.4284959411621094e+02</quality>
              <le>8.2690745592117310e-02</le></_></splits></_>
        <_>
          <depth>2</depth>
          <value>6.</value>
          <norm_class_idx>5</norm_class_idx>
          <splits>
            <_><var>414</var>
              <quality>16.</quality>
              <le>3.4888800978660583e-01</le></_></splits></_>
        <_>
          <depth>3</depth>
          <value>6.</value>
          <norm_class_idx>5</norm_class_idx></_>
        <_>
          <depth>3</depth>
          <value>2.</value>
          <norm_class_idx>1</norm_class_idx></_>
        <_>
          <depth>2</depth>
          <value>2.</value>
          <norm_class_idx>1</norm_class_idx>
          <splits>
            <_><var>149</var>
              <quality>2.3836666870117188e+02</quality>
              <le>5.4675303399562836e-02</le></_></splits></_>
        <_>
          <depth>3</depth>
          <value>2.</value>
          <norm_class_idx>1</norm_class_idx>
          <splits>
            <_><var>378</var>
              <quality>240.</quality>
              <le>3.0610251426696777e-01</le></_></splits></_>
        <_>
          <depth>4</depth>
          <value>3.</value>
          <norm_class_idx>2</norm_class_idx></_>
        <_>
          <depth>4</depth>
          <value>2.</value>
          <norm_class_idx>1</norm_class_idx></_>
        <_>
          <depth>3</depth>
          <value>1.</value>
          <norm_class_idx>0</norm_class_idx>
          <splits>
            <_><var>369</var>
              <quality>4.6666665077209473e+00</quality>
              <le>4.5973050594329834e-01</le></_></splits></_>
        <_>
          <depth>4</depth>
          <value>5.</value>
          <norm_class_idx>4</norm_class_idx>
          <splits>
            <_><var>134</var>
              <quality>3.</quality>
              <le>1.7760199308395386e-01</le></_></splits></_>
        <_>
          <depth>5</depth>
          <value>5.</value>
          <norm_class_idx>4</norm_class_idx></_>
        <_>
          <depth>5</depth>
          <value>3.</value>
          <norm_class_idx>2</norm_class_idx></_>
        <_>
          <depth>4</depth>
          <value>1.</value>
          <norm_class_idx>0</norm_class_idx></_>
        <_>
          <depth>1</depth>
          <value>5.</value>
          <norm_class_idx>4</norm_class_idx>
          <splits>
            <_><var>353</var>
              <quality>1.5857641601562500e+02</quality>
              <le>1.7408400774002075e-01</le></_></splits></_>
        <_>
          <depth>2</depth>
          <value>5.</value>
          <norm_class_idx>4</norm_class_idx>
          <splits>
            <_><var>322</var>
              <quality>1.1943847656250000e+02</quality>
              <le>3.9804950356483459e-01</le></_></splits></_>
        <_>
          <depth>3</depth>
          <value>5.</value>
          <norm_class_idx>4</norm_class_idx>
          <splits>
            <_><var>217</var>
              <quality>1.0307691955566406e+02</quality>
              <le>1.5898950397968292e-02</le></_></splits></_>
        <_>
          <depth>4</depth>
          <value>2.</value>
          <norm_class_idx>1</norm_class_idx></_>
        <_>
          <depth>4</depth>
          <value>5.</value>
          <norm_class_idx>4</norm_class_idx>
          <splits>
            <_><var>315</var>
              <quality>104.</quality>
              <le>2.7099049091339111e-01</le></_></splits></_>
        <_>
          <depth>5</depth>
          <value>4.</value>
          <norm_class_idx>3</norm_class_idx></_>
        <_>
          <depth>5</depth>
          <value>5.</value>
          <norm_class_idx>4</norm_class_idx></_>
        <_>
          <depth>3</depth>
          <value>3.</value>
          <norm_class_idx>2</norm_class_idx>
          <splits>
            <_><var>353</var>
              <quality>24.</quality>
              <le>1.4475250244140625e-01</le></_></splits></_>
        <_>
          <depth>4</depth>
          <value>3.</value>
          <norm_class_idx>2</norm_class_idx></_>
        <_>
          <depth>4</depth>
          <value>5.</value>
          <norm_class_idx>4</norm_class_idx></_>
        <_>
          <depth>2</depth>
          <value>6.</value>
          <norm_class_idx>5</norm_class_idx>
          <splits>
            <_><var>4</var>
              <quality>1.0482059478759766e+02</quality>
              <le>-9.5987997055053711e+00</le></_></splits></_>
        <_>
          <depth>3</depth>
          <value>1.</value>
          <norm_class_idx>0</norm_class_idx>
          <splits>
            <_><var>41</var>
              <quality>41.</quality>
              <le>1.5483050048351288e-01</le></_></splits></_>
        <_>
          <depth>4</depth>
          <value>6.</value>
          <norm_class_idx>5</norm_class_idx></_>
        <_>
          <depth>4</depth>
          <value>1.</value>
          <norm_class_idx>0</norm_class_idx></_>
        <_>
          <depth>3</depth>
          <value>6.</value>
          <norm_class_idx>5</norm_class_idx>
          <splits>
            <_><var>183</var>
              <quality>9.9715316772460938e+01</quality>
              <le>4.2824399471282959e-01</le></_></splits></_>
        <_>
          <depth>4</depth>
          <value>5.</value>
          <norm_class_idx>4</norm_class_idx>
          <splits>
            <_><var>377</var>
              <quality>7.8149757385253906e+01</quality>
              <le>1.8594250082969666e-01</le></_></splits></_>
        <_>
          <depth>5</depth>
          <value>4.</value>
          <norm_class_idx>3</norm_class_idx></_>
        <_>
          <depth>5</depth>
          <value>5.</value>
          <norm_class_idx>4</norm_class_idx>
          <splits>
            <_><var>226</var>
              <quality>8.7450187683105469e+01</quality>
              <le>4.4294050335884094e-01</le></_></splits></_>
        <_>
          <depth>6</depth>
          <value>5.</value>
          <norm_class_idx>4</norm_class_idx>
          <splits>
            <_><var>233</var>
              <quality>6.2114391326904297e+01</quality>
              <le>2.2422400116920471e-01</le></_></splits></_>
        <_>
          <depth>7</depth>
          <value>1.</value>
          <norm_class_idx>0</norm_class_idx>
          <splits>
            <_><var>165</var>
              <quality>3.7708332061767578e+01</quality>
              <le>1.4259749650955200e-01</le></_></splits></_>
        <_>
          <depth>8</depth>
          <value>6.</value>
          <norm_class_idx>5</norm_class_idx></_>
        <_>
          <depth>8</depth>
          <value>1.</value>
          <norm_class_idx>0</norm_class_idx>
          <splits>
            <_><var>116</var>
              <quality>3.6100093841552734e+01</quality>
              <le>1.2892499566078186e-01</le></_></splits></_>
        <_>
          <depth>9</depth>
          <value>1.</value>
          <norm_class_idx>0</norm_class_idx>
          <splits>
            <_><var>303</var>
              <quality>3.4750980377197266e+01</quality>
              <le>2.9595601558685303e-01</le></_></splits></_>
        <_>
          <depth>10</depth>
          <value>1.</value>
          <norm_class_idx>0</norm_class_idx></_>
        <_>
          <depth>10</depth>
          <value>5.</value>
          <norm_class_idx>4</norm_class_idx></_>
        <_>
          <depth>9</depth>
          <value>6.</value>
          <norm_class_idx>5</norm_class_idx>
          <splits>
            <_><var>165</var>
              <quality>12.</quality>
              <le>2.4424049258232117e-01</le></_></splits></_>
        <_>
          <depth>10</depth>
          <value>6.</value>
          <norm_class_idx>5</norm_class_idx></_>
        <_>
          <depth>10</depth>
          <value>2.</value>
          <norm_class_idx>1</norm_class_idx></_>
        <_>
          <depth>7</depth>
          <value>5.</value>
          <norm_class_idx>4</norm_class_idx>
          <splits>
            <_><var>342</var>
              <quality>4.6271003723144531e+01</quality>
              <le>1.1840450018644333e-01</le></_></splits></_>
        <_>
          <depth>8</depth>
          <value>2.</value>
          <norm_class_idx>1</norm_class_idx>
          <splits>
            <_><var>239</var>
              <quality>9.</quality>
              <le>2.8299552202224731e-01</le></_></splits></_>
        <_>
          <depth>9</depth>
          <value>2.</value>
          <norm_class_idx>1</norm_class_idx></_>
        <_>
          <depth>9</depth>
          <value>4.</value>
          <norm_class_idx>3</norm_class_idx></_>
        <_>
          <depth>8</depth>
          <value>5.</value>
          <norm_class_idx>4</norm_class_idx>
          <splits>
            <_><var>81</var>
              <quality>3.9500000000000000e+01</quality>
              <le>3.6080348491668701e-01</le></_></splits></_>
        <_>
          <depth>9</depth>
          <value>5.</value>
          <norm_class_idx>4</norm_class_idx>
          <splits>
            <_><var>118</var>
              <quality>4.</quality>
              <le>2.0978334546089172e-01</le></_></splits></_>
        <_>
          <depth>10</depth>
          <value>5.</value>
          <norm_class_idx>4</norm_class_idx></_>
        <_>
          <depth>10</depth>
          <value>1.</value>
          <norm_class_idx>0</norm_class_idx></_>
        <_>
          <depth>9</depth>
          <value>5.</value>
          <norm_class_idx>4</norm_class_idx></_>
        <_>
          <depth>6</depth>
          <value>2.</value>
          <norm_class_idx>1</norm_class_idx>
          <splits>
            <_><var>254</var>
              <quality>4.8044445037841797e+01</quality>
              <le>3.8926500082015991e-01</le></_></splits></_>
        <_>
          <depth>7</depth>
          <value>6.</value>
          <norm_class_idx>5</norm_class_idx></_>
        <_>
          <depth>7</depth>
          <value>2.</value>
          <norm_class_idx>1</norm_class_idx>
          <splits>
            <_><var>137</var>
              <quality>45.</quality>
              <le>4.3745049834251404e-01</le></_></splits></_>
        <_>
          <depth>8</depth>
          <value>1.</value>
          <norm_class_idx>0</norm_class_idx></_>
        <_>
          <depth>8</depth>
          <value>2.</value>
          <norm_class_idx>1</norm_class_idx></_>
        <_>
          <depth>4</depth>
          <value>6.</value>
          <norm_class_idx>5</norm_class_idx>
          <splits>
            <_><var>129</var>
              <quality>5.5903224945068359e+01</quality>
              <le>5.1603150367736816e-01</le></_></splits></_>
        <_>
          <depth>5</depth>
          <value>6.</value>
          <norm_class_idx>5</norm_class_idx>
          <splits>
            <_><var>47</var>
              <quality>5.6237289428710938e+01</quality>
              <le>1.2826284766197205e-01</le></_></splits></_>
        <_>
          <depth>6</depth>
          <value>1.</value>
          <norm_class_idx>0</norm_class_idx></_>
        <_>
          <depth>6</depth>
          <value>6.</value>
          <norm_class_idx>5</norm_class_idx>
          <splits>
            <_><var>184</var>
              <quality>5.7035087585449219e+01</quality>
              <le>5.3927201032638550e-01</le></_></splits></_>
        <_>
          <depth>7</depth>
          <value>6.</value>
          <norm_class_idx>5</norm_class_idx>
          <splits>
            <_><var>58</var>
              <quality>57.</quality>
              <le>4.3255999684333801e-01</le></_></splits></_>
        <_>
          <depth>8</depth>
          <value>1.</value>
          <norm_class_idx>0</norm_class_idx></_>
        <_>
          <depth>8</depth>
          <value>6.</value>
          <norm_class_idx>5</norm_class_idx></_>
        <_>
          <depth>7</depth>
          <value>3.</value>
          <norm_class_idx>2</norm_class_idx></_>
        <_>
          <depth>5</depth>
          <value>1.</value>
          <norm_class_idx>0</norm_class_idx></_></nodes></_>
    <_>
      <nodes>
        <_>
          <depth>0</depth>
          <value>2.</value>
          <norm_class_idx>1</norm_class_idx>
          <splits>
            <_><var>12</var>
              <quality>3.9017517089843750e+02</quality>
              <le>1.5044899657368660e-02</le></_></splits></_>
        <_>
          <depth>1</depth>
          <value>2.</value>
          <norm_class_idx>1</norm_class_idx>
          <splits>
            <_><var>281</var>
              <quality>2.8043298339843750e+02</quality>
              <le>5.8659648895263672e-01</le></_></splits></_>
        <_>
          <depth>2</depth>
          <value>2.</value>
          <norm_class_idx>1</norm_class_idx>
          <splits>
            <_><var>26</var>
              <quality>2.8177825927734375e+02</quality>
              <le>4.5476651191711426e-01</le></_></splits></_>
        <_>
          <depth>3</depth>
          <value>5.</value>
          <norm_class_idx>4</norm_class_idx>
          <splits>
            <_><var>222</var>
              <quality>5.5999999046325684e+00</quality>
              <le>1.5480324625968933e-01</le></_></splits></_>
        <_>
          <depth>4</depth>
          <value>5.</value>
          <norm_class_idx>4</norm_class_idx></_>
        <_>
          <depth>4</depth>
          <value>6.</value>
          <norm_class_idx>5</norm_class_idx>
          <splits>
            <_><var>255</var>
              <quality>5.</quality>
              <le>2.8640151023864746e-01</le></_></splits></_>
        <_>
          <depth>5</depth>
          <value>3.</value>
          <norm_class_idx>2</norm_class_idx></_>
        <_>
          <depth>5</depth>
          <value>6.</value>
          <norm_class_idx>5</norm_class_idx></_>
        <_>
          <depth>3</depth>
          <value>2.</value>
          <norm_class_idx>1</norm_class_idx>
          <splits>
            <_><var>279</var>
              <quality>283.</quality>
              <le>1.5886750817298889e-01</le></_></splits></_>
        <_>
          <depth>4</depth>
          <value>2.</value>
          <norm_class_idx>1</norm_class_idx></_>
        <_>
          <depth>4</depth>
          <value>4.</value>
          <norm_class_idx>3</norm_class_idx></_>
        <_>
          <depth>2</depth>
          <value>6.</value>
          <norm_class_idx>5</norm_class_idx></_>
        <_>
          <depth>1</depth>
          <value>5.</value>
          <norm_class_idx>4</norm_class_idx>
          <splits>
            <_><var>341</var>
              <quality>1.8715670776367188e+02</quality>
              <le>3.2479700446128845e-01</le></_></splits></_>
        <_>
          <depth>2</depth>
          <value>1.</value>
          <norm_class_idx>0</norm_class_idx>
          <splits>
            <_><var>302</var>
              <quality>8.3824188232421875e+01</quality>
              <le>2.1246899664402008e-01</le></_></splits></_>
        <_>
          <depth>3</depth>
          <value>2.</value>
          <norm_class_idx>1</norm_class_idx>
          <splits>
            <_><var>408</var>
              <quality>4.4454544067382813e+01</quality>
              <le>5.1447700709104538e-02</le></_></splits></_>
        <_>
          <depth>4</depth>
          <value>3.</value>
          <norm_class_idx>2</norm_class_idx></_>
        <_>
          <depth>4</depth>
          <value>2.</value>
          <norm_class_idx>1</norm_class_idx>
          <splits>
            <_><var>304</var>
              <quality>3.8728572845458984e+01</quality>
              <le>2.8999698162078857e-01</le></_></splits></_>
        <_>
          <depth>5</depth>
          <value>6.</value>
          <norm_class_idx>5</norm_class_idx>
          <splits>
            <_><var>301</var>
              <quality>1.5166666984558105e+01</quality>
              <le>2.8174048662185669e-01</le></_></splits></_>
        <_>
          <depth>6</depth>
          <value>6.</value>
          <norm_class_idx>5</norm_class_idx>
          <splits>
            <_><var>411</var>
              <quality>1.0666666984558105e+01</quality>
              <le>4.6919798851013184e-01</le></_></splits></_>
        <_>
          <depth>7</depth>
          <value>6.</value>
          <norm_class_idx>5</norm_class_idx></_>
        <_>
          <depth>7</depth>
          <value>5.</value>
          <norm_class_idx>4</norm_class_idx>
          <splits>
            <_><var>57</var>
              <quality>3.</quality>
              <le>2.4967399239540100e-01</le></_></splits></_>
        <_>
          <depth>8</depth>
          <value>5.</value>
          <norm_class_idx>4</norm_class_idx></_>
        <_>
          <depth>8</depth>
          <value>2.</value>
          <norm_class_idx>1</norm_class_idx></_>
        <_>
          <depth>6</depth>
          <value>1.</value>
          <norm_class_idx>0</norm_class_idx></_>
        <_>
          <depth>5</depth>
          <value>2.</value>
          <norm_class_idx>1</norm_class_idx>
          <splits>
            <_><var>344</var>
              <quality>35.</quality>
              <le>4.1985398530960083e-01</le></_></splits></_>
        <_>
          <depth>6</depth>
          <value>2.</value>
          <norm_class_idx>1</norm_class_idx></_>
        <_>
          <depth>6</depth>
          <value>6.</value>
          <norm_class_idx>5</norm_class_idx></_>
        <_>
          <depth>3</depth>
          <value>5.</value>
          <norm_class_idx>4</norm_class_idx>
          <splits>
            <_><var>119</var>
              <quality>8.8705261230468750e+01</quality>
              <le>2.7054649591445923e-01</le></_></splits></_>
        <_>
          <depth>4</depth>
          <value>1.</value>
          <norm_class_idx>0</norm_class_idx></_>
        <_>
          <depth>4</depth>
          <value>5.</value>
          <norm_class_idx>4</norm_class_idx>
          <splits>
            <_><var>183</var>
              <quality>7.7084060668945313e+01</quality>
              <le>4.2614251375198364e-01</le></_></splits></_>
        <_>
          <depth>5</depth>
          <value>5.</value>
          <norm_class_idx>4</norm_class_idx>
          <splits>
            <_><var>446</var>
              <quality>6.3303031921386719e+01</quality>
              <le>4.0044400095939636e-01</le></_></splits></_>
        <_>
          <depth>6</depth>
          <value>5.</value>
          <norm_class_idx>4</norm_class_idx>
          <splits>
            <_><var>110</var>
              <quality>6.1975341796875000e+01</quality>
              <le>3.4966897964477539e-01</le></_></splits></_>
        <_>
          <depth>7</depth>
          <value>5.</value>
          <norm_class_idx>4</norm_class_idx>
          <splits>
            <_><var>245</var>
              <quality>41.</quality>
              <le>4.2864799499511719e-01</le></_></splits></_>
        <_>
          <depth>8</depth>
          <value>5.</value>
          <norm_class_idx>4</norm_class_idx></_>
        <_>
          <depth>8</depth>
          <value>6.</value>
          <norm_class_idx>5</norm_class_idx></_>
        <_>
          <depth>7</depth>
          <value>5.</value>
          <norm_class_idx>4</norm_class_idx>
          <splits>
            <_><var>430</var>
              <quality>3.3261905670166016e+01</quality>
              <le>5.4042601585388184e-01</le></_></splits></_>
        <_>
          <depth>8</depth>
          <value>5.</value>
          <norm_class_idx>4</norm_class_idx>
          <splits>
            <_><var>391</var>
              <quality>3.6985073089599609e+01</quality>
              <le>4.6884149312973022e-01</le></_></splits></_>
        <_>
          <depth>9</depth>
          <value>5.</value>
          <norm_class_idx>4</norm_class_idx></_>
        <_>
          <depth>9</depth>
          <value>1.</value>
          <norm_class_idx>0</norm_class_idx>
          <splits>
            <_><var>108</var>
              <quality>3.1545454025268555e+01</quality>
              <le>4.5071649551391602e-01</le></_></splits></_>
        <_>
          <depth>10</depth>
          <value>1.</value>
          <norm_class_idx>0</norm_class_idx></_>
        <_>
          <depth>10</depth>
          <value>5.</value>
          <norm_class_idx>4</norm_class_idx></_>
        <_>
          <depth>8</depth>
          <value>2.</value>
          <norm_class_idx>1</norm_class_idx></_>
        <_>
          <depth>6</depth>
          <value>4.</value>
          <norm_class_idx>3</norm_class_idx></_>
        <_>
          <depth>5</depth>
          <value>6.</value>
          <norm_class_idx>5</norm_class_idx>
          <splits>
            <_><var>386</var>
              <quality>4.0305557250976563e+01</quality>
              <le>2.5272600352764130e-02</le></_></splits></_>
        <_>
          <depth>6</depth>
          <value>1.</value>
          <norm_class_idx>0</norm_class_idx>
          <splits>
            <_><var>422</var>
              <quality>8.</quality>
              <le>4.7017499804496765e-01</le></_></splits></_>
        <_>
          <depth>7</depth>
          <value>1.</value>
          <norm_class_idx>0</norm_class_idx></_>
        <_>
          <depth>7</depth>
          <value>6.</value>
          <norm_class_idx>5</norm_class_idx></_>
        <_>
          <depth>6</depth>
          <value>6.</value>
          <norm_class_idx>5</norm_class_idx>
          <splits>
            <_><var>235</var>
              <quality>36.</quality>
              <le>4.7667101025581360e-02</le></_></splits></_>
        <_>
          <depth>7</depth>
          <value>3.</value>
          <norm_class_idx>2</norm_class_idx></_>
        <_>
          <depth>7</depth>
          <value>6.</value>
          <norm_class_idx>5</norm_class_idx></_>
        <_>
          <depth>2</depth>
          <value>5.</value>
          <norm_class_idx>4</norm_class_idx>
          <splits>
            <_><var>332</var>
              <quality>1.2966667175292969e+02</quality>
              <le>1.1973889917135239e-01</le></_></splits></_>
        <_>
          <depth>3</depth>
          <value>6.</value>
          <norm_class_idx>5</norm_class_idx>
          <splits>
            <_><var>345</var>
              <quality>3.</quality>
              <le>1.2669050693511963e-01</le></_></splits></_>
        <_>
          <depth>4</depth>
          <value>6.</value>
          <norm_class_idx>5</norm_class_idx></_>
        <_>
          <depth>4</depth>
          <value>2.</value>
          <norm_class_idx>1</norm_class_idx></_>
        <_>
          <depth>3</depth>
          <value>5.</value>
          <norm_class_idx>4</norm_class_idx></_></nodes></_>
    <_>
      <nodes>
        <_>
          <depth>0</depth>
          <value>2.</value>
          <norm_class_idx>1</norm_class_idx>
          <splits>
            <_><var>158</var>
              <quality>3.5048266601562500e+02</quality>
              <le>9.9523946642875671e-02</le></_></splits></_>
        <_>
          <depth>1</depth>
          <value>2.</value>
          <norm_class_idx>1</norm_class_idx>
          <splits>
            <_><var>99</var>
              <quality>2.6567089843750000e+02</quality>
              <le>2.4863249063491821e-01</le></_></splits></_>
        <_>
          <depth>2</depth>
          <value>6.</value>
          <norm_class_idx>5</norm_class_idx>
          <splits>
            <_><var>423</var>
              <quality>2.5666666030883789e+01</quality>
              <le>4.7832351922988892e-01</le></_></splits></_>
        <_>
          <depth>3</depth>
          <value>6.</value>
          <norm_class_idx>5</norm_class_idx>
          <splits>
            <_><var>24</var>
              <quality>27.</quality>
              <le>5.1403099298477173e-01</le></_></splits></_>
        <_>
          <depth>4</depth>
          <value>6.</value>
          <norm_class_idx>5</norm_class_idx></_>
        <_>
          <depth>4</depth>
          <value>3.</value>
          <norm_class_idx>2</norm_class_idx></_>
        <_>
          <depth>3</depth>
          <value>2.</value>
          <norm_class_idx>1</norm_class_idx></_>
        <_>
          <depth>2</depth>
          <value>2.</value>
          <norm_class_idx>1</norm_class_idx>
          <splits>
            <_><var>309</var>
              <quality>2.5412307739257813e+02</quality>
              <le>3.8704749941825867e-01</le></_></splits></_>
        <_>
          <depth>3</depth>
          <value>2.</value>
          <norm_class_idx>1</norm_class_idx>
          <splits>
            <_><var>414</var>
              <quality>2.5603100585937500e+02</quality>
              <le>3.7569239735603333e-02</le></_></splits></_>
        <_>
          <depth>4</depth>
          <value>5.</value>
          <norm_class_idx>4</norm_class_idx></_>
        <_>
          <depth>4</depth>
          <value>2.</value>
          <norm_class_idx>1</norm_class_idx>
          <splits>
            <_><var>164</var>
              <quality>258.</quality>
              <le>2.3470444977283478e-01</le></_></splits></_>
        <_>
          <depth>5</depth>
          <value>5.</value>
          <norm_class_idx>4</norm_class_idx></_>
        <_>
          <depth>5</depth>
          <value>2.</value>
          <norm_class_idx>1</norm_class_idx></_>
        <_>
          <depth>3</depth>
          <value>6.</value>
          <norm_class_idx>5</norm_class_idx></_>
        <_>
          <depth>1</depth>
          <value>5.</value>
          <norm_class_idx>4</norm_class_idx>
          <splits>
            <_><var>396</var>
              <quality>1.6870010375976563e+02</quality>
              <le>9.4656854867935181e-02</le></_></splits></_>
        <_>
          <depth>2</depth>
          <value>1.</value>
          <norm_class_idx>0</norm_class_idx>
          <splits>
            <_><var>50</var>
              <quality>8.5281440734863281e+01</quality>
              <le>4.3709799647331238e-01</le></_></splits></_>
        <_>
          <depth>3</depth>
          <value>6.</value>
          <norm_class_idx>5</norm_class_idx>
          <splits>
            <_><var>59</var>
              <quality>5.4492752075195313e+01</quality>
              <le>1.6230899095535278e-01</le></_></splits></_>
        <_>
          <depth>4</depth>
          <value>4.</value>
          <norm_class_idx>3</norm_class_idx>
          <splits>
            <_><var>52</var>
              <quality>1.9666666030883789e+01</quality>
              <le>4.9568402767181396e-01</le></_></splits></_>
        <_>
          <depth>5</depth>
          <value>4.</value>
          <norm_class_idx>3</norm_class_idx></_>
        <_>
          <depth>5</depth>
          <value>3.</value>
          <norm_class_idx>2</norm_class_idx>
          <splits>
            <_><var>223</var>
              <quality>3.</quality>
              <le>3.6205300688743591e-01</le></_></splits></_>
        <_>
          <depth>6</depth>
          <value>5.</value>
          <norm_class_idx>4</norm_class_idx></_>
        <_>
          <depth>6</depth>
          <value>3.</value>
          <norm_class_idx>2</norm_class_idx></_>
        <_>
          <depth>4</depth>
          <value>6.</value>
          <norm_class_idx>5</norm_class_idx>
          <splits>
            <_><var>180</var>
              <quality>6.2053844451904297e+01</quality>
              <le>2.1240150928497314e-01</le></_></splits></_>
        <_>
          <depth>5</depth>
          <value>6.</value>
          <norm_class_idx>5</norm_class_idx>
          <splits>
            <_><var>394</var>
              <quality>52.</quality>
              <le>4.5089900493621826e-01</le></_></splits></_>
        <_>
          <depth>6</depth>
          <value>6.</value>
          <norm_class_idx>5</norm_class_idx></_>
        <_>
          <depth>6</depth>
          <value>1.</value>
          <norm_class_idx>0</norm_class_idx></_>
        <_>
          <depth>5</depth>
          <value>5.</value>
          <norm_class_idx>4</norm_class_idx>
          <splits>
            <_><var>439</var>
              <quality>26.</quality>
              <le>4.1994500160217285e-01</le></_></splits></_>
        <_>
          <depth>6</depth>
          <value>5.</value>
          <norm_class_idx>4</norm_class_idx>
          <splits>
            <_><var>21</var>
              <quality>2.1545454025268555e+01</quality>
              <le>8.7021246552467346e-02</le></_></splits></_>
        <_>
          <depth>7</depth>
          <value>6.</value>
          <norm_class_idx>5</norm_class_idx>
          <splits>
            <_><var>186</var>
              <quality>6.7500000000000000e+00</quality>
              <le>5.3258150815963745e-01</le></_></splits></_>
        <_>
          <depth>8</depth>
          <value>6.</value>
          <norm_class_idx>5</norm_class_idx>
          <splits>
            <_><var>62</var>
              <quality>6.6666665077209473e+00</quality>
              <le>3.4731599688529968e-01</le></_></splits></_>
        <_>
          <depth>9</depth>
          <value>6.</value>
          <norm_class_idx>5</norm_class_idx></_>
        <_>
          <depth>9</depth>
          <value>5.</value>
          <norm_class_idx>4</norm_class_idx>
          <splits>
            <_><var>153</var>
              <quality>3.</quality>
              <le>4.0294399857521057e-01</le></_></splits></_>
        <_>
          <depth>10</depth>
          <value>4.</value>
          <norm_class_idx>3</norm_class_idx></_>
        <_>
          <depth>10</depth>
          <value>5.</value>
          <norm_class_idx>4</norm_class_idx></_>
        <_>
          <depth>8</depth>
          <value>1.</value>
          <norm_class_idx>0</norm_class_idx></_>
        <_>
          <depth>7</depth>
          <value>5.</value>
          <norm_class_idx>4</norm_class_idx></_>
        <_>
          <depth>6</depth>
          <value>3.</value>
          <norm_class_idx>2</norm_class_idx></_>
        <_>
          <depth>3</depth>
          <value>1.</value>
          <norm_class_idx>0</norm_class_idx>
          <splits>
            <_><var>206</var>
              <quality>7.5389877319335938e+01</quality>
              <le>9.9344551563262939e-02</le></_></splits></_>
        <_>
          <depth>4</depth>
          <value>1.</value>
          <norm_class_idx>0</norm_class_idx>
          <splits>
            <_><var>96</var>
              <quality>56.</quality>
              <le>3.5041350126266479e-01</le></_></splits></_>
        <_>
          <depth>5</depth>
          <value>5.</value>
          <norm_class_idx>4</norm_class_idx></_>
        <_>
          <depth>5</depth>
          <value>1.</value>
          <norm_class_idx>0</norm_class_idx></_>
        <_>
          <depth>4</depth>
          <value>5.</value>
          <norm_class_idx>4</norm_class_idx>
          <splits>
            <_><var>197</var>
              <quality>2.9833333969116211e+01</quality>
              <le>2.9120552539825439e-01</le></_></splits></_>
        <_>
          <depth>5</depth>
          <value>1.</value>
          <norm_class_idx>0</norm_class_idx>
          <splits>
            <_><var>378</var>
              <quality>2.6136470794677734e+01</quality>
              <le>4.5182299613952637e-01</le></_></splits></_>
        <_>
          <depth>6</depth>
          <value>5.</value>
          <norm_class_idx>4</norm_class_idx>
          <splits>
            <_><var>195</var>
              <quality>1.5357142448425293e+01</quality>
              <le>1.2557950615882874e-01</le></_></splits></_>
        <_>
          <depth>7</depth>
          <value>3.</value>
          <norm_class_idx>2</norm_class_idx></_>
        <_>
          <depth>7</depth>
          <value>5.</value>
          <norm_class_idx>4</norm_class_idx>
          <splits>
            <_><var>243</var>
              <quality>1.3916666984558105e+01</quality>
              <le>1.9911299645900726e-01</le></_></splits></_>
        <_>
          <depth>8</depth>
          <value>6.</value>
          <norm_class_idx>5</norm_class_idx></_>
        <_>
          <depth>8</depth>
          <value>5.</value>
          <norm_class_idx>4</norm_class_idx>
          <splits>
            <_><var>130</var>
              <quality>1.5100000381469727e+01</quality>
              <le>1.8299123644828796e-01</le></_></splits></_>
        <_>
          <depth>9</depth>
          <value>3.</value>
          <norm_class_idx>2</norm_class_idx></_>
        <_>
          <depth>9</depth>
          <value>5.</value>
          <norm_class_idx>4</norm_class_idx>
          <splits>
            <_><var>255</var>
              <quality>1.3444444656372070e+01</quality>
              <le>3.4430551528930664e-01</le></_></splits></_>
        <_>
          <depth>10</depth>
          <value>1.</value>
          <norm_class_idx>0</norm_class_idx></_>
        <_>
          <depth>10</depth>
          <value>5.</value>
          <norm_class_idx>4</norm_class_idx></_>
        <_>
          <depth>6</depth>
          <value>2.</value>
          <norm_class_idx>1</norm_class_idx>
          <splits>
            <_><var>384</var>
              <quality>2.2400678634643555e+01</quality>
              <le>2.1986851096153259e-01</le></_></splits></_>
        <_>
          <depth>7</depth>
          <value>1.</value>
          <norm_class_idx>0</norm_class_idx>
          <splits>
            <_><var>417</var>
              <quality>16.</quality>
              <le>1.1373050510883331e-01</le></_></splits></_>
        <_>
          <depth>8</depth>
          <value>1.</value>
          <norm_class_idx>0</norm_class_idx>
          <splits>
            <_><var>43</var>
              <quality>1.5203007698059082e+01</quality>
              <le>4.7866648435592651e-01</le></_></splits></_>
        <_>
          <depth>9</depth>
          <value>6.</value>
          <norm_class_idx>5</norm_class_idx>
          <splits>
            <_><var>231</var>
              <quality>7.</quality>
              <le>1.4677199721336365e-01</le></_></splits></_>
        <_>
          <depth>10</depth>
          <value>6.</value>
          <norm_class_idx>5</norm_class_idx></_>
        <_>
          <depth>10</depth>
          <value>5.</value>
          <norm_class_idx>4</norm_class_idx></_>
        <_>
          <depth>9</depth>
          <value>1.</value>
          <norm_class_idx>0</norm_class_idx>
          <splits>
            <_><var>269</var>
              <quality>1.4058823585510254e+01</quality>
              <le>1.3562449812889099e-01</le></_></splits></_>
        <_>
          <depth>10</depth>
          <value>1.</value>
          <norm_class_idx>0</norm_class_idx></_>
        <_>
          <depth>10</depth>
          <value>6.</value>
          <norm_class_idx>5</norm_class_idx></_>
        <_>
          <depth>8</depth>
          <value>2.</value>
          <norm_class_idx>1</norm_class_idx></_>
        <_>
          <depth>7</depth>
          <value>2.</value>
          <norm_class_idx>1</norm_class_idx>
          <splits>
            <_><var>310</var>
              <quality>1.7500000000000000e+01</quality>
              <le>1.4855194091796875e-01</le></_></splits></_>
        <_>
          <depth>8</depth>
          <value>1.</value>
          <norm_class_idx>0</norm_class_idx>
          <splits>
            <_><var>180</var>
              <quality>4.</quality>
              <le>3.2378301024436951e-01</le></_></splits></_>
        <_>
          <depth>9</depth>
          <value>1.</value>
          <norm_class_idx>0</norm_class_idx></_>
        <_>
          <depth>9</depth>
          <value>6.</value>
          <norm_class_idx>5</norm_class_idx></_>
        <_>
          <depth>8</depth>
          <value>2.</value>
          <norm_class_idx>1</norm_class_idx></_>
        <_>
          <depth>5</depth>
          <value>5.</value>
          <norm_class_idx>4</norm_class_idx></_>
        <_>
          <depth>2</depth>
          <value>5.</value>
          <norm_class_idx>4</norm_class_idx>
          <splits>
            <_><var>447</var>
              <quality>1.4749230957031250e+02</quality>
              <le>3.8867250084877014e-01</le></_></splits></_>
        <_>
          <depth>3</depth>
          <value>5.</value>
          <norm_class_idx>4</norm_class_idx>
          <splits>
            <_><var>231</var>
              <quality>1.2263646697998047e+02</quality>
              <le>3.9143902063369751e-01</le></_></splits></_>
        <_>
          <depth>4</depth>
          <value>5.</value>
          <norm_class_idx>4</norm_class_idx>
          <splits>
            <_><var>239</var>
              <quality>1.2101639556884766e+02</quality>
              <le>3.5934351384639740e-02</le></_></splits></_>
        <_>
          <depth>5</depth>
          <value>1.</value>
          <norm_class_idx>0</norm_class_idx></_>
        <_>
          <depth>5</depth>
          <value>5.</value>
          <norm_class_idx>4</norm_class_idx>
          <splits>
            <_><var>259</var>
              <quality>122.</quality>
              <le>2.8262549638748169e-01</le></_></splits></_>
        <_>
          <depth>6</depth>
          <value>5.</value>
          <norm_class_idx>4</norm_class_idx></_>
        <_>
          <depth>6</depth>
          <value>1.</value>
          <norm_class_idx>0</norm_class_idx></_>
        <_>
          <depth>4</depth>
          <value>5.</value>
          <norm_class_idx>4</norm_class_idx>
          <splits>
            <_><var>328</var>
              <quality>7.</quality>
              <le>4.4657051563262939e-01</le></_></splits></_>
        <_>
          <depth>5</depth>
          <value>5.</value>
          <norm_class_idx>4</norm_class_idx></_>
        <_>
          <depth>5</depth>
          <value>4.</value>
          <norm_class_idx>3</norm_class_idx></_>
        <_>
          <depth>3</depth>
          <value>2.</value>
          <norm_class_idx>1</norm_class_idx>
          <splits>
            <_><var>288</var>
              <quality>40.</quality>
              <le>2.9394498467445374e-01</le></_></splits></_>
        <_>
          <depth>4</depth>
          <value>2.</value>
          <norm_class_idx>1</norm_class_idx></_>
        <_>
          <depth>4</depth>
          <value>5.</value>
          <norm_class_idx>4</norm_class_idx></_></nodes></_>
    <_>
      <nodes>
        <_>
          <depth>0</depth>
          <value>2.</value>
          <norm_class_idx>1</norm_class_idx>
          <splits>
            <_><var>22</var>
              <quality>3.4447796630859375e+02</quality>
              <le>3.0007800087332726e-02</le></_></splits></_>
        <_>
          <depth>1</depth>
          <value>2.</value>
          <norm_class_idx>1</norm_class_idx>
          <splits>
            <_><var>345</var>
              <quality>2.5102655029296875e+02</quality>
              <le>1.6365450620651245e-01</le></_></splits></_>
        <_>
          <depth>2</depth>
          <value>3.</value>
          <norm_class_idx>2</norm_class_idx>
          <splits>
            <_><var>200</var>
              <quality>1.7571428298950195e+01</quality>
              <le>6.4725196361541748e-01</le></_></splits></_>
        <_>
          <depth>3</depth>
          <value>6.</value>
          <norm_class_idx>5</norm_class_idx>
          <splits>
            <_><var>154</var>
              <quality>14.</quality>
              <le>2.0617300271987915e-01</le></_></splits></_>
        <_>
          <depth>4</depth>
          <value>4.</value>
          <norm_class_idx>3</norm_class_idx></_>
        <_>
          <depth>4</depth>
          <value>6.</value>
          <norm_class_idx>5</norm_class_idx></_>
        <_>
          <depth>3</depth>
          <value>3.</value>
          <norm_class_idx>2</norm_class_idx></_>
        <_>
          <depth>2</depth>
          <value>2.</value>
          <norm_class_idx>1</norm_class_idx>
          <splits>
            <_><var>117</var>
              <quality>2.5835687255859375e+02</quality>
              <le>4.5770399272441864e-02</le></_></splits></_>
        <_>
          <depth>3</depth>
          <value>6.</value>
          <norm_class_idx>5</norm_class_idx>
          <splits>
            <_><var>361</var>
              <quality>14.</quality>
              <le>2.4754950404167175e-01</le></_></splits></_>
        <_>
          <depth>4</depth>
          <value>2.</value>
          <norm_class_idx>1</norm_class_idx>
          <splits>
            <_><var>312</var>
              <quality>8.</quality>
              <le>2.1536600589752197e-01</le></_></splits></_>
        <_>
          <depth>5</depth>
          <value>2.</value>
          <norm_class_idx>1</norm_class_idx></_>
        <_>
          <depth>5</depth>
          <value>5.</value>
          <norm_class_idx>4</norm_class_idx></_>
        <_>
          <depth>4</depth>
          <value>6.</value>
          <norm_class_idx>5</norm_class_idx></_>
        <_>
          <depth>3</depth>
          <value>2.</value>
          <norm_class_idx>1</norm_class_idx>
          <splits>
            <_><var>144</var>
              <quality>254.</quality>
              <le>4.2583000659942627e-01</le></_></splits></_>
        <_>
          <depth>4</depth>
          <value>4.</value>
          <norm_class_idx>3</norm_class_idx></_>
        <_>
          <depth>4</depth>
          <value>2.</value>
          <norm_class_idx>1</norm_class_idx></_>
        <_>
          <depth>1</depth>
          <value>5.</value>
          <norm_class_idx>4</norm_class_idx>
          <splits>
            <_><var>161</var>
              <quality>1.8685668945312500e+02</quality>
              <le>3.5899049043655396e-01</le></_></splits></_>
        <_>
          <depth>2</depth>
          <value>1.</value>
          <norm_class_idx>0</norm_class_idx>
          <splits>
            <_><var>2</var>
              <quality>9.5017303466796875e+01</quality>
              <le>4.5658650398254395e+00</le></_></splits></_>
        <_>
          <depth>3</depth>
          <value>2.</value>
          <norm_class_idx>1</norm_class_idx>
          <splits>
            <_><var>286</var>
              <quality>7.0294654846191406e+01</quality>
              <le>2.0928700268268585e-01</le></_></splits></_>
        <_>
          <depth>4</depth>
          <value>6.</value>
          <norm_class_idx>5</norm_class_idx>
          <splits>
            <_><var>119</var>
              <quality>3.8368419647216797e+01</quality>
              <le>3.1696099042892456e-01</le></_></splits></_>
        <_>
          <depth>5</depth>
          <value>1.</value>
          <norm_class_idx>0</norm_class_idx></_>
        <_>
          <depth>5</depth>
          <value>6.</value>
          <norm_class_idx>5</norm_class_idx>
          <splits>
            <_><var>397</var>
              <quality>3.6055557250976563e+01</quality>
              <le>1.2121070176362991e-02</le></_></splits></_>
        <_>
          <depth>6</depth>
          <value>1.</value>
          <norm_class_idx>0</norm_class_idx></_>
        <_>
          <depth>6</depth>
          <value>6.</value>
          <norm_class_idx>5</norm_class_idx>
          <splits>
            <_><var>387</var>
              <quality>36.</quality>
              <le>2.1221570670604706e-01</le></_></splits></_>
        <_>
          <depth>7</depth>
          <value>6.</value>
          <norm_class_idx>5</norm_class_idx></_>
        <_>
          <depth>7</depth>
          <value>5.</value>
          <norm_class_idx>4</norm_class_idx></_>
        <_>
          <depth>4</depth>
          <value>2.</value>
          <norm_class_idx>1</norm_class_idx>
          <splits>
            <_><var>375</var>
              <quality>5.7245098114013672e+01</quality>
              <le>3.8490998744964600e-01</le></_></splits></_>
        <_>
          <depth>5</depth>
          <value>5.</value>
          <norm_class_idx>4</norm_class_idx>
          <splits>
            <_><var>215</var>
              <quality>4.4083332061767578e+01</quality>
              <le>1.3235449790954590e-01</le></_></splits></_>
        <_>
          <depth>6</depth>
          <value>2.</value>
          <norm_class_idx>1</norm_class_idx>
          <splits>
            <_><var>157</var>
              <quality>2.4832536697387695e+01</quality>
              <le>2.3473849892616272e-01</le></_></splits></_>
        <_>
          <depth>7</depth>
          <value>2.</value>
          <norm_class_idx>1</norm_class_idx>
          <splits>
            <_><var>234</var>
              <quality>19.</quality>
              <le>2.6606199145317078e-01</le></_></splits></_>
        <_>
          <depth>8</depth>
          <value>2.</value>
          <norm_class_idx>1</norm_class_idx></_>
        <_>
          <depth>8</depth>
          <value>6.</value>
          <norm_class_idx>5</norm_class_idx></_>
        <_>
          <depth>7</depth>
          <value>1.</value>
          <norm_class_idx>0</norm_class_idx>
          <splits>
            <_><var>8</var>
              <quality>11.</quality>
              <le>4.8908048868179321e-01</le></_></splits></_>
        <_>
          <depth>8</depth>
          <value>1.</value>
          <norm_class_idx>0</norm_class_idx></_>
        <_>
          <depth>8</depth>
          <value>5.</value>
          <norm_class_idx>4</norm_class_idx></_>
        <_>
          <depth>6</depth>
          <value>5.</value>
          <norm_class_idx>4</norm_class_idx>
          <splits>
            <_><var>323</var>
              <quality>3.9625000000000000e+01</quality>
              <le>9.1549396514892578e-02</le></_></splits></_>
        <_>
          <depth>7</depth>
          <value>1.</value>
          <norm_class_idx>0</norm_class_idx>
          <splits>
            <_><var>45</var>
              <quality>2.2111110687255859e+01</quality>
              <le>1.5942600369453430e-01</le></_></splits></_>
        <_>
          <depth>8</depth>
          <value>1.</value>
          <norm_class_idx>0</norm_class_idx>
          <splits>
            <_><var>306</var>
              <quality>2.0886363983154297e+01</quality>
              <le>3.8383901119232178e-01</le></_></splits></_>
        <_>
          <depth>9</depth>
          <value>5.</value>
          <norm_class_idx>4</norm_class_idx>
          <splits>
            <_><var>369</var>
              <quality>8.</quality>
              <le>3.9563751220703125e-01</le></_></splits></_>
        <_>
          <depth>10</depth>
          <value>5.</value>
          <norm_class_idx>4</norm_class_idx></_>
        <_>
          <depth>10</depth>
          <value>6.</value>
          <norm_class_idx>5</norm_class_idx></_>
        <_>
          <depth>9</depth>
          <value>1.</value>
          <norm_class_idx>0</norm_class_idx>
          <splits>
            <_><var>339</var>
              <quality>2.0100000381469727e+01</quality>
              <le>4.2578750848770142e-01</le></_></splits></_>
        <_>
          <depth>10</depth>
          <value>1.</value>
          <norm_class_idx>0</norm_class_idx></_>
        <_>
          <depth>10</depth>
          <value>5.</value>
          <norm_class_idx>4</norm_class_idx></_>
        <_>
          <depth>8</depth>
          <value>5.</value>
          <norm_class_idx>4</norm_class_idx>
          <splits>
            <_><var>16</var>
              <quality>1.2222222328186035e+01</quality>
              <le>4.2170450091362000e-01</le></_></splits></_>
        <_>
          <depth>9</depth>
          <value>5.</value>
          <norm_class_idx>4</norm_class_idx></_>
        <_>
          <depth>9</depth>
          <value>6.</value>
          <norm_class_idx>5</norm_class_idx>
          <splits>
            <_><var>68</var>
              <quality>6.3333334922790527e+00</quality>
              <le>2.1235650777816772e-01</le></_></splits></_>
        <_>
          <depth>10</depth>
          <value>3.</value>
          <norm_class_idx>2</norm_class_idx></_>
        <_>
          <depth>10</depth>
          <value>6.</value>
          <norm_class_idx>5</norm_class_idx></_>
        <_>
          <depth>7</depth>
          <value>5.</value>
          <norm_class_idx>4</norm_class_idx></_>
        <_>
          <depth>5</depth>
          <value>2.</value>
          <norm_class_idx>1</norm_class_idx>
          <splits>
            <_><var>227</var>
              <quality>4.2771213531494141e+01</quality>
              <le>4.8194751143455505e-01</le></_></splits></_>
        <_>
          <depth>6</depth>
          <value>3.</value>
          <norm_class_idx>2</norm_class_idx>
          <splits>
            <_><var>438</var>
              <quality>19.</quality>
              <le>4.7711300849914551e-01</le></_></splits></_>
        <_>
          <depth>7</depth>
          <value>4.</value>
          <norm_class_idx>3</norm_class_idx></_>
        <_>
          <depth>7</depth>
          <value>3.</value>
          <norm_class_idx>2</norm_class_idx></_>
        <_>
          <depth>6</depth>
          <value>2.</value>
          <norm_class_idx>1</norm_class_idx>
          <splits>
            <_><var>421</var>
              <quality>3.9190910339355469e+01</quality>
              <le>4.4494950771331787e-01</le></_></splits></_>
        <_>
          <depth>7</depth>
          <value>5.</value>
          <norm_class_idx>4</norm_class_idx>
          <splits>
            <_><var>432</var>
              <quality>5.</quality>
              <le>4.1595849394798279e-01</le></_></splits></_>
        <_>
          <depth>8</depth>
          <value>1.</value>
          <norm_class_idx>0</norm_class_idx></_>
        <_>
          <depth>8</depth>
          <value>5.</value>
          <norm_class_idx>4</norm_class_idx></_>
        <_>
          <depth>7</depth>
          <value>2.</value>
          <norm_class_idx>1</norm_class_idx>
          <splits>
            <_><var>183</var>
              <quality>4.2048782348632813e+01</quality>
              <le>3.1710249185562134e-01</le></_></splits></_>
        <_>
          <depth>8</depth>
          <value>6.</value>
          <norm_class_idx>5</norm_class_idx></_>
        <_>
          <depth>8</depth>
          <value>2.</value>
          <norm_class_idx>1</norm_class_idx>
          <splits>
            <_><var>426</var>
              <quality>41.</quality>
              <le>1.3146660290658474e-02</le></_></splits></_>
        <_>
          <depth>9</depth>
          <value>5.</value>
          <norm_class_idx>4</norm_class_idx></_>
        <_>
          <depth>9</depth>
          <value>2.</value>
          <norm_class_idx>1</norm_class_idx></_>
        <_>
          <depth>3</depth>
          <value>1.</value>
          <norm_class_idx>0</norm_class_idx>
          <splits>
            <_><var>410</var>
              <quality>54.</quality>
              <le>4.3044149875640869e-01</le></_></splits></_>
        <_>
          <depth>4</depth>
          <value>6.</value>
          <norm_class_idx>5</norm_class_idx></_>
        <_>
          <depth>4</depth>
          <value>1.</value>
          <norm_class_idx>0</norm_class_idx></_>
        <_>
          <depth>2</depth>
          <value>5.</value>
          <norm_class_idx>4</norm_class_idx>
          <splits>
            <_><var>105</var>
              <quality>1.4443157958984375e+02</quality>
              <le>4.5333898067474365e-01</le></_></splits></_>
        <_>
          <depth>3</depth>
          <value>5.</value>
          <norm_class_idx>4</norm_class_idx>
          <splits>
            <_><var>170</var>
              <quality>1.4421621704101563e+02</quality>
              <le>2.6416549086570740e-01</le></_></splits></_>
        <_>
          <depth>4</depth>
          <value>6.</value>
          <norm_class_idx>5</norm_class_idx></_>
        <_>
          <depth>4</depth>
          <value>5.</value>
          <norm_class_idx>4</norm_class_idx>
          <splits>
            <_><var>368</var>
              <quality>148.</quality>
              <le>1.0678735375404358e-01</le></_></splits></_>
        <_>
          <depth>5</depth>
          <value>4.</value>
          <norm_class_idx>3</norm_class_idx></_>
        <_>
          <depth>5</depth>
          <value>5.</value>
          <norm_class_idx>4</norm_class_idx></_>
        <_>
          <depth>3</depth>
          <value>4.</value>
          <norm_class_idx>3</norm_class_idx>
          <splits>
            <_><var>247</var>
              <quality>15.</quality>
              <le>3.1243699789047241e-01</le></_></splits></_>
        <_>
          <depth>4</depth>
          <value>3.</value>
          <norm_class_idx>2</norm_class_idx></_>
        <_>
          <depth>4</depth>
          <value>4.</value>
          <norm_class_idx>3</norm_class_idx></_></nodes></_>
    <_>
      <nodes>
        <_>
          <depth>0</depth>
          <value>2.</value>
          <norm_class_idx>1</norm_class_idx>
          <splits>
            <_><var>236</var>
              <quality>3.5433496093750000e+02</quality>
              <le>5.3378099203109741e-01</le></_></splits></_>
        <_>
          <depth>1</depth>
          <value>5.</value>
          <norm_class_idx>4</norm_class_idx>
          <splits>
            <_><var>170</var>
              <quality>1.7404440307617188e+02</quality>
              <le>3.6471998691558838e-01</le></_></splits></_>
        <_>
          <depth>2</depth>
          <value>1.</value>
          <norm_class_idx>0</norm_class_idx>
          <splits>
            <_><var>1</var>
              <quality>1.0309037780761719e+02</quality>
              <le>2.6791048049926758e+00</le></_></splits></_>
        <_>
          <depth>3</depth>
          <value>5.</value>
          <norm_class_idx>4</norm_class_idx>
          <splits>
            <_><var>224</var>
              <quality>6.2187847137451172e+01</quality>
              <le>3.0972450971603394e-02</le></_></splits></_>
        <_>
          <depth>4</depth>
          <value>6.</value>
          <norm_class_idx>5</norm_class_idx></_>
        <_>
          <depth>4</depth>
          <value>5.</value>
          <norm_class_idx>4</norm_class_idx>
          <splits>
            <_><var>447</var>
              <quality>6.8622650146484375e+01</quality>
              <le>4.6581399440765381e-01</le></_></splits></_>
        <_>
          <depth>5</depth>
          <value>5.</value>
          <norm_class_idx>4</norm_class_idx>
          <splits>
            <_><var>193</var>
              <quality>5.5712146759033203e+01</quality>
              <le>4.4230601191520691e-01</le></_></splits></_>
        <_>
          <depth>6</depth>
          <value>6.</value>
          <norm_class_idx>5</norm_class_idx>
          <splits>
            <_><var>359</var>
              <quality>2.1346092224121094e+01</quality>
              <le>2.8720998764038086e-01</le></_></splits></_>
        <_>
          <depth>7</depth>
          <value>3.</value>
          <norm_class_idx>2</norm_class_idx>
          <splits>
            <_><var>319</var>
              <quality>1.4800000190734863e+01</quality>
              <le>1.7159384489059448e-01</le></_></splits></_>
        <_>
          <depth>8</depth>
          <value>3.</value>
          <norm_class_idx>2</norm_class_idx></_>
        <_>
          <depth>8</depth>
          <value>4.</value>
          <norm_class_idx>3</norm_class_idx>
          <splits>
            <_><var>302</var>
              <quality>10.</quality>
              <le>3.9180600643157959e-01</le></_></splits></_>
        <_>
          <depth>9</depth>
          <value>4.</value>
          <norm_class_idx>3</norm_class_idx></_>
        <_>
          <depth>9</depth>
          <value>5.</value>
          <norm_class_idx>4</norm_class_idx></_>
        <_>
          <depth>7</depth>
          <value>6.</value>
          <norm_class_idx>5</norm_class_idx>
          <splits>
            <_><var>244</var>
              <quality>2.3571428298950195e+01</quality>
              <le>4.1227000951766968e-01</le></_></splits></_>
        <_>
          <depth>8</depth>
          <value>6.</value>
          <norm_class_idx>5</norm_class_idx></_>
        <_>
          <depth>8</depth>
          <value>2.</value>
          <norm_class_idx>1</norm_class_idx>
          <splits>
            <_><var>210</var>
              <quality>9.5000000000000000e+00</quality>
              <le>4.5013952255249023e-01</le></_></splits></_>
        <_>
          <depth>9</depth>
          <value>1.</value>
          <norm_class_idx>0</norm_class_idx>
          <splits>
            <_><var>124</var>
              <quality>6.</quality>
              <le>2.0693901181221008e-01</le></_></splits></_>
        <_>
          <depth>10</depth>
          <value>1.</value>
          <norm_class_idx>0</norm_class_idx></_>
        <_>
          <depth>10</depth>
          <value>3.</value>
          <norm_class_idx>2</norm_class_idx></_>
        <_>
          <depth>9</depth>
          <value>2.</value>
          <norm_class_idx>1</norm_class_idx></_>
        <_>
          <depth>6</depth>
          <value>5.</value>
          <norm_class_idx>4</norm_class_idx>
          <splits>
            <_><var>324</var>
              <quality>5.0588233947753906e+01</quality>
              <le>3.5952098667621613e-02</le></_></splits></_>
        <_>
          <depth>7</depth>
          <value>3.</value>
          <norm_class_idx>2</norm_class_idx>
          <splits>
            <_><var>19</var>
              <quality>7.</quality>
              <le>9.4982549548149109e-02</le></_></splits></_>
        <_>
          <depth>8</depth>
          <value>3.</value>
          <norm_class_idx>2</norm_class_idx></_>
        <_>
          <depth>8</depth>
          <value>1.</value>
          <norm_class_idx>0</norm_class_idx>
          <splits>
            <_><var>145</var>
              <quality>6.</quality>
              <le>4.0345501899719238e-01</le></_></splits></_>
        <_>
          <depth>9</depth>
          <value>1.</value>
          <norm_class_idx>0</norm_class_idx></_>
        <_>
          <depth>9</depth>
          <value>6.</value>
          <norm_class_idx>5</norm_class_idx></_>
        <_>
          <depth>7</depth>
          <value>5.</value>
          <norm_class_idx>4</norm_class_idx>
          <splits>
            <_><var>29</var>
              <quality>5.2991561889648438e+01</quality>
              <le>4.3162000179290771e-01</le></_></splits></_>
        <_>
          <depth>8</depth>
          <value>5.</value>
          <norm_class_idx>4</norm_class_idx>
          <splits>
            <_><var>428</var>
              <quality>5.6093334197998047e+01</quality>
              <le>3.8023200631141663e-01</le></_></splits></_>
        <_>
          <depth>9</depth>
          <value>5.</value>
          <norm_class_idx>4</norm_class_idx>
          <splits>
            <_><var>117</var>
              <quality>5.4111110687255859e+01</quality>
              <le>3.9111948013305664e-01</le></_></splits></_>
        <_>
          <depth>10</depth>
          <value>5.</value>
          <norm_class_idx>4</norm_class_idx></_>
        <_>
          <depth>10</depth>
          <value>6.</value>
          <norm_class_idx>5</norm_class_idx></_>
        <_>
          <depth>9</depth>
          <value>4.</value>
          <norm_class_idx>3</norm_class_idx></_>
        <_>
          <depth>8</depth>
          <value>1.</value>
          <norm_class_idx>0</norm_class_idx>
          <splits>
            <_><var>143</var>
              <quality>6.</quality>
              <le>1.3472145795822144e-01</le></_></splits></_>
        <_>
          <depth>9</depth>
          <value>6.</value>
          <norm_class_idx>5</norm_class_idx></_>
        <_>
          <depth>9</depth>
          <value>1.</value>
          <norm_class_idx>0</norm_class_idx></_>
        <_>
          <depth>5</depth>
          <value>2.</value>
          <norm_class_idx>1</norm_class_idx>
          <splits>
            <_><var>344</var>
              <quality>3.2666667938232422e+01</quality>
              <le>2.5514701008796692e-01</le></_></splits></_>
